{"learner":{"attributes":{},"feature_names":[],"feature_types":[],"gradient_booster":{"model":{"gbtree_model_param":{"num_parallel_tree":"1","num_trees":"100"},"iteration_indptr":[0,1,2,3,4,5,6,7,8,9,10,11,12,13,14,15,16,17,18,19,20,21,22,23,24,25,26,27,28,29,30,31,32,33,34,35,36,37,38,39,40,41,42,43,44,45,46,47,48,49,50,51,52,53,54,55,56,57,58,59,60,61,62,63,64,65,66,67,68,69,70,71,72,73,74,75,76,77,78,79,80,81,82,83,84,85,86,87,88,89,90,91,92,93,94,95,96,97,98,99,100],"tree_info":[0,0,0,0,0,0,0,0,0,0,0,0,0,0,0,0,0,0,0,0,0,0,0,0,0,0,0,0,0,0,0,0,0,0,0,0,0,0,0,0,0,0,0,0,0,0,0,0,0,0,0,0,0,0,0,0,0,0,0,0,0,0,0,0,0,0,0,0,0,0,0,0,0,0,0,0,0,0,0,0,0,0,0,0,0,0,0,0,0,0,0,0,0,0,0,0,0,0,0,0],"trees":[{"base_weights":[2.3866434E-2,-6.501488E-1,1.0831796E0,-7.523628E-1,-5.470563E-1,2.5872841E-2,1.0914103E0,-1.8865066E-2,-3.8115274E-2,-3.4122344E-2,-2.4118586E-2,4.9317267E-2,5.600797E-2],"categories":[],"categories_nodes":[],"categories_segments":[],"categories_sizes":[],"default_left":[0,0,0,0,0,0,0,0,0,0,0,0,0],"id":0,"left_children":[1,3,5,7,9,-1,11,-1,-1,-1,-1,-1,-1],"loss_changes":[9.0890356E2,7.786621E0,1.7401123E0,1.1592712E0,3.0950546E0,0E0,3.661499E-1,0E0,0E0,0E0,0E0,0E0,0E0],"parents":[2147483647,0,0,1,1,2,2,3,3,4,4,6,6],"right_children":[2,4,6,8,10,-1,12,-1,-1,-1,-1,-1,-1],"split_conditions":[-1.2854064E-1,-5.448212E-1,1.0725263E0,-1.5022632E0,-7.775399E-1,2.5872841E-2,1.1368214E0,-1.8865066E-2,-3.8115274E-2,-3.4122344E-2,-2.4118586E-2,4.9317267E-2,5.600797E-2],"split_indices":[4,4,4,9,1,0,4,0,0,0,0,0,0],"split_type":[0,0,0,0,0,0,0,0,0,0,0,0,0],"sum_hessian":[1.271E3,7.77E2,4.94E2,3.87E2,3.9E2,8E0,4.86E2,1.1E1,3.76E2,1.23E2,2.67E2,1.12E2,3.74E2],"tree_param":{"num_deleted":"0","num_feature":"12","num_nodes":"13","size_leaf_vector":"1"}},{"base_weights":[-1.0790288E-2,-6.398122E-1,1.0294878E0,-7.441723E-1,-5.2830213E-1,8.9089996E-1,1.0626538E0,-3.7596945E-2,-1.7643958E-2,-2.7149653E-2,-5.9476434E-3,4.605007E-2,1.3039623E-2,3.640732E-2,5.3842206E-2],"categories":[],"categories_nodes":[],"categories_segments":[],"categories_sizes":[],"default_left":[0,0,0,0,0,0,0,0,0,0,0,0,0,0,0],"id":1,"left_children":[1,3,5,7,9,11,13,-1,-1,-1,-1,-1,-1,-1,-1],"loss_changes":[8.5263245E2,9.056244E0,1.3100586E0,1.0019226E0,2.3168411E0,1.6754913E0,1.0719299E0,0E0,0E0,0E0,0E0,0E0,0E0,0E0,0E0],"parents":[2147483647,0,0,1,1,2,2,3,3,4,4,5,5,6,6],"right_children":[2,4,6,8,10,12,14,-1,-1,-1,-1,-1,-1,-1,-1],"split_conditions":[1.0686568E0,-5.448212E-1,1.13191E0,1.6733929E0,1.5205679E0,1.7142049E0,-1.0433116E0,-3.7596945E-2,-1.7643958E-2,-2.7149653E-2,-5.9476434E-3,4.605007E-2,1.3039623E-2,3.640732E-2,5.3842206E-2],"split_indices":[4,4,4,0,0,10,2,0,0,0,0,0,0,0,0],"split_type":[0,0,0,0,0,0,0,0,0,0,0,0,0,0,0],"sum_hessian":[1.301E3,8.11E2,4.9E2,4.16E2,3.95E2,1E2,3.9E2,4.07E2,9E0,3.81E2,1.4E1,9.5E1,5E0,1.8E1,3.72E2],"tree_param":{"num_deleted":"0","num_feature":"12","num_nodes":"15","size_leaf_vector":"1"}},{"base_weights":[-3.423187E-3,-6.008162E-1,9.805252E-1,-6.484728E-1,-4.1971922E-1,8.59433E-1,1.0142726E0,-3.289382E-2,-7.179943E-3,-2.2154499E-2,1.5979313E-4,4.447135E-2,1.7541764E-2,3.6129404E-2,5.1172774E-2],"categories":[],"categories_nodes":[],"categories_segments":[],"categories_sizes":[],"default_left":[0,0,0,0,0,0,0,0,0,0,0,0,0,0,0],"id":2,"left_children":[1,3,5,7,9,11,13,-1,-1,-1,-1,-1,-1,-1,-1],"loss_changes":[7.6708545E2,6.735779E0,1.1429138E0,2.948761E0,1.7014389E0,1.4270096E0,2.783203E-1,0E0,0E0,0E0,0E0,0E0,0E0,0E0,0E0],"parents":[2147483647,0,0,1,1,2,2,3,3,4,4,5,5,6,6],"right_children":[2,4,6,8,10,12,14,-1,-1,-1,-1,-1,-1,-1,-1],"split_conditions":[1.0686568E0,-3.040125E-1,1.1368214E0,1.1944588E0,7.8567857E-1,1.7823266E0,-7.4862003E-1,-3.289382E-2,-7.179943E-3,-2.2154499E-2,1.5979313E-4,4.447135E-2,1.7541764E-2,3.6129404E-2,5.1172774E-2],"split_indices":[4,4,4,3,6,10,1,0,0,0,0,0,0,0,0],"split_type":[0,0,0,0,0,0,0,0,0,0,0,0,0,0,0],"sum_hessian":[1.303E3,8.11E2,4.92E2,6.4E2,1.71E2,1.13E2,3.79E2,6.28E2,1.2E1,1.62E2,9E0,1.06E2,7E0,1.4E1,3.65E2],"tree_param":{"num_deleted":"0","num_feature":"12","num_nodes":"15","size_leaf_vector":"1"}},{"base_weights":[-2.9957507E-4,-5.680823E-1,9.342005E-1,-6.4073104E-1,-4.2388114E-1,6.715442E-1,9.466896E-1,-3.3146903E-2,-1.8716063E-2,-2.7013442E-2,-1.7594E-2,4.311441E-2,2.3708971E-2,4.16875E-2,4.8778545E-2],"categories":[],"categories_nodes":[],"categories_segments":[],"categories_sizes":[],"default_left":[0,0,0,0,0,0,0,0,0,0,0,0,0,0,0],"id":3,"left_children":[1,3,5,7,9,11,13,-1,-1,-1,-1,-1,-1,-1,-1],"loss_changes":[6.9772986E2,8.297791E0,9.945984E-1,2.9584198E0,2.1311607E0,5.699215E-1,7.262268E-1,0E0,0E0,0E0,0E0,0E0,0E0,0E0,0E0],"parents":[2147483647,0,0,1,1,2,2,3,3,4,4,5,5,6,6],"right_children":[2,4,6,8,10,12,14,-1,-1,-1,-1,-1,-1,-1,-1],"split_conditions":[1.0686568E0,-4.102779E-1,-1.0433116E0,4.3362045E-1,-4.3162814E-1,-8.242932E-3,1.13191E0,-3.3146903E-2,-1.8716063E-2,-2.7013442E-2,-1.7594E-2,4.311441E-2,2.3708971E-2,4.16875E-2,4.8778545E-2],"split_indices":[4,4,2,6,10,6,4,0,0,0,0,0,0,0,0],"split_type":[0,0,0,0,0,0,0,0,0,0,0,0,0,0,0],"sum_hessian":[1.313E3,8.17E2,4.96E2,5.41E2,2.76E2,2.5E1,4.71E2,4.98E2,4.3E1,1.03E2,1.73E2,1.1E1,1.4E1,1.02E2,3.69E2],"tree_param":{"num_deleted":"0","num_feature":"12","num_nodes":"15","size_leaf_vector":"1"}},{"base_weights":[6.904986E-3,-5.324808E-1,8.5792196E-1,-5.44347E-1,2.1841925E-2,-2.9051694E-1,8.944159E-1,-2.8801326E-2,-2.0512387E-2,-3.7400104E-2,7.420809E-3,4.9341474E-2,4.318042E-2],"categories":[],"categories_nodes":[],"categories_segments":[],"categories_sizes":[],"default_left":[0,0,0,0,0,0,0,0,0,0,0,0,0],"id":4,"left_children":[1,3,5,7,-1,9,11,-1,-1,-1,-1,-1,-1],"loss_changes":[5.857156E2,9.220963E0,2.1005829E1,3.0432892E0,0E0,3.3239017E0,5.1434326E-1,0E0,0E0,0E0,0E0,0E0,0E0],"parents":[2147483647,0,0,1,1,2,2,3,3,5,5,6,6],"right_children":[2,4,6,8,-1,10,12,-1,-1,-1,-1,-1,-1],"split_conditions":[4.5522416E-1,1.9372153E0,-1.5949107E0,4.3362045E-1,2.1841925E-2,-1.8795887E0,1.381183E-1,-2.8801326E-2,-2.0512387E-2,-3.7400104E-2,7.420809E-3,4.9341474E-2,4.318042E-2],"split_indices":[9,7,7,6,0,0,6,0,0,0,0,0,0],"split_type":[0,0,0,0,0,0,0,0,0,0,0,0,0],"sum_hessian":[1.274E3,7.8E2,4.94E2,7.71E2,9E0,1.5E1,4.79E2,6.21E2,1.5E2,7E0,8E0,1.12E2,3.67E2],"tree_param":{"num_deleted":"0","num_feature":"12","num_nodes":"13","size_leaf_vector":"1"}},{"base_weights":[-8.020729E-3,-5.118382E-1,8.2412046E-1,-5.5178267E-1,-3.624933E-1,3.8892895E-1,8.361537E-1,-2.7952546E-2,-2.116944E-3,8.141107E-3,-1.9281304E-2,3.089543E-3,2.7315948E-2,4.659403E-2,4.0687595E-2],"categories":[],"categories_nodes":[],"categories_segments":[],"categories_sizes":[],"default_left":[0,0,0,0,0,0,0,0,0,0,0,0,0,0,0],"id":5,"left_children":[1,3,5,7,9,11,13,-1,-1,-1,-1,-1,-1,-1,-1],"loss_changes":[5.425085E2,4.6081696E0,2.2303467E0,2.3238983E0,2.165079E0,7.3856616E-1,2.581482E-1,0E0,0E0,0E0,0E0,0E0,0E0,0E0,0E0],"parents":[2147483647,0,0,1,1,2,2,3,3,4,4,5,5,6,6],"right_children":[2,4,6,8,10,12,14,-1,-1,-1,-1,-1,-1,-1,-1],"split_conditions":[-1.2854064E-1,-3.111564E-1,1.0768424E0,1.1944588E0,-1.6199132E0,5.081292E-1,-2.5667332E-2,-2.7952546E-2,-2.116944E-3,8.141107E-3,-1.9281304E-2,3.089543E-3,2.7315948E-2,4.659403E-2,4.0687595E-2],"split_indices":[4,4,4,3,7,9,8,0,0,0,0,0,0,0,0],"split_type":[0,0,0,0,0,0,0,0,0,0,0,0,0,0,0],"sum_hessian":[1.292E3,8.05E2,4.87E2,6.33E2,1.72E2,1.4E1,4.73E2,6.24E2,9E0,7E0,1.65E2,5E0,9E0,8.2E1,3.91E2],"tree_param":{"num_deleted":"0","num_feature":"12","num_nodes":"15","size_leaf_vector":"1"}},{"base_weights":[1.8036688E-2,-4.6884128E-1,8.2175046E-1,-5.5486524E-1,-3.8950005E-1,7.179034E-1,8.510864E-1,-1.6705701E-2,-2.8340716E-2,-1.9991403E-2,6.271232E-3,3.7300296E-2,9.288914E-3,4.2988352E-2,3.0210307E-2],"categories":[],"categories_nodes":[],"categories_segments":[],"categories_sizes":[],"default_left":[0,0,0,0,0,0,0,0,0,0,0,0,0,0,0],"id":6,"left_children":[1,3,5,7,9,11,13,-1,-1,-1,-1,-1,-1,-1,-1],"loss_changes":[5.0204538E2,5.2372437E0,8.6346436E-1,8.1560516E-1,2.2784538E0,1.5512161E0,2.7774048E-1,0E0,0E0,0E0,0E0,0E0,0E0,0E0,0E0],"parents":[2147483647,0,0,1,1,2,2,3,3,4,4,5,5,6,6],"right_children":[2,4,6,8,10,12,14,-1,-1,-1,-1,-1,-1,-1,-1],"split_conditions":[1.0686568E0,-5.576207E-1,1.142477E0,-1.420097E0,1.3902665E0,1.8163874E0,2.1055307E0,-1.6705701E-2,-2.8340716E-2,-1.9991403E-2,6.271232E-3,3.7300296E-2,9.288914E-3,4.2988352E-2,3.0210307E-2],"split_indices":[4,4,4,4,3,10,3,0,0,0,0,0,0,0,0],"split_type":[0,0,0,0,0,0,0,0,0,0,0,0,0,0,0],"sum_hessian":[1.281E3,7.98E2,4.83E2,3.8E2,4.18E2,1.12E2,3.71E2,2.1E1,3.59E2,4.1E2,8E0,1.06E2,6E0,3.56E2,1.5E1],"tree_param":{"num_deleted":"0","num_feature":"12","num_nodes":"15","size_leaf_vector":"1"}},{"base_weights":[2.6761626E-3,-4.5287475E-1,7.6413196E-1,-5.408735E-1,-3.661385E-1,2.8688583E-1,7.7469116E-1,-2.485897E-2,-3.0963823E-2,-3.517468E-2,-1.7346798E-2,3.6619492E-3,2.1451402E-2,3.398083E-2,4.0008973E-2],"categories":[],"categories_nodes":[],"categories_segments":[],"categories_sizes":[],"default_left":[0,0,0,0,0,0,0,0,0,0,0,0,0,0,0],"id":7,"left_children":[1,3,5,7,9,11,13,-1,-1,-1,-1,-1,-1,-1,-1],"loss_changes":[4.457424E2,5.9386444E0,2.2016602E0,1.0521317E0,2.3989868E0,3.3299708E-1,5.951233E-1,0E0,0E0,0E0,0E0,0E0,0E0,0E0,0E0],"parents":[2147483647,0,0,1,1,2,2,3,3,4,4,5,5,6,6],"right_children":[2,4,6,8,10,12,14,-1,-1,-1,-1,-1,-1,-1,-1],"split_conditions":[-1.2854064E-1,-5.448212E-1,4.8167667E-1,-2.3033826E-1,-1.8795887E0,5.0647706E-1,1.13191E0,-2.485897E-2,-3.0963823E-2,-3.517468E-2,-1.7346798E-2,3.6619492E-3,2.1451402E-2,3.398083E-2,4.0008973E-2],"split_indices":[4,4,9,8,0,8,4,0,0,0,0,0,0,0,0],"split_type":[0,0,0,0,0,0,0,0,0,0,0,0,0,0,0],"sum_hessian":[1.283E3,8.03E2,4.8E2,3.96E2,4.07E2,1.1E1,4.69E2,2.59E2,1.37E2,2E1,3.87E2,5E0,6E0,1.05E2,3.64E2],"tree_param":{"num_deleted":"0","num_feature":"12","num_nodes":"15","size_leaf_vector":"1"}},{"base_weights":[-2.9453328E-3,-4.539794E-1,6.836441E-1,-4.6468544E-1,3.4352842E-1,-1.7105286E-1,7.1659654E-1,-2.4745744E-2,-1.6856542E-2,3.304973E-2,-1.5596249E-3,-3.1139655E-2,6.0049514E-3,3.4251798E-2,3.947129E-2],"categories":[],"categories_nodes":[],"categories_segments":[],"categories_sizes":[],"default_left":[0,0,0,0,0,0,0,0,0,0,0,0,0,0,0],"id":8,"left_children":[1,3,5,7,9,11,13,-1,-1,-1,-1,-1,-1,-1,-1],"loss_changes":[4.038172E2,6.879181E0,1.4683517E1,2.8291779E0,1.3291917E0,2.705297E0,6.0388184E-1,0E0,0E0,0E0,0E0,0E0,0E0,0E0,0E0],"parents":[2147483647,0,0,1,1,2,2,3,3,4,4,5,5,6,6],"right_children":[2,4,6,8,10,12,14,-1,-1,-1,-1,-1,-1,-1,-1],"split_conditions":[4.5522416E-1,1.3902665E0,-2.3371835E-1,4.3362045E-1,-4.3162814E-1,-1.8795887E0,1.6335902E0,-2.4745744E-2,-1.6856542E-2,3.304973E-2,-1.5596249E-3,-3.1139655E-2,6.0049514E-3,3.4251798E-2,3.947129E-2],"split_indices":[9,3,6,6,10,0,6,0,0,0,0,0,0,0,0],"split_type":[0,0,0,0,0,0,0,0,0,0,0,0,0,0,0],"sum_hessian":[1.302E3,7.86E2,5.16E2,7.76E2,1E1,1.9E1,4.97E2,6.25E2,1.51E2,5E0,5E0,7E0,1.2E1,3.54E2,1.43E2],"tree_param":{"num_deleted":"0","num_feature":"12","num_nodes":"15","size_leaf_vector":"1"}},{"base_weights":[5.419437E-3,-4.143494E-1,6.808002E-1,-4.8393437E-1,-3.4318298E-1,3.5729742E-1,6.90244E-1,-2.5938785E-2,-1.8616956E-2,-2.2148246E-2,-1.383087E-2,2.4819115E-2,2.137944E-3,3.9151646E-2,3.2502156E-2],"categories":[],"categories_nodes":[],"categories_segments":[],"categories_sizes":[],"default_left":[0,0,0,0,0,0,0,0,0,0,0,0,0,0,0],"id":9,"left_children":[1,3,5,7,9,11,13,-1,-1,-1,-1,-1,-1,-1,-1],"loss_changes":[3.6316696E2,3.7460938E0,1.2534332E0,1.3504257E0,2.4944344E0,6.78736E-1,1.266571E0,0E0,0E0,0E0,0E0,0E0,0E0,0E0,0E0],"parents":[2147483647,0,0,1,1,2,2,3,3,4,4,5,5,6,6],"right_children":[2,4,6,8,10,12,14,-1,-1,-1,-1,-1,-1,-1,-1],"split_conditions":[-1.2854064E-1,-5.448212E-1,1.0768424E0,3.453423E-1,-4.3162814E-1,9.004524E-1,2.4040486E-1,-2.5938785E-2,-1.8616956E-2,-2.2148246E-2,-1.383087E-2,2.4819115E-2,2.137944E-3,3.9151646E-2,3.2502156E-2],"split_indices":[4,4,4,0,10,0,8,0,0,0,0,0,0,0,0],"split_type":[0,0,0,0,0,0,0,0,0,0,0,0,0,0,0],"sum_hessian":[1.279E3,7.89E2,4.9E2,3.96E2,3.93E2,1.5E1,4.75E2,2.99E2,9.7E1,1.55E2,2.38E2,1E1,5E0,1.38E2,3.37E2],"tree_param":{"num_deleted":"0","num_feature":"12","num_nodes":"15","size_leaf_vector":"1"}},{"base_weights":[1.4029542E-2,-2.727459E-1,2.505091E-1,-3.566634E-1,7.178607E-2,8.23282E-2,5.9662294E-1,-2.2740413E-2,-1.2276724E-2,-1.5019553E-2,2.379557E-2,-1.6852327E-2,8.789335E-3,1.633519E-2,3.229551E-2],"categories":[],"categories_nodes":[],"categories_segments":[],"categories_sizes":[],"default_left":[0,0,0,0,0,0,0,0,0,0,0,0,0,0,0],"id":10,"left_children":[1,3,5,7,9,11,13,-1,-1,-1,-1,-1,-1,-1,-1],"loss_changes":[8.822983E1,1.7026009E1,4.145443E1,5.047207E0,1.7590076E1,1.8911625E1,2.88871E0,0E0,0E0,0E0,0E0,0E0,0E0,0E0,0E0],"parents":[2147483647,0,0,1,1,2,2,3,3,4,4,5,5,6,6],"right_children":[2,4,6,8,10,12,14,-1,-1,-1,-1,-1,-1,-1,-1],"split_conditions":[-1.23412095E-1,8.544176E-1,5.883454E-1,-7.634231E-1,-7.775399E-1,-8.648181E-1,-8.571978E-2,-2.2740413E-2,-1.2276724E-2,-1.5019553E-2,2.379557E-2,-1.6852327E-2,8.789335E-3,1.633519E-2,3.229551E-2],"split_indices":[1,8,8,1,1,8,7,0,0,0,0,0,0,0,0],"split_type":[0,0,0,0,0,0,0,0,0,0,0,0,0,0,0],"sum_hessian":[1.299E3,5.87E2,7.12E2,4.72E2,1.15E2,4.8E2,2.32E2,2.49E2,2.23E2,6E1,5.5E1,8.7E1,3.93E2,3.7E1,1.95E2],"tree_param":{"num_deleted":"0","num_feature":"12","num_nodes":"15","size_leaf_vector":"1"}},{"base_weights":[-2.9042526E-3,-3.8444713E-1,6.40809E-1,-4.6066055E-1,-3.0618072E-1,5.2824885E-1,6.7284745E-1,-1.1654171E-2,-2.3608476E-2,-1.566859E-2,1.1512245E-2,6.185333E-3,2.729161E-2,4.1376323E-2,3.2249548E-2],"categories":[],"categories_nodes":[],"categories_segments":[],"categories_sizes":[],"default_left":[0,0,0,0,0,0,0,0,0,0,0,0,0,0,0],"id":11,"left_children":[1,3,5,7,9,11,13,-1,-1,-1,-1,-1,-1,-1,-1],"loss_changes":[3.2272467E2,4.7800446E0,1.4080353E0,9.795151E-1,1.6537132E0,7.36269E-1,1.0906677E0,0E0,0E0,0E0,0E0,0E0,0E0,0E0,0E0],"parents":[2147483647,0,0,1,1,2,2,3,3,4,4,5,5,6,6],"right_children":[2,4,6,8,10,12,14,-1,-1,-1,-1,-1,-1,-1,-1],"split_conditions":[-1.2854064E-1,-5.409516E-1,1.1368214E0,-1.420097E0,2.021262E0,1.0686568E0,3.0995221E-4,-1.1654171E-2,-2.3608476E-2,-1.566859E-2,1.1512245E-2,6.185333E-3,2.729161E-2,4.1376323E-2,3.2249548E-2],"split_indices":[4,4,4,4,0,4,6,0,0,0,0,0,0,0,0],"split_type":[0,0,0,0,0,0,0,0,0,0,0,0,0,0,0],"sum_hessian":[1.312E3,8.24E2,4.88E2,4.15E2,4.09E2,1.12E2,3.76E2,2.1E1,3.94E2,4.04E2,5E0,5E0,1.07E2,5.3E1,3.23E2],"tree_param":{"num_deleted":"0","num_feature":"12","num_nodes":"15","size_leaf_vector":"1"}},{"base_weights":[-5.047937E-3,-3.7071383E-1,6.106244E-1,-4.064531E-1,-2.4829787E-1,6.3582224E-1,5.1561123E-1,-2.887084E-2,-1.9529432E-2,-3.654567E-4,-1.3759446E-2,3.4623824E-2,2.9557977E-2,1.7793627E-2,3.164273E-2],"categories":[],"categories_nodes":[],"categories_segments":[],"categories_sizes":[],"default_left":[0,0,0,0,0,0,0,0,0,0,0,0,0,0,0],"id":12,"left_children":[1,3,5,7,9,11,13,-1,-1,-1,-1,-1,-1,-1,-1],"loss_changes":[2.9604767E2,3.5084991E0,8.4529114E-1,1.5021667E0,1.2227917E0,5.597534E-1,1.7974377E0,0E0,0E0,0E0,0E0,0E0,0E0,0E0,0E0],"parents":[2147483647,0,0,1,1,2,2,3,3,4,4,5,5,6,6],"right_children":[2,4,6,8,10,12,14,-1,-1,-1,-1,-1,-1,-1,-1],"split_conditions":[1.0686568E0,-3.111564E-1,1.2011812E0,-1.6973242E0,-1.2568123E0,4.4507578E-1,1.4931998E0,-2.887084E-2,-1.9529432E-2,-3.654567E-4,-1.3759446E-2,3.4623824E-2,2.9557977E-2,1.7793627E-2,3.164273E-2],"split_indices":[4,4,7,0,3,8,7,0,0,0,0,0,0,0,0],"split_type":[0,0,0,0,0,0,0,0,0,0,0,0,0,0,0],"sum_hessian":[1.313E3,8.24E2,4.89E2,6.36E2,1.88E2,3.82E2,1.07E2,5.1E1,5.85E2,1.9E1,1.69E2,1.62E2,2.2E2,4.7E1,6E1],"tree_param":{"num_deleted":"0","num_feature":"12","num_nodes":"15","size_leaf_vector":"1"}},{"base_weights":[-3.2957946E-3,-3.4118685E-1,2.0278011E-1,-4.2021936E-1,-2.571521E-1,-2.477283E-1,2.9973727E-1,-2.1670535E-2,1.8970758E-3,1.2041135E-2,-1.3760301E-2,-1.5369427E-2,2.5078133E-2,1.0414916E-2,2.872259E-2],"categories":[],"categories_nodes":[],"categories_segments":[],"categories_sizes":[],"default_left":[0,0,0,0,0,0,0,0,0,0,0,0,0,0,0],"id":13,"left_children":[1,3,5,7,9,11,13,-1,-1,-1,-1,-1,-1,-1,-1],"loss_changes":[9.0798645E1,3.1728287E0,3.545507E1,1.5455132E0,2.241953E0,6.5913887E0,1.6635117E1,0E0,0E0,0E0,0E0,0E0,0E0,0E0,0E0],"parents":[2147483647,0,0,1,1,2,2,3,3,4,4,5,5,6,6],"right_children":[2,4,6,8,10,12,14,-1,-1,-1,-1,-1,-1,-1,-1],"split_conditions":[-2.3371835E-1,-8.8432795E-1,-8.4035826E-1,1.7823266E0,-8.4392613E-1,8.064193E-1,8.064193E-1,-2.1670535E-2,1.8970758E-3,1.2041135E-2,-1.3760301E-2,-1.5369427E-2,2.5078133E-2,1.0414916E-2,2.872259E-2],"split_indices":[6,3,10,10,3,6,6,0,0,0,0,0,0,0,0],"split_type":[0,0,0,0,0,0,0,0,0,0,0,0,0,0,0],"sum_hessian":[1.302E3,4.93E2,8.09E2,2.52E2,2.41E2,1.43E2,6.66E2,2.45E2,7E0,8E0,2.33E2,1.33E2,1E1,5.01E2,1.65E2],"tree_param":{"num_deleted":"0","num_feature":"12","num_nodes":"15","size_leaf_vector":"1"}},{"base_weights":[1.2663479E-2,-3.247812E-1,5.3456205E-1,-3.359203E-1,2.0475653E-1,-3.0368236E-1,5.638454E-1,-2.0074598E-2,-1.4778115E-2,-7.534355E-3,3.1173324E-2,-2.7229518E-2,3.2763206E-3,2.7532792E-2,3.5038497E-2],"categories":[],"categories_nodes":[],"categories_segments":[],"categories_sizes":[],"default_left":[0,0,0,0,0,0,0,0,0,0,0,0,0,0,0],"id":14,"left_children":[1,3,5,7,9,11,13,-1,-1,-1,-1,-1,-1,-1,-1],"loss_changes":[2.3052795E2,4.758156E0,1.2788208E1,1.942833E0,2.624021E0,1.6367011E0,5.1168823E-1,0E0,0E0,0E0,0E0,0E0,0E0,0E0,0E0],"parents":[2147483647,0,0,1,1,2,2,3,3,4,4,5,5,6,6],"right_children":[2,4,6,8,10,12,14,-1,-1,-1,-1,-1,-1,-1,-1],"split_conditions":[4.5522416E-1,1.7254039E0,-1.2779024E0,-7.634231E-1,1.4403734E0,-1.3920949E0,1.6526343E0,-2.0074598E-2,-1.4778115E-2,-7.534355E-3,3.1173324E-2,-2.7229518E-2,3.2763206E-3,2.7532792E-2,3.5038497E-2],"split_indices":[9,7,1,1,3,3,8,0,0,0,0,0,0,0,0],"split_type":[0,0,0,0,0,0,0,0,0,0,0,0,0,0,0],"sum_hessian":[1.307E3,7.94E2,5.13E2,7.78E2,1.6E1,1.7E1,4.96E2,2.93E2,4.85E2,9E0,7E0,1E1,7E0,4.57E2,3.9E1],"tree_param":{"num_deleted":"0","num_feature":"12","num_nodes":"15","size_leaf_vector":"1"}},{"base_weights":[-6.517699E-3,-3.3201894E-1,5.359977E-1,-3.643459E-1,-2.2376266E-1,6.8123096E-1,5.088745E-1,-2.3733573E-2,-1.6709486E-2,-6.477279E-3,-1.7055674E-2,1.044045E-2,3.5621908E-2,2.2590792E-2,2.9094866E-2],"categories":[],"categories_nodes":[],"categories_segments":[],"categories_sizes":[],"default_left":[0,0,0,0,0,0,0,0,0,0,0,0,0,0,0],"id":15,"left_children":[1,3,5,7,9,11,13,-1,-1,-1,-1,-1,-1,-1,-1],"loss_changes":[2.3027399E2,2.7706528E0,1.5796204E0,1.9240646E0,2.0565357E0,9.422226E-1,1.4703827E0,0E0,0E0,0E0,0E0,0E0,0E0,0E0,0E0],"parents":[2147483647,0,0,1,1,2,2,3,3,4,4,5,5,6,6],"right_children":[2,4,6,8,10,12,14,-1,-1,-1,-1,-1,-1,-1,-1],"split_conditions":[1.0686568E0,-3.111564E-1,3.0995221E-4,-1.2298985E0,1.585365E-1,1.0801167E0,1.2414497E0,-2.3733573E-2,-1.6709486E-2,-6.477279E-3,-1.7055674E-2,1.044045E-2,3.5621908E-2,2.2590792E-2,2.9094866E-2],"split_indices":[4,4,6,3,8,4,4,0,0,0,0,0,0,0,0],"split_type":[0,0,0,0,0,0,0,0,0,0,0,0,0,0,0],"sum_hessian":[1.302E3,8.14E2,4.88E2,6.25E2,1.89E2,7.3E1,4.15E2,1.31E2,4.94E2,1.06E2,8.3E1,5E0,6.8E1,2.37E2,1.78E2],"tree_param":{"num_deleted":"0","num_feature":"12","num_nodes":"15","size_leaf_vector":"1"}},{"base_weights":[8.273606E-3,-2.9318026E-1,5.1826745E-1,-3.6042628E-1,-2.2619814E-1,4.093949E-1,5.444412E-1,-1.604877E-2,-2.2321519E-2,9.062886E-3,-1.1831453E-2,2.2103662E-2,3.7175163E-3,8.8617075E-3,2.7436376E-2],"categories":[],"categories_nodes":[],"categories_segments":[],"categories_sizes":[],"default_left":[0,0,0,0,0,0,0,0,0,0,0,0,0,0,0],"id":16,"left_children":[1,3,5,7,9,11,13,-1,-1,-1,-1,-1,-1,-1,-1],"loss_changes":[2.0278078E2,3.6525192E0,1.1734161E0,1.2546005E0,1.8194504E0,1.0510521E0,5.197296E-1,0E0,0E0,0E0,0E0,0E0,0E0,0E0,0E0],"parents":[2147483647,0,0,1,1,2,2,3,3,4,4,5,5,6,6],"right_children":[2,4,6,8,10,12,14,-1,-1,-1,-1,-1,-1,-1,-1],"split_conditions":[1.0686568E0,-5.448212E-1,1.13191E0,-1.4846988E-1,-7.0868725E-1,1.1253614E0,4.8167667E-1,-1.604877E-2,-2.2321519E-2,9.062886E-3,-1.1831453E-2,2.2103662E-2,3.7175163E-3,8.8617075E-3,2.7436376E-2],"split_indices":[4,4,4,8,9,4,9,0,0,0,0,0,0,0,0],"split_type":[0,0,0,0,0,0,0,0,0,0,0,0,0,0,0],"sum_hessian":[1.317E3,8.28E2,4.89E2,4.11E2,4.17E2,9.8E1,3.91E2,2.85E2,1.26E2,1E1,4.07E2,8.9E1,9E0,5E0,3.86E2],"tree_param":{"num_deleted":"0","num_feature":"12","num_nodes":"15","size_leaf_vector":"1"}},{"base_weights":[-8.702321E-3,-2.949277E-1,4.677793E-1,-3.3128846E-1,-2.1740663E-1,3.7731776E-1,4.8944187E-1,-1.3396829E-2,-1.7937627E-2,1.1327839E-2,-1.1781697E-2,2.0355888E-2,-7.870096E-3,2.806369E-2,2.2191886E-2],"categories":[],"categories_nodes":[],"categories_segments":[],"categories_sizes":[],"default_left":[0,0,0,0,0,0,0,0,0,0,0,0,0,0,0],"id":17,"left_children":[1,3,5,7,9,11,13,-1,-1,-1,-1,-1,-1,-1,-1],"loss_changes":[1.7988829E2,2.2506104E0,7.8533936E-1,8.764801E-1,2.205925E0,1.6575451E0,1.0481186E0,0E0,0E0,0E0,0E0,0E0,0E0,0E0,0E0],"parents":[2147483647,0,0,1,1,2,2,3,3,4,4,5,5,6,6],"right_children":[2,4,6,8,10,12,14,-1,-1,-1,-1,-1,-1,-1,-1],"split_conditions":[-1.2854064E-1,-3.8750675E-1,1.13191E0,-1.1790259E0,-3.7842804E-1,1.1253614E0,7.9859704E-2,-1.3396829E-2,-1.7937627E-2,1.1327839E-2,-1.1781697E-2,2.0355888E-2,-7.870096E-3,2.806369E-2,2.2191886E-2],"split_indices":[4,4,4,6,4,4,0,0,0,0,0,0,0,0,0],"split_type":[0,0,0,0,0,0,0,0,0,0,0,0,0,0,0],"sum_hessian":[1.317E3,8.23E2,4.94E2,5.58E2,2.65E2,9.9E1,3.95E2,1.72E2,3.86E2,1E1,2.55E2,9.4E1,5E0,1.49E2,2.46E2],"tree_param":{"num_deleted":"0","num_feature":"12","num_nodes":"15","size_leaf_vector":"1"}},{"base_weights":[3.7468777E-3,-2.7431384E-1,4.5885083E-1,-3.0353367E-1,-1.7452364E-1,2.7096838E-1,4.679457E-1,-1.5686644E-2,-2.4325682E-3,-5.101439E-4,-1.1872857E-2,7.9058185E-3,2.6928563E-2,3.0878222E-2,2.2383066E-2],"categories":[],"categories_nodes":[],"categories_segments":[],"categories_sizes":[],"default_left":[0,0,0,0,0,0,0,0,0,0,0,0,0,0,0],"id":18,"left_children":[1,3,5,7,9,11,13,-1,-1,-1,-1,-1,-1,-1,-1],"loss_changes":[1.6349742E2,2.2855377E0,7.105026E-1,1.5938835E0,1.9003735E0,6.6983104E-1,1.1378098E0,0E0,0E0,0E0,0E0,0E0,0E0,0E0,0E0],"parents":[2147483647,0,0,1,1,2,2,3,3,4,4,5,5,6,6],"right_children":[2,4,6,8,10,12,14,-1,-1,-1,-1,-1,-1,-1,-1],"split_conditions":[1.0686568E0,-3.111564E-1,-1.0433116E0,9.06902E-1,-6.89357E-1,2.3069015E0,-4.7295323E-1,-1.5686644E-2,-2.4325682E-3,-5.101439E-4,-1.1872857E-2,7.9058185E-3,2.6928563E-2,3.0878222E-2,2.2383066E-2],"split_indices":[4,4,2,3,2,9,2,0,0,0,0,0,0,0,0],"split_type":[0,0,0,0,0,0,0,0,0,0,0,0,0,0,0],"sum_hessian":[1.29E3,8.01E2,4.89E2,6.18E2,1.83E2,2.4E1,4.65E2,5.94E2,2.4E1,5.1E1,1.32E2,1.8E1,6E0,5.2E1,4.13E2],"tree_param":{"num_deleted":"0","num_feature":"12","num_nodes":"15","size_leaf_vector":"1"}},{"base_weights":[-1.1646864E-2,-2.6690632E-1,4.3305808E-1,-2.7249342E-1,2.1205714E-2,3.6175565E-3,4.367572E-1,-1.659984E-2,-1.06669385E-2,2.1303551E-2,3.0453688E-2],"categories":[],"categories_nodes":[],"categories_segments":[],"categories_sizes":[],"default_left":[0,0,0,0,0,0,0,0,0,0,0],"id":19,"left_children":[1,3,5,7,-1,-1,9,-1,-1,-1,-1],"loss_changes":[1.4723123E2,3.2968636E0,5.995178E-1,2.8084488E0,0E0,0E0,6.0227203E-1,0E0,0E0,0E0,0E0],"parents":[2147483647,0,0,1,1,2,2,3,3,6,6],"right_children":[2,4,6,8,-1,-1,10,-1,-1,-1,-1],"split_conditions":[1.0686568E0,1.8845091E0,-1.1809666E0,-5.5256045E-1,2.1205714E-2,3.6175565E-3,1.7959039E0,-1.659984E-2,-1.06669385E-2,2.1303551E-2,3.0453688E-2],"split_indices":[4,10,10,4,0,0,8,0,0,0,0],"split_type":[0,0,0,0,0,0,0,0,0,0,0],"sum_hessian":[1.295E3,8.23E2,4.72E2,8.17E2,6E0,5E0,4.67E2,4.05E2,4.12E2,4.43E2,2.4E1],"tree_param":{"num_deleted":"0","num_feature":"12","num_nodes":"11","size_leaf_vector":"1"}},{"base_weights":[1.17836725E-2,-2.4201699E-1,4.074497E-1,-2.5394347E-1,1.0530555E-1,-1.7009454E-2,4.216159E-1,-1.3746406E-2,-7.865416E-3,-1.1154078E-2,1.0487668E-2,2.1401837E-2,9.295049E-3],"categories":[],"categories_nodes":[],"categories_segments":[],"categories_sizes":[],"default_left":[0,0,0,0,0,0,0,0,0,0,0,0,0],"id":20,"left_children":[1,3,5,7,9,-1,11,-1,-1,-1,-1,-1,-1],"loss_changes":[1.3054457E2,3.3074799E0,5.523758E0,1.510086E0,9.728737E-1,0E0,6.756592E-1,0E0,0E0,0E0,0E0,0E0,0E0],"parents":[2147483647,0,0,1,1,2,2,3,3,4,4,6,6],"right_children":[2,4,6,8,10,-1,12,-1,-1,-1,-1,-1,-1],"split_conditions":[4.5522416E-1,1.6553466E0,-1.5760219E0,-1.5318409E-1,8.8346E-1,-1.7009454E-2,2.1055307E0,-1.3746406E-2,-7.865416E-3,-1.1154078E-2,1.0487668E-2,2.1401837E-2,9.295049E-3],"split_indices":[9,0,1,9,2,0,3,0,0,0,0,0,0],"split_type":[0,0,0,0,0,0,0,0,0,0,0,0,0],"sum_hessian":[1.298E3,7.91E2,5.07E2,7.65E2,2.6E1,9E0,4.98E2,6.27E2,1.38E2,6E0,2E1,4.84E2,1.4E1],"tree_param":{"num_deleted":"0","num_feature":"12","num_nodes":"13","size_leaf_vector":"1"}},{"base_weights":[8.853801E-3,-2.2645849E-1,3.805063E-1,-2.3301612E-1,2.1538039E-1,-3.184063E-1,4.0291727E-1,-1.3981685E-2,-8.742255E-3,2.2707651E-3,1.6514806E-2,-2.500682E-2,-3.7079595E-3,2.1577744E-2,1.6420184E-2],"categories":[],"categories_nodes":[],"categories_segments":[],"categories_sizes":[],"default_left":[0,0,0,0,0,0,0,0,0,0,0,0,0,0,0],"id":21,"left_children":[1,3,5,7,9,11,13,-1,-1,-1,-1,-1,-1,-1,-1],"loss_changes":[1.1211525E2,2.3246574E0,7.912964E0,2.0500336E0,2.1937943E-1,6.7310286E-1,8.8681793E-1,0E0,0E0,0E0,0E0,0E0,0E0,0E0,0E0],"parents":[2147483647,0,0,1,1,2,2,3,3,4,4,5,5,6,6],"right_children":[2,4,6,8,10,12,14,-1,-1,-1,-1,-1,-1,-1,-1],"split_conditions":[4.5522416E-1,1.8109553E0,-1.2779024E0,-5.235195E-1,-5.235195E-1,6.1393934E-1,9.8067653E-1,-1.3981685E-2,-8.742255E-3,2.2707651E-3,1.6514806E-2,-2.500682E-2,-3.7079595E-3,2.1577744E-2,1.6420184E-2],"split_indices":[9,2,1,9,9,9,0,0,0,0,0,0,0,0,0],"split_type":[0,0,0,0,0,0,0,0,0,0,0,0,0,0,0],"sum_hessian":[1.28E3,7.84E2,4.96E2,7.73E2,1.1E1,1.5E1,4.81E2,4.27E2,3.46E2,5E0,6E0,8E0,7E0,3.44E2,1.37E2],"tree_param":{"num_deleted":"0","num_feature":"12","num_nodes":"15","size_leaf_vector":"1"}},{"base_weights":[-7.852117E-3,-2.3183507E-1,3.8182724E-1,-2.7191207E-1,-1.6090637E-1,3.8654515E-1,1.0308017E-3,-1.4250803E-2,-2.2143223E-3,-5.620509E-3,-1.2374586E-2,1.8982515E-2,3.6216963E-2],"categories":[],"categories_nodes":[],"categories_segments":[],"categories_sizes":[],"default_left":[0,0,0,0,0,0,0,0,0,0,0,0,0],"id":22,"left_children":[1,3,5,7,9,11,-1,-1,-1,-1,-1,-1,-1],"loss_changes":[1.1023781E2,2.2360191E0,7.776489E-1,1.5115929E0,1.1983051E0,7.847214E-1,0E0,0E0,0E0,0E0,0E0,0E0,0E0],"parents":[2147483647,0,0,1,1,2,2,3,3,4,4,5,5],"right_children":[2,4,6,8,10,12,-1,-1,-1,-1,-1,-1,-1],"split_conditions":[1.0686568E0,-4.102779E-1,2.2067058E0,1.1692314E0,2.8806895E-1,2.0765803E0,1.0308017E-3,-1.4250803E-2,-2.2143223E-3,-5.620509E-3,-1.2374586E-2,1.8982515E-2,3.6216963E-2],"split_indices":[4,4,3,10,3,2,0,0,0,0,0,0,0],"split_type":[0,0,0,0,0,0,0,0,0,0,0,0,0],"sum_hessian":[1.261E3,8.01E2,4.6E2,5.1E2,2.91E2,4.54E2,6E0,4.82E2,2.8E1,1.88E2,1.03E2,4.47E2,7E0],"tree_param":{"num_deleted":"0","num_feature":"12","num_nodes":"13","size_leaf_vector":"1"}},{"base_weights":[-6.2667564E-3,-2.2192493E-1,3.4155375E-1,-2.5632346E-1,-1.6091415E-1,4.5360437E-1,3.178946E-1,-1.3096164E-2,6.565222E-3,1.6187996E-2,-8.867783E-3,5.176294E-3,2.4431584E-2,1.1273738E-2,1.7374631E-2],"categories":[],"categories_nodes":[],"categories_segments":[],"categories_sizes":[],"default_left":[0,0,0,0,0,0,0,0,0,0,0,0,0,0,0],"id":23,"left_children":[1,3,5,7,9,11,13,-1,-1,-1,-1,-1,-1,-1,-1],"loss_changes":[9.818932E1,1.6544838E0,1.18396E0,1.1522751E0,2.4002376E0,9.9171066E-1,1.0623283E0,0E0,0E0,0E0,0E0,0E0,0E0,0E0,0E0],"parents":[2147483647,0,0,1,1,2,2,3,3,4,4,5,5,6,6],"right_children":[2,4,6,8,10,12,14,-1,-1,-1,-1,-1,-1,-1,-1],"split_conditions":[-1.2854064E-1,-1.23412095E-1,3.0995221E-4,1.9596406E0,-1.2014962E0,1.0801167E0,-1.3558798E-2,-1.3096164E-2,6.565222E-3,1.6187996E-2,-8.867783E-3,5.176294E-3,2.4431584E-2,1.1273738E-2,1.7374631E-2],"split_indices":[4,1,6,8,3,4,7,0,0,0,0,0,0,0,0],"split_type":[0,0,0,0,0,0,0,0,0,0,0,0,0,0,0],"sum_hessian":[1.307E3,8.07E2,5E2,5.14E2,2.93E2,8.4E1,4.16E2,5.07E2,7E0,9E0,2.84E2,8E0,7.6E1,1.03E2,3.13E2],"tree_param":{"num_deleted":"0","num_feature":"12","num_nodes":"15","size_leaf_vector":"1"}},{"base_weights":[-1.119317E-2,-2.0710745E-1,3.224901E-1,-2.1360047E-1,2.4175182E-2,-2.0678442E-2,3.3413443E-1,-1.2870349E-2,-8.409246E-3,1.6156163E-2,2.497797E-2],"categories":[],"categories_nodes":[],"categories_segments":[],"categories_sizes":[],"default_left":[0,0,0,0,0,0,0,0,0,0,0],"id":24,"left_children":[1,3,5,7,-1,-1,9,-1,-1,-1,-1],"loss_changes":[8.570584E1,3.8071823E0,4.2950706E0,1.5861053E0,0E0,0E0,7.092705E-1,0E0,0E0,0E0,0E0],"parents":[2147483647,0,0,1,1,2,2,3,3,6,6],"right_children":[2,4,6,8,-1,-1,10,-1,-1,-1,-1],"split_conditions":[5.081292E-1,1.6905978E0,-1.8858719E0,-4.2721757E-1,2.4175182E-2,-2.0678442E-2,1.7959039E0,-1.2870349E-2,-8.409246E-3,1.6156163E-2,2.497797E-2],"split_indices":[9,1,2,1,0,0,8,0,0,0,0],"split_type":[0,0,0,0,0,0,0,0,0,0,0],"sum_hessian":[1.309E3,8.25E2,4.84E2,8.18E2,7E0,7E0,4.77E2,4.14E2,4.04E2,4.5E2,2.7E1],"tree_param":{"num_deleted":"0","num_feature":"12","num_nodes":"11","size_leaf_vector":"1"}},{"base_weights":[1.137287E-2,-1.7288965E-1,3.0819625E-1,-1.9818372E-1,-5.385661E-2,-3.8915643E-1,3.235033E-1,-1.261241E-2,-6.811382E-3,-1.3382909E-2,7.589228E-3,-1.0637436E-2,-2.5035236E-2,1.9545052E-2,1.4481901E-2],"categories":[],"categories_nodes":[],"categories_segments":[],"categories_sizes":[],"default_left":[0,0,0,0,0,0,0,0,0,0,0,0,0,0,0],"id":25,"left_children":[1,3,5,7,9,11,13,-1,-1,-1,-1,-1,-1,-1,-1],"loss_changes":[7.0115555E1,2.3708916E0,5.3670273E0,2.1495914E0,6.195923E0,1.09933496E-1,9.846344E-1,0E0,0E0,0E0,0E0,0E0,0E0,0E0,0E0],"parents":[2147483647,0,0,1,1,2,2,3,3,4,4,5,5,6,6],"right_children":[2,4,6,8,10,12,14,-1,-1,-1,-1,-1,-1,-1,-1],"split_conditions":[4.5522416E-1,-1.2673156E-1,-1.2779024E0,-1.6992894E-1,-9.701755E-1,-1.9211154E0,2.4040486E-1,-1.261241E-2,-6.811382E-3,-1.3382909E-2,7.589228E-3,-1.0637436E-2,-2.5035236E-2,1.9545052E-2,1.4481901E-2],"split_indices":[9,9,1,1,1,7,8,0,0,0,0,0,0,0,0],"split_type":[0,0,0,0,0,0,0,0,0,0,0,0,0,0,0],"sum_hessian":[1.28E3,7.9E2,4.9E2,6.51E2,1.39E2,1E1,4.8E2,3.46E2,3.05E2,6.8E1,7.1E1,5E0,5E0,1.57E2,3.23E2],"tree_param":{"num_deleted":"0","num_feature":"12","num_nodes":"15","size_leaf_vector":"1"}},{"base_weights":[8.791066E-3,-1.7912914E-1,3.162787E-1,-3.1235737E-1,-1.6496307E-1,5.491346E-1,3.102076E-1,-3.4914555E-3,-1.7218571E-2,1.3453282E-2,-8.730336E-3,1.6145807E-2,3.4191534E-2,-5.859545E-4,1.6001543E-2],"categories":[],"categories_nodes":[],"categories_segments":[],"categories_sizes":[],"default_left":[0,0,0,0,0,0,0,0,0,0,0,0,0,0,0],"id":26,"left_children":[1,3,5,7,9,11,13,-1,-1,-1,-1,-1,-1,-1,-1],"loss_changes":[7.373016E1,1.4432316E0,5.1387405E-1,5.582752E-1,3.0522594E0,1.1435795E-1,1.5027161E0,0E0,0E0,0E0,0E0,0E0,0E0,0E0,0E0],"parents":[2147483647,0,0,1,1,2,2,3,3,4,4,5,5,6,6],"right_children":[2,4,6,8,10,12,14,-1,-1,-1,-1,-1,-1,-1,-1],"split_conditions":[1.0686568E0,-1.6590941E0,-8.7062263E-1,-1.3170955E0,-1.5549734E0,-5.572066E-1,-1.0433116E0,-3.4914555E-3,-1.7218571E-2,1.3453282E-2,-8.730336E-3,1.6145807E-2,3.4191534E-2,-5.859545E-4,1.6001543E-2],"split_indices":[4,3,1,9,3,3,2,0,0,0,0,0,0,0,0],"split_type":[0,0,0,0,0,0,0,0,0,0,0,0,0,0,0],"sum_hessian":[1.274E3,7.91E2,4.83E2,7.4E1,7.17E2,1E1,4.73E2,9E0,6.5E1,1.5E1,7.02E2,5E0,5E0,1.4E1,4.59E2],"tree_param":{"num_deleted":"0","num_feature":"12","num_nodes":"15","size_leaf_vector":"1"}},{"base_weights":[4.6369538E-4,-1.750265E-1,2.9741827E-1,-3.246831E-1,-1.6038705E-1,2.8444946E-1,4.7775427E-1,-1.7002301E-2,-4.9508233E-3,1.742639E-2,-8.387759E-3,1.8077163E-2,1.2751541E-2,1.9623293E-2,3.838559E-2],"categories":[],"categories_nodes":[],"categories_segments":[],"categories_sizes":[],"default_left":[0,0,0,0,0,0,0,0,0,0,0,0,0,0,0],"id":27,"left_children":[1,3,5,7,9,11,13,-1,-1,-1,-1,-1,-1,-1,-1],"loss_changes":[6.790267E1,1.7422619E0,9.960518E-1,2.1594667E-1,2.8632793E0,9.3746567E-1,4.6532965E-1,0E0,0E0,0E0,0E0,0E0,0E0,0E0,0E0],"parents":[2147483647,0,0,1,1,2,2,3,3,4,4,5,5,6,6],"right_children":[2,4,6,8,10,12,14,-1,-1,-1,-1,-1,-1,-1,-1],"split_conditions":[-1.2854064E-1,-1.6243355E0,1.816371E0,-1.0827528E0,-1.5549734E0,1.381183E-1,1.3297085E-1,-1.7002301E-2,-4.9508233E-3,1.742639E-2,-8.387759E-3,1.8077163E-2,1.2751541E-2,1.9623293E-2,3.838559E-2],"split_indices":[4,3,8,0,3,6,7,0,0,0,0,0,0,0,0],"split_type":[0,0,0,0,0,0,0,0,0,0,0,0,0,0,0],"sum_hessian":[1.301E3,8.18E2,4.83E2,7.1E1,7.47E2,4.53E2,3E1,6.6E1,5E0,1E1,7.37E2,1.22E2,3.31E2,2.5E1,5E0],"tree_param":{"num_deleted":"0","num_feature":"12","num_nodes":"15","size_leaf_vector":"1"}},{"base_weights":[6.1553856E-3,-1.628589E-1,2.9259577E-1,-2.082303E-1,-1.189362E-1,2.0174831E-1,3.190191E-1,6.2470726E-4,-1.0989451E-2,1.684423E-2,-6.4868676E-3,-1.5325757E-2,1.1418178E-2,2.4421662E-2,1.4920275E-2],"categories":[],"categories_nodes":[],"categories_segments":[],"categories_sizes":[],"default_left":[0,0,0,0,0,0,0,0,0,0,0,0,0,0,0],"id":28,"left_children":[1,3,5,7,9,11,13,-1,-1,-1,-1,-1,-1,-1,-1],"loss_changes":[6.32744E1,1.6133442E0,1.0998764E0,1.0309162E0,2.1115298E0,1.5850835E0,1.1603432E0,0E0,0E0,0E0,0E0,0E0,0E0,0E0,0E0],"parents":[2147483647,0,0,1,1,2,2,3,3,4,4,5,5,6,6],"right_children":[2,4,6,8,10,12,14,-1,-1,-1,-1,-1,-1,-1,-1],"split_conditions":[-1.2854064E-1,-5.448212E-1,1.13191E0,-1.420097E0,-7.0868725E-1,-9.4254076E-1,-6.725784E-2,6.2470726E-4,-1.0989451E-2,1.684423E-2,-6.4868676E-3,-1.5325757E-2,1.1418178E-2,2.4421662E-2,1.4920275E-2],"split_indices":[4,4,4,4,9,10,6,0,0,0,0,0,0,0,0],"split_type":[0,0,0,0,0,0,0,0,0,0,0,0,0,0,0],"sum_hessian":[1.305E3,8.21E2,4.84E2,4.02E2,4.19E2,1.11E2,3.73E2,2E1,3.82E2,9E0,4.1E2,5E0,1.06E2,3.8E1,3.35E2],"tree_param":{"num_deleted":"0","num_feature":"12","num_nodes":"15","size_leaf_vector":"1"}},{"base_weights":[7.0216674E-3,-1.4769004E-1,2.6243955E-1,-1.5212531E-1,1.31729245E-2,2.7032346E-1,2.7179955E-2,-8.424938E-3,-2.4413243E-3,1.2908793E-2,2.2075094E-2,-1.2849388E-2,8.349941E-3],"categories":[],"categories_nodes":[],"categories_segments":[],"categories_sizes":[],"default_left":[0,0,0,0,0,0,0,0,0,0,0,0,0],"id":29,"left_children":[1,3,5,7,-1,9,11,-1,-1,-1,-1,-1,-1],"loss_changes":[5.1330704E1,1.5153332E0,9.0148926E-1,1.34655E0,0E0,8.716545E-1,7.183607E-1,0E0,0E0,0E0,0E0,0E0,0E0],"parents":[2147483647,0,0,1,1,2,2,3,3,5,5,6,6],"right_children":[2,4,6,8,-1,10,12,-1,-1,-1,-1,-1,-1],"split_conditions":[-1.2854064E-1,1.8845091E0,2.1055307E0,-4.737396E-2,1.31729245E-2,1.8125787E0,1.6202936E0,-8.424938E-3,-2.4413243E-3,1.2908793E-2,2.2075094E-2,-1.2849388E-2,8.349941E-3],"split_indices":[4,10,3,9,0,3,7,0,0,0,0,0,0],"split_type":[0,0,0,0,0,0,0,0,0,0,0,0,0],"sum_hessian":[1.297E3,8.08E2,4.89E2,8E2,8E0,4.73E2,1.6E1,6.9E2,1.1E2,4.44E2,2.9E1,5E0,1.1E1],"tree_param":{"num_deleted":"0","num_feature":"12","num_nodes":"13","size_leaf_vector":"1"}},{"base_weights":[-1.3404352E-3,-1.4728148E-1,2.3110871E-1,-1.5202202E-1,1.6755408E-2,1.540847E-1,2.5582218E-1,-9.749904E-3,-5.296581E-3,-2.5212547E-2,9.31268E-3,1.2291691E-2,2.1475418E-2],"categories":[],"categories_nodes":[],"categories_segments":[],"categories_sizes":[],"default_left":[0,0,0,0,0,0,0,0,0,0,0,0,0],"id":30,"left_children":[1,3,5,7,-1,9,11,-1,-1,-1,-1,-1,-1],"loss_changes":[4.3626213E1,1.857502E0,9.0473366E-1,1.5302982E0,0E0,2.6988041E0,5.432415E-1,0E0,0E0,0E0,0E0,0E0,0E0],"parents":[2147483647,0,0,1,1,2,2,3,3,5,5,6,6],"right_children":[2,4,6,8,-1,10,12,-1,-1,-1,-1,-1,-1],"split_conditions":[-1.355357E-1,1.8163874E0,1.1368214E0,-5.448212E-1,1.6755408E-2,-9.4254076E-1,1.816371E0,-9.749904E-3,-5.296581E-3,-2.5212547E-2,9.31268E-3,1.2291691E-2,2.1475418E-2],"split_indices":[4,10,4,4,0,10,8,0,0,0,0,0,0],"split_type":[0,0,0,0,0,0,0,0,0,0,0,0,0],"sum_hessian":[1.284E3,7.89E2,4.95E2,7.82E2,7E0,1.22E2,3.73E2,4.03E2,3.79E2,5E0,1.17E2,3.55E2,1.8E1],"tree_param":{"num_deleted":"0","num_feature":"12","num_nodes":"13","size_leaf_vector":"1"}},{"base_weights":[1.0280352E-2,-1.3578308E-1,2.3966369E-1,-2.9620662E-1,-1.2050702E-1,2.2517067E-1,3.7548596E-1,-2.5794862E-3,-1.6398119E-2,1.0493501E-2,-6.366335E-3,1.5719157E-2,9.641572E-3,2.5206387E-2,7.011133E-3],"categories":[],"categories_nodes":[],"categories_segments":[],"categories_sizes":[],"default_left":[0,0,0,0,0,0,0,0,0,0,0,0,0,0,0],"id":31,"left_children":[1,3,5,7,9,11,13,-1,-1,-1,-1,-1,-1,-1,-1],"loss_changes":[4.3320377E1,1.9003096E0,9.055939E-1,5.113039E-1,1.6556873E0,1.2578506E0,1.3517504E0,0E0,0E0,0E0,0E0,0E0,0E0,0E0,0E0],"parents":[2147483647,0,0,1,1,2,2,3,3,4,4,5,5,6,6],"right_children":[2,4,6,8,10,12,14,-1,-1,-1,-1,-1,-1,-1,-1],"split_conditions":[1.0686568E0,-1.6590941E0,1.7601728E0,-1.3831868E0,-1.5549734E0,1.381183E-1,1.5739197E0,-2.5794862E-3,-1.6398119E-2,1.0493501E-2,-6.366335E-3,1.5719157E-2,9.641572E-3,2.5206387E-2,7.011133E-3],"split_indices":[4,3,6,4,3,6,3,0,0,0,0,0,0,0,0],"split_type":[0,0,0,0,0,0,0,0,0,0,0,0,0,0,0],"sum_hessian":[1.291E3,7.89E2,5.02E2,6.7E1,7.22E2,4.56E2,4.6E1,8E0,5.9E1,1.4E1,7.08E2,1.19E2,3.37E2,2.9E1,1.7E1],"tree_param":{"num_deleted":"0","num_feature":"12","num_nodes":"15","size_leaf_vector":"1"}},{"base_weights":[-1.586718E-3,-6.525591E-2,1.3997291E-1,-9.310217E-2,8.8460095E-2,5.8489148E-2,2.5333112E-1,-8.508333E-3,-2.5587096E-3,-5.08586E-3,6.516173E-3,-2.2804139E-3,9.248526E-3,-8.935134E-3,1.3637143E-2],"categories":[],"categories_nodes":[],"categories_segments":[],"categories_sizes":[],"default_left":[0,0,0,0,0,0,0,0,0,0,0,0,0,0,0],"id":32,"left_children":[1,3,5,7,9,11,13,-1,-1,-1,-1,-1,-1,-1,-1],"loss_changes":[1.1969368E1,3.9290972E0,3.7907667E0,2.4986706E0,1.135822E0,3.1815352E0,1.4912233E0,0E0,0E0,0E0,0E0,0E0,0E0,0E0,0E0],"parents":[2147483647,0,0,1,1,2,2,3,3,4,4,5,5,6,6],"right_children":[2,4,6,8,10,12,14,-1,-1,-1,-1,-1,-1,-1,-1],"split_conditions":[5.808598E-1,9.976873E-1,3.4274033E-1,-7.634231E-1,-1.2197195E0,1.1280332E0,7.602253E-4,-8.508333E-3,-2.5587096E-3,-5.08586E-3,6.516173E-3,-2.2804139E-3,9.248526E-3,-8.935134E-3,1.3637143E-2],"split_indices":[1,8,8,1,1,1,3,0,0,0,0,0,0,0,0],"split_type":[0,0,0,0,0,0,0,0,0,0,0,0,0,0,0],"sum_hessian":[1.326E3,9.15E2,4.11E2,7.75E2,1.4E2,2.4E2,1.71E2,2.72E2,5.03E2,2.5E1,1.15E2,1.32E2,1.08E2,7E0,1.64E2],"tree_param":{"num_deleted":"0","num_feature":"12","num_nodes":"15","size_leaf_vector":"1"}},{"base_weights":[-1.4792084E-2,-1.4681154E-1,2.0635737E-1,-1.5068458E-1,1.6060976E-2,3.113719E-1,1.7183812E-1,-1.3157605E-2,-6.7213825E-3,1.2430613E-2,2.487852E-2,-5.6356927E-3,9.1705E-3],"categories":[],"categories_nodes":[],"categories_segments":[],"categories_sizes":[],"default_left":[0,0,0,0,0,0,0,0,0,0,0,0,0],"id":33,"left_children":[1,3,5,7,-1,9,11,-1,-1,-1,-1,-1,-1],"loss_changes":[3.795594E1,1.5239391E0,1.7082558E0,1.4419537E0,0E0,1.266902E0,1.2324219E0,0E0,0E0,0E0,0E0,0E0,0E0],"parents":[2147483647,0,0,1,1,2,2,3,3,5,5,6,6],"right_children":[2,4,6,8,-1,10,12,-1,-1,-1,-1,-1,-1],"split_conditions":[-1.2854064E-1,1.8845091E0,1.381183E-1,-1.4416436E0,1.6060976E-2,1.1692314E0,2.1883616E-1,-1.3157605E-2,-6.7213825E-3,1.2430613E-2,2.487852E-2,-5.6356927E-3,9.1705E-3],"split_indices":[4,10,6,3,0,10,6,0,0,0,0,0,0],"split_type":[0,0,0,0,0,0,0,0,0,0,0,0,0],"sum_hessian":[1.298E3,8.13E2,4.85E2,8.07E2,6E0,1.18E2,3.67E2,1E2,7.07E2,9E1,2.8E1,1.4E1,3.53E2],"tree_param":{"num_deleted":"0","num_feature":"12","num_nodes":"13","size_leaf_vector":"1"}},{"base_weights":[-6.257635E-4,-1.2661302E-1,2.117838E-1,-1.3368076E-1,7.706784E-2,2.9209542E-1,1.8420857E-1,-8.418385E-3,-4.8790067E-3,-2.2498744E-3,1.5064259E-2,1.0131023E-2,2.3196053E-2,-1.2862454E-4,1.002169E-2],"categories":[],"categories_nodes":[],"categories_segments":[],"categories_sizes":[],"default_left":[0,0,0,0,0,0,0,0,0,0,0,0,0,0,0],"id":34,"left_children":[1,3,5,7,9,11,13,-1,-1,-1,-1,-1,-1,-1,-1],"loss_changes":[3.478922E1,1.1849871E0,1.0180626E0,9.715719E-1,7.7989364E-1,1.78164E0,1.1006107E0,0E0,0E0,0E0,0E0,0E0,0E0,0E0,0E0],"parents":[2147483647,0,0,1,1,2,2,3,3,4,4,5,5,6,6],"right_children":[2,4,6,8,10,12,14,-1,-1,-1,-1,-1,-1,-1,-1],"split_conditions":[1.0686568E0,1.6553466E0,1.3219792E-1,-5.5256045E-1,5.0396794E-1,-4.439535E-1,-1.6325133E-1,-8.418385E-3,-4.8790067E-3,-2.2498744E-3,1.5064259E-2,1.0131023E-2,2.3196053E-2,-1.2862454E-4,1.002169E-2],"split_indices":[4,0,3,4,6,0,7,0,0,0,0,0,0,0,0],"split_type":[0,0,0,0,0,0,0,0,0,0,0,0,0,0,0],"sum_hessian":[1.298E3,8.15E2,4.83E2,7.88E2,2.7E1,1.21E2,3.62E2,4E2,3.88E2,1.8E1,9E0,8.1E1,4E1,2.9E1,3.33E2],"tree_param":{"num_deleted":"0","num_feature":"12","num_nodes":"15","size_leaf_vector":"1"}},{"base_weights":[-8.929624E-3,-1.2277E-1,1.8497731E-1,-1.267909E-1,1.4783557E-2,2.1653286E-1,1.1968305E-1,-8.4119355E-3,-4.425135E-3,9.851366E-3,2.1901837E-2,4.550858E-4,9.989244E-3],"categories":[],"categories_nodes":[],"categories_segments":[],"categories_sizes":[],"default_left":[0,0,0,0,0,0,0,0,0,0,0,0,0],"id":35,"left_children":[1,3,5,7,-1,9,11,-1,-1,-1,-1,-1,-1],"loss_changes":[2.8344212E1,1.3986368E0,9.5277405E-1,1.2578554E0,0E0,1.2919512E0,1.3888509E0,0E0,0E0,0E0,0E0,0E0,0E0],"parents":[2147483647,0,0,1,1,2,2,3,3,5,5,6,6],"right_children":[2,4,6,8,-1,10,12,-1,-1,-1,-1,-1,-1],"split_conditions":[1.0686568E0,1.8163874E0,1.108291E0,-5.576207E-1,1.4783557E-2,1.6952778E0,1.197991E0,-8.4119355E-3,-4.425135E-3,9.851366E-3,2.1901837E-2,4.550858E-4,9.989244E-3],"split_indices":[4,10,3,4,0,6,4,0,0,0,0,0,0],"split_type":[0,0,0,0,0,0,0,0,0,0,0,0,0],"sum_hessian":[1.282E3,8.08E2,4.74E2,8.01E2,7E0,3.18E2,1.56E2,3.83E2,4.18E2,2.94E2,2.4E1,6.6E1,9E1],"tree_param":{"num_deleted":"0","num_feature":"12","num_nodes":"13","size_leaf_vector":"1"}},{"base_weights":[4.8602377E-3,-9.932918E-2,1.787124E-1,-1.2717965E-1,-4.5561217E-2,3.3193424E-1,1.6653332E-1,5.233647E-3,-6.7711226E-3,6.5255547E-3,-4.5080967E-3,2.0331858E-2,3.5471977E-3,-1.6502192E-2,8.6952085E-3],"categories":[],"categories_nodes":[],"categories_segments":[],"categories_sizes":[],"default_left":[0,0,0,0,0,0,0,0,0,0,0,0,0,0,0],"id":36,"left_children":[1,3,5,7,9,11,13,-1,-1,-1,-1,-1,-1,-1,-1],"loss_changes":[2.3637827E1,1.216135E0,8.572464E-1,1.0404444E0,2.2105932E0,6.535373E-1,1.7227821E0,0E0,0E0,0E0,0E0,0E0,0E0,0E0,0E0],"parents":[2147483647,0,0,1,1,2,2,3,3,4,4,5,5,6,6],"right_children":[2,4,6,8,10,12,14,-1,-1,-1,-1,-1,-1,-1,-1],"split_conditions":[-1.2854064E-1,-4.102779E-1,-5.5274934E-1,-1.420097E0,-1.0823491E0,-1.3605802E-1,-1.0106388E0,5.233647E-3,-6.7711226E-3,6.5255547E-3,-4.5080967E-3,2.0331858E-2,3.5471977E-3,-1.6502192E-2,8.6952085E-3],"split_indices":[4,4,1,4,2,0,2,0,0,0,0,0,0,0,0],"split_type":[0,0,0,0,0,0,0,0,0,0,0,0,0,0,0],"sum_hessian":[1.303E3,8.15E2,4.88E2,5.36E2,2.79E2,3.4E1,4.54E2,1.8E1,5.18E2,5.6E1,2.23E2,2.6E1,8E0,6E0,4.48E2],"tree_param":{"num_deleted":"0","num_feature":"12","num_nodes":"15","size_leaf_vector":"1"}},{"base_weights":[8.415464E-3,-1.0869152E-1,1.9278984E-1,-4.6589453E-2,-1.4526063E-1,2.2625063E-1,1.442457E-1,-3.9297957E-3,9.293123E-3,-9.260267E-3,-2.8251156E-3,1.0273482E-2,3.0092508E-2,1.074447E-2,2.7289963E-3],"categories":[],"categories_nodes":[],"categories_segments":[],"categories_sizes":[],"default_left":[0,0,0,0,0,0,0,0,0,0,0,0,0,0,0],"id":37,"left_children":[1,3,5,7,9,11,13,-1,-1,-1,-1,-1,-1,-1,-1],"loss_changes":[2.7960392E1,1.7918768E0,7.8440094E-1,2.2093968E0,1.7551575E0,2.186717E0,1.3058109E0,0E0,0E0,0E0,0E0,0E0,0E0,0E0,0E0],"parents":[2147483647,0,0,1,1,2,2,3,3,4,4,5,5,6,6],"right_children":[2,4,6,8,10,12,14,-1,-1,-1,-1,-1,-1,-1,-1],"split_conditions":[-1.2854064E-1,-7.6248264E-1,8.953518E-1,-8.648181E-1,4.3362045E-1,8.339505E-1,4.1428408E-1,-3.9297957E-3,9.293123E-3,-9.260267E-3,-2.8251156E-3,1.0273482E-2,3.0092508E-2,1.074447E-2,2.7289963E-3],"split_indices":[4,8,8,8,6,8,0,0,0,0,0,0,0,0,0],"split_type":[0,0,0,0,0,0,0,0,0,0,0,0,0,0,0],"sum_hessian":[1.293E3,7.91E2,5.02E2,2.94E2,4.97E2,2.95E2,2.07E2,2.59E2,3.5E1,3.42E2,1.55E2,2.81E2,1.4E1,1.15E2,9.2E1],"tree_param":{"num_deleted":"0","num_feature":"12","num_nodes":"15","size_leaf_vector":"1"}},{"base_weights":[6.7787E-3,-9.996427E-2,1.8184942E-1,-1.0310466E-1,1.682311E-2,2.6498713E-2,1.8906479E-1,-4.704571E-3,-1.4345832E-2,1.9645339E-2,-7.918074E-3,1.7672596E-2,8.519836E-3],"categories":[],"categories_nodes":[],"categories_segments":[],"categories_sizes":[],"default_left":[0,0,0,0,0,0,0,0,0,0,0,0,0],"id":38,"left_children":[1,3,5,7,-1,9,11,-1,-1,-1,-1,-1,-1],"loss_changes":[2.4274643E1,1.1407251E0,5.4647636E-1,1.301712E0,0E0,1.6201093E0,1.3821049E0,0E0,0E0,0E0,0E0,0E0,0E0],"parents":[2147483647,0,0,1,1,2,2,3,3,5,5,6,6],"right_children":[2,4,6,8,-1,10,12,-1,-1,-1,-1,-1,-1],"split_conditions":[-1.2854064E-1,1.9596406E0,-1.0433116E0,6.85396E-1,1.682311E-2,-8.7062263E-1,-4.7295323E-1,-4.704571E-3,-1.4345832E-2,1.9645339E-2,-7.918074E-3,1.7672596E-2,8.519836E-3],"split_indices":[4,8,2,6,0,1,2,0,0,0,0,0,0],"split_type":[0,0,0,0,0,0,0,0,0,0,0,0,0],"sum_hessian":[1.297E3,8.06E2,4.91E2,8.01E2,5E0,2.2E1,4.69E2,7.65E2,3.6E1,7E0,1.5E1,4.6E1,4.23E2],"tree_param":{"num_deleted":"0","num_feature":"12","num_nodes":"13","size_leaf_vector":"1"}},{"base_weights":[-7.855987E-3,-1.0823503E-1,1.5807602E-1,-1.1227987E-1,2.2287244E-2,1.4680734E-1,2.90246E-1,-6.437109E-3,-1.1505986E-3,7.951784E-3,-6.8832785E-3,7.0740553E-3,1.7799696E-2],"categories":[],"categories_nodes":[],"categories_segments":[],"categories_sizes":[],"default_left":[0,0,0,0,0,0,0,0,0,0,0,0,0],"id":39,"left_children":[1,3,5,7,-1,9,11,-1,-1,-1,-1,-1,-1],"loss_changes":[2.1386883E1,1.8426542E0,6.7824936E-1,1.1653337E0,0E0,1.5803185E0,3.115301E-1,0E0,0E0,0E0,0E0,0E0,0E0],"parents":[2147483647,0,0,1,1,2,2,3,3,5,5,6,6],"right_children":[2,4,6,8,-1,10,12,-1,-1,-1,-1,-1,-1],"split_conditions":[-1.355357E-1,1.9596406E0,1.7345026E0,8.270753E-1,2.2287244E-2,1.4888974E0,1.162718E0,-6.437109E-3,-1.1505986E-3,7.951784E-3,-6.8832785E-3,7.0740553E-3,1.7799696E-2],"split_indices":[4,8,8,0,0,8,4,0,0,0,0,0,0],"split_type":[0,0,0,0,0,0,0,0,0,0,0,0,0],"sum_hessian":[1.282E3,7.99E2,4.83E2,7.94E2,5E0,4.47E2,3.6E1,6.7E2,1.24E2,4.29E2,1.8E1,1.2E1,2.4E1],"tree_param":{"num_deleted":"0","num_feature":"12","num_nodes":"13","size_leaf_vector":"1"}},{"base_weights":[6.9352062E-3,-9.0168595E-2,1.6306426E-1,-9.754274E-2,2.3725465E-1,-1.4668414E-2,1.701401E-1,-4.4500735E-3,-1.5886238E-2,1.6095228E-3,2.4478056E-2,-1.0528603E-2,8.763149E-3],"categories":[],"categories_nodes":[],"categories_segments":[],"categories_sizes":[],"default_left":[0,0,0,0,0,0,0,0,0,0,0,0,0],"id":40,"left_children":[1,3,5,7,9,-1,11,-1,-1,-1,-1,-1,-1],"loss_changes":[1.9769129E1,1.9643726E0,1.6647387E0,1.4517813E0,9.155431E-1,0E0,9.984255E-1,0E0,0E0,0E0,0E0,0E0,0E0],"parents":[2147483647,0,0,1,1,2,2,3,3,4,4,6,6],"right_children":[2,4,6,8,10,-1,12,-1,-1,-1,-1,-1,-1],"split_conditions":[4.5522416E-1,7.775533E-1,-1.6875583E0,6.85396E-1,-1.5318409E-1,-1.4668414E-2,-1.3853316E0,-4.4500735E-3,-1.5886238E-2,1.6095228E-3,2.4478056E-2,-1.0528603E-2,8.763149E-3],"split_indices":[9,6,3,6,9,0,10,0,0,0,0,0,0],"split_type":[0,0,0,0,0,0,0,0,0,0,0,0,0],"sum_hessian":[1.302E3,8.03E2,4.99E2,7.86E2,1.7E1,7E0,4.92E2,7.58E2,2.8E1,1E1,7E0,6E0,4.86E2],"tree_param":{"num_deleted":"0","num_feature":"12","num_nodes":"13","size_leaf_vector":"1"}},{"base_weights":[-1.0449356E-2,-9.1286354E-2,1.2853763E-1,-2.1572497E-1,-7.992764E-2,7.241643E-2,1.5234874E-1,-5.8718743E-3,-1.2857099E-2,1.5635133E-2,-4.308487E-3,5.7008E-3,-8.172731E-3,1.2762082E-2,6.374357E-3],"categories":[],"categories_nodes":[],"categories_segments":[],"categories_sizes":[],"default_left":[0,0,0,0,0,0,0,0,0,0,0,0,0,0,0],"id":41,"left_children":[1,3,5,7,9,11,13,-1,-1,-1,-1,-1,-1,-1,-1],"loss_changes":[1.457267E1,1.1417975E0,6.2638617E-1,2.466147E-1,1.8724246E0,1.4315838E0,8.218589E-1,0E0,0E0,0E0,0E0,0E0,0E0,0E0,0E0],"parents":[2147483647,0,0,1,1,2,2,3,3,4,4,5,5,6,6],"right_children":[2,4,6,8,10,12,14,-1,-1,-1,-1,-1,-1,-1,-1],"split_conditions":[1.0686568E0,-1.6243355E0,6.2046558E-2,-1.7201028E0,-1.5549734E0,1.0079966E-1,4.0459538E-1,-5.8718743E-3,-1.2857099E-2,1.5635133E-2,-4.308487E-3,5.7008E-3,-8.172731E-3,1.2762082E-2,6.374357E-3],"split_indices":[4,3,7,6,3,2,7,0,0,0,0,0,0,0,0],"split_type":[0,0,0,0,0,0,0,0,0,0,0,0,0,0,0],"sum_hessian":[1.295E3,8.19E2,4.76E2,6.7E1,7.52E2,1.43E2,3.33E2,2.1E1,4.6E1,1.1E1,7.41E2,1.22E2,2.1E1,6.3E1,2.7E2],"tree_param":{"num_deleted":"0","num_feature":"12","num_nodes":"15","size_leaf_vector":"1"}},{"base_weights":[5.5408026E-3,-7.666529E-2,1.3494338E-1,-1.128283E-1,-4.103123E-2,2.2781587E-1,1.1692546E-1,-4.330901E-3,-1.175136E-2,1.7353928E-2,-2.5401197E-3,2.0336725E-2,3.4058795E-3,6.269002E-3,-4.0603704E-3],"categories":[],"categories_nodes":[],"categories_segments":[],"categories_sizes":[],"default_left":[0,0,0,0,0,0,0,0,0,0,0,0,0,0,0],"id":42,"left_children":[1,3,5,7,9,11,13,-1,-1,-1,-1,-1,-1,-1,-1],"loss_changes":[1.3828692E1,1.0198345E0,8.1841373E-1,1.2415724E0,1.5421305E0,2.286707E0,7.221112E-1,0E0,0E0,0E0,0E0,0E0,0E0,0E0,0E0],"parents":[2147483647,0,0,1,1,2,2,3,3,4,4,5,5,6,6],"right_children":[2,4,6,8,10,12,14,-1,-1,-1,-1,-1,-1,-1,-1],"split_conditions":[1.0686568E0,-5.448212E-1,3.0995221E-4,5.4193124E-2,-7.0868725E-1,-1.2486847E-1,1.9728359E0,-4.330901E-3,-1.175136E-2,1.7353928E-2,-2.5401197E-3,2.0336725E-2,3.4058795E-3,6.269002E-3,-4.0603704E-3],"split_indices":[4,4,6,6,9,2,1,0,0,0,0,0,0,0,0],"split_type":[0,0,0,0,0,0,0,0,0,0,0,0,0,0,0],"sum_hessian":[1.298E3,7.94E2,5.04E2,3.93E2,4.01E2,8E1,4.24E2,3.25E2,6.8E1,9E0,3.92E2,3.7E1,4.3E1,4.07E2,1.7E1],"tree_param":{"num_deleted":"0","num_feature":"12","num_nodes":"15","size_leaf_vector":"1"}},{"base_weights":[4.13506E-3,-7.228905E-2,1.3604306E-1,-7.569518E-2,1.3995709E-2,3.8190596E-2,1.6540143E-1,-2.186952E-3,-5.6429883E-3,7.932768E-3,-5.477012E-3,1.6520776E-2,7.135539E-3],"categories":[],"categories_nodes":[],"categories_segments":[],"categories_sizes":[],"default_left":[0,0,0,0,0,0,0,0,0,0,0,0,0],"id":43,"left_children":[1,3,5,7,-1,9,11,-1,-1,-1,-1,-1,-1],"loss_changes":[1.2943696E1,9.965019E-1,1.3467665E0,9.5229864E-1,0E0,1.9749789E0,1.3082752E0,0E0,0E0,0E0,0E0,0E0,0E0],"parents":[2147483647,0,0,1,1,2,2,3,3,5,5,6,6],"right_children":[2,4,6,8,-1,10,12,-1,-1,-1,-1,-1,-1],"split_conditions":[1.0768424E0,1.8109553E0,-1.37466E-1,-2.9173952E-1,1.3995709E-2,-4.7295323E-1,1.499648E-1,-2.186952E-3,-5.6429883E-3,7.932768E-3,-5.477012E-3,1.6520776E-2,7.135539E-3],"split_indices":[4,2,7,8,0,2,3,0,0,0,0,0,0],"split_type":[0,0,0,0,0,0,0,0,0,0,0,0,0],"sum_hessian":[1.282E3,8.12E2,4.7E2,8.05E2,7E0,1.09E2,3.61E2,4.34E2,3.71E2,6E1,4.9E1,4.2E1,3.19E2],"tree_param":{"num_deleted":"0","num_feature":"12","num_nodes":"13","size_leaf_vector":"1"}},{"base_weights":[-6.0577306E-4,-9.0388104E-2,1.4865626E-1,-1.2153827E-1,-3.5939593E-2,-1.3909395E-2,1.5560542E-1,-5.409226E-3,-1.3686857E-2,2.4431417E-2,-3.1161155E-3,1.0199674E-2,5.189546E-3],"categories":[],"categories_nodes":[],"categories_segments":[],"categories_sizes":[],"default_left":[0,0,0,0,0,0,0,0,0,0,0,0,0],"id":44,"left_children":[1,3,5,7,9,-1,11,-1,-1,-1,-1,-1,-1],"loss_changes":[1.7019426E1,1.3406234E0,1.4581652E0,9.9472857E-1,4.0439143E0,0E0,1.1572142E0,0E0,0E0,0E0,0E0,0E0,0E0],"parents":[2147483647,0,0,1,1,2,2,3,3,4,4,6,6],"right_children":[2,4,6,8,10,-1,12,-1,-1,-1,-1,-1,-1],"split_conditions":[4.5522416E-1,1.9559427E-1,-1.5760219E0,1.7016534E-2,-9.170053E-1,-1.3909395E-2,4.1428408E-1,-5.409226E-3,-1.3686857E-2,2.4431417E-2,-3.1161155E-3,1.0199674E-2,5.189546E-3],"split_indices":[9,0,1,0,2,0,0,0,0,0,0,0,0],"split_type":[0,0,0,0,0,0,0,0,0,0,0,0,0],"sum_hessian":[1.268E3,7.92E2,4.76E2,5.03E2,2.89E2,7E0,4.69E2,4.64E2,3.9E1,1.3E1,2.76E2,2.41E2,2.28E2],"tree_param":{"num_deleted":"0","num_feature":"12","num_nodes":"13","size_leaf_vector":"1"}},{"base_weights":[1.0530535E-3,-6.4063594E-2,1.15712695E-1,-9.268055E-2,-1.0445867E-2,3.7863436E-1,1.0842812E-1,-5.013225E-3,1.2089228E-2,7.281889E-3,-2.2692555E-3,2.464387E-2,9.112254E-3,4.492539E-3,9.993456E-3],"categories":[],"categories_nodes":[],"categories_segments":[],"categories_sizes":[],"default_left":[0,0,0,0,0,0,0,0,0,0,0,0,0,0,0],"id":45,"left_children":[1,3,5,7,9,11,13,-1,-1,-1,-1,-1,-1,-1,-1],"loss_changes":[9.482086E0,1.2418766E0,8.399706E-1,1.3635492E0,1.5499345E0,1.7940867E-1,7.4477196E-1,0E0,0E0,0E0,0E0,0E0,0E0,0E0,0E0],"parents":[2147483647,0,0,1,1,2,2,3,3,4,4,5,5,6,6],"right_children":[2,4,6,8,10,12,14,-1,-1,-1,-1,-1,-1,-1,-1],"split_conditions":[1.0768424E0,-4.102779E-1,1.0827957E0,1.6733929E0,-1.0823491E0,8.8806117E-1,1.7152702E0,-5.013225E-3,1.2089228E-2,7.281889E-3,-2.2692555E-3,2.464387E-2,9.112254E-3,4.492539E-3,9.993456E-3],"split_indices":[4,4,4,0,2,0,6,0,0,0,0,0,0,0,0],"split_type":[0,0,0,0,0,0,0,0,0,0,0,0,0,0,0],"sum_hessian":[1.268E3,8.09E2,4.59E2,5.27E2,2.82E2,1.1E1,4.48E2,5.16E2,1.1E1,5.1E1,2.31E2,6E0,5E0,3.74E2,7.4E1],"tree_param":{"num_deleted":"0","num_feature":"12","num_nodes":"15","size_leaf_vector":"1"}},{"base_weights":[-1.6143432E-2,-9.341264E-2,1.07737936E-1,-9.751121E-2,1.6098687E-2,8.853277E-3,1.3237453E-1,-5.1787714E-3,4.9924375E-3,3.9645764E-3,-7.5243213E-3,4.40561E-3,9.768811E-3],"categories":[],"categories_nodes":[],"categories_segments":[],"categories_sizes":[],"default_left":[0,0,0,0,0,0,0,0,0,0,0,0,0],"id":46,"left_children":[1,3,5,7,-1,9,11,-1,-1,-1,-1,-1,-1],"loss_changes":[1.2358221E1,1.3848791E0,1.2071743E0,9.5344734E-1,0E0,1.1342934E0,1.0898595E0,0E0,0E0,0E0,0E0,0E0,0E0],"parents":[2147483647,0,0,1,1,2,2,3,3,5,5,6,6],"right_children":[2,4,6,8,-1,10,12,-1,-1,-1,-1,-1,-1],"split_conditions":[-1.2854064E-1,1.8573052E0,-4.439535E-1,1.4667535E0,1.6098687E-2,1.8534407E-1,6.5831876E-1,-5.1787714E-3,4.9924375E-3,3.9645764E-3,-7.5243213E-3,4.40561E-3,9.768811E-3],"split_indices":[4,8,0,7,0,1,10,0,0,0,0,0,0],"split_type":[0,0,0,0,0,0,0,0,0,0,0,0,0],"sum_hessian":[1.289E3,7.94E2,4.95E2,7.87E2,7E0,9.9E1,3.96E2,7.64E2,2.3E1,6.9E1,3E1,2.34E2,1.62E2],"tree_param":{"num_deleted":"0","num_feature":"12","num_nodes":"13","size_leaf_vector":"1"}},{"base_weights":[1.0034908E-2,-6.680347E-2,9.2869975E-2,-7.20901E-2,2.6559868E-1,-1.1236911E-1,1.2413566E-1,-3.0869374E-3,-1.0053768E-2,2.1482963E-2,2.8635836E-3,-6.6499184E-3,9.070788E-3,1.9535033E-2,5.133647E-3],"categories":[],"categories_nodes":[],"categories_segments":[],"categories_sizes":[],"default_left":[0,0,0,0,0,0,0,0,0,0,0,0,0,0,0],"id":47,"left_children":[1,3,5,7,9,11,13,-1,-1,-1,-1,-1,-1,-1,-1],"loss_changes":[8.452443E0,1.2299173E0,4.1143737E0,8.9416766E-1,3.5135347E-1,5.3927577E-1,3.1351576E0,0E0,0E0,0E0,0E0,0E0,0E0,0E0,0E0],"parents":[2147483647,0,0,1,1,2,2,3,3,4,4,5,5,6,6],"right_children":[2,4,6,8,10,12,14,-1,-1,-1,-1,-1,-1,-1,-1],"split_conditions":[-1.5318409E-1,1.3902665E0,-1.0136043E0,6.4177626E-1,8.4300107E-1,6.070302E-1,3.1983636E-2,-3.0869374E-3,-1.0053768E-2,2.1482963E-2,2.8635836E-3,-6.6499184E-3,9.070788E-3,1.9535033E-2,5.133647E-3],"split_indices":[9,3,1,6,1,6,9,0,0,0,0,0,0,0,0],"split_type":[0,0,0,0,0,0,0,0,0,0,0,0,0,0,0],"sum_hessian":[1.326E3,6.88E2,6.38E2,6.78E2,1E1,8.4E1,5.54E2,6.29E2,4.9E1,5E0,5E0,7.9E1,5E0,4E1,5.14E2],"tree_param":{"num_deleted":"0","num_feature":"12","num_nodes":"15","size_leaf_vector":"1"}},{"base_weights":[-6.474285E-3,-1.0813432E-1,2.7867125E-2,-1.2126875E-1,1.5884992E-1,1.26315355E-2,1.4744192E-1,3.6136396E-3,-6.9043296E-3,3.7623487E-2,-8.969179E-3,1.679456E-2,2.909632E-4,3.188677E-2,5.6675742E-3],"categories":[],"categories_nodes":[],"categories_segments":[],"categories_sizes":[],"default_left":[0,0,0,0,0,0,0,0,0,0,0,0,0,0,0],"id":48,"left_children":[1,3,5,7,9,11,13,-1,-1,-1,-1,-1,-1,-1,-1],"loss_changes":[4.590383E0,1.1834831E0,1.7889595E0,1.0417991E0,3.3474946E0,1.9205073E0,1.7830012E0,0E0,0E0,0E0,0E0,0E0,0E0,0E0,0E0],"parents":[2147483647,0,0,1,1,2,2,3,3,4,4,5,5,6,6],"right_children":[2,4,6,8,10,12,14,-1,-1,-1,-1,-1,-1,-1,-1],"split_conditions":[-7.634231E-1,2.3551229E-1,1.394586E0,-1.8962443E0,-9.639635E-1,-7.4156165E-1,1.0285071E0,3.6136396E-3,-6.9043296E-3,3.7623487E-2,-8.969179E-3,1.679456E-2,2.909632E-4,3.188677E-2,5.6675742E-3],"split_indices":[1,0,1,10,2,1,2,0,0,0,0,0,0,0,0],"split_type":[0,0,0,0,0,0,0,0,0,0,0,0,0,0,0],"sum_hessian":[1.313E3,3.31E2,9.82E2,3.16E2,1.5E1,8.72E2,1.1E2,2.5E1,2.91E2,5E0,1E1,1.7E1,8.55E2,6E0,1.04E2],"tree_param":{"num_deleted":"0","num_feature":"12","num_nodes":"15","size_leaf_vector":"1"}},{"base_weights":[6.885859E-3,-6.2284682E-2,1.1880246E-1,-6.873507E-2,1.4068483E-1,1.0958883E-1,2.685587E-1,-1.916428E-3,-5.545279E-3,1.9746833E-4,2.15377E-2,1.133043E-2,4.752456E-3,2.0107247E-2,2.8465835E-3],"categories":[],"categories_nodes":[],"categories_segments":[],"categories_sizes":[],"default_left":[0,0,0,0,0,0,0,0,0,0,0,0,0,0,0],"id":49,"left_children":[1,3,5,7,9,11,13,-1,-1,-1,-1,-1,-1,-1,-1],"loss_changes":[1.0032424E1,1.0583649E0,6.5356874E-1,9.920635E-1,9.898673E-1,7.747321E-1,7.686784E-1,0E0,0E0,0E0,0E0,0E0,0E0,0E0,0E0],"parents":[2147483647,0,0,1,1,2,2,3,3,4,4,5,5,6,6],"right_children":[2,4,6,8,10,12,14,-1,-1,-1,-1,-1,-1,-1,-1],"split_conditions":[-1.2854064E-1,1.6553466E0,1.816371E0,-1.4846988E-1,5.0396794E-1,-6.725784E-2,2.0824432E0,-1.916428E-3,-5.545279E-3,1.9746833E-4,2.15377E-2,1.133043E-2,4.752456E-3,2.0107247E-2,2.8465835E-3],"split_indices":[4,0,8,8,6,6,8,0,0,0,0,0,0,0,0],"split_type":[0,0,0,0,0,0,0,0,0,0,0,0,0,0,0],"sum_hessian":[1.294E3,8E2,4.94E2,7.76E2,2.4E1,4.67E2,2.7E1,4.52E2,3.24E2,1.7E1,7E0,5E1,4.17E2,1.6E1,1.1E1],"tree_param":{"num_deleted":"0","num_feature":"12","num_nodes":"15","size_leaf_vector":"1"}},{"base_weights":[2.2966298E-3,-6.375726E-2,9.6920095E-2,-6.782635E-2,2.311437E-2,8.102536E-2,2.3670615E-1,-2.9705856E-3,-1.2870143E-2,3.4553655E-3,1.3568714E-2,1.35089895E-2,-3.8056464E-3],"categories":[],"categories_nodes":[],"categories_segments":[],"categories_sizes":[],"default_left":[0,0,0,0,0,0,0,0,0,0,0,0,0],"id":50,"left_children":[1,3,5,7,-1,9,11,-1,-1,-1,-1,-1,-1],"loss_changes":[8.119001E0,1.6688569E0,1.1672955E0,1.1970735E0,0E0,1.0724368E0,5.8600855E-1,0E0,0E0,0E0,0E0,0E0,0E0],"parents":[2147483647,0,0,1,1,2,2,3,3,5,5,6,6],"right_children":[2,4,6,8,-1,10,12,-1,-1,-1,-1,-1,-1],"split_conditions":[3.2296148E-1,7.95942E-1,1.5770081E0,6.85396E-1,2.311437E-2,1.816371E0,1.7854038E0,-2.9705856E-3,-1.2870143E-2,3.4553655E-3,1.3568714E-2,1.35089895E-2,-3.8056464E-3],"split_indices":[9,6,7,6,0,8,6,0,0,0,0,0,0],"split_type":[0,0,0,0,0,0,0,0,0,0,0,0,0],"sum_hessian":[1.297E3,7.64E2,5.33E2,7.59E2,5E0,4.8E2,5.3E1,7.28E2,3.1E1,4.53E2,2.7E1,4.8E1,5E0],"tree_param":{"num_deleted":"0","num_feature":"12","num_nodes":"13","size_leaf_vector":"1"}},{"base_weights":[9.623943E-3,-4.3070525E-2,9.847215E-2,-1.3546519E-2,-7.9898186E-2,8.999714E-2,2.6590174E-1,-1.5476717E-3,2.0683777E-2,-6.6701607E-3,-9.3869487E-4,6.2696137E-3,1.4662835E-3,6.147016E-3,2.3731306E-2],"categories":[],"categories_nodes":[],"categories_segments":[],"categories_sizes":[],"default_left":[0,0,0,0,0,0,0,0,0,0,0,0,0,0,0],"id":51,"left_children":[1,3,5,7,9,11,13,-1,-1,-1,-1,-1,-1,-1,-1],"loss_changes":[6.1374106E0,8.937659E-1,6.685252E-1,3.4187756E0,1.1944828E0,9.9704576E-1,6.2795854E-1,0E0,0E0,0E0,0E0,0E0,0E0,0E0,0E0],"parents":[2147483647,0,0,1,1,2,2,3,3,4,4,5,5,6,6],"right_children":[2,4,6,8,10,12,14,-1,-1,-1,-1,-1,-1,-1,-1],"split_conditions":[1.0768424E0,-2.9173952E-1,1.816371E0,-3.531408E-1,3.6498356E-1,9.158189E-1,6.2046558E-2,-1.5476717E-3,2.0683777E-2,-6.6701607E-3,-9.3869487E-4,6.2696137E-3,1.4662835E-3,6.147016E-3,2.3731306E-2],"split_indices":[4,8,8,8,6,8,7,0,0,0,0,0,0,0,0],"split_type":[0,0,0,0,0,0,0,0,0,0,0,0,0,0,0],"sum_hessian":[1.309E3,8.22E2,4.87E2,4.57E2,3.65E2,4.65E2,2.2E1,4.4E2,1.7E1,1.94E2,1.71E2,2.93E2,1.72E2,1.4E1,8E0],"tree_param":{"num_deleted":"0","num_feature":"12","num_nodes":"15","size_leaf_vector":"1"}},{"base_weights":[-8.597289E-4,-7.056035E-2,6.2543295E-2,-5.733945E-2,-2.8763363E-1,5.7712134E-2,3.4892327E-1,-4.256494E-3,-2.0559959E-4,-2.4373302E-2,-1.0518488E-2,-1.4652513E-2,3.0675207E-3,2.1171091E-2,1.0813543E-2],"categories":[],"categories_nodes":[],"categories_segments":[],"categories_sizes":[],"default_left":[0,0,0,0,0,0,0,0,0,0,0,0,0,0,0],"id":52,"left_children":[1,3,5,7,9,11,13,-1,-1,-1,-1,-1,-1,-1,-1],"loss_changes":[5.6963825E0,1.7456291E0,9.1375804E-1,8.5759366E-1,4.378457E-1,8.666322E-1,1.713276E-2,0E0,0E0,0E0,0E0,0E0,0E0,0E0,0E0],"parents":[2147483647,0,0,1,1,2,2,3,3,4,4,5,5,6,6],"right_children":[2,4,6,8,10,12,14,-1,-1,-1,-1,-1,-1,-1,-1],"split_conditions":[-3.111564E-1,-3.4300625E-1,2.0765803E0,-5.5256045E-1,-9.0116465E-1,-1.8858719E0,1.2502307E0,-4.256494E-3,-2.0559959E-4,-2.4373302E-2,-1.0518488E-2,-1.4652513E-2,3.0675207E-3,2.1171091E-2,1.0813543E-2],"split_indices":[4,4,2,4,3,2,4,0,0,0,0,0,0,0,0],"split_type":[0,0,0,0,0,0,0,0,0,0,0,0,0,0,0],"sum_hessian":[1.287E3,6.13E2,6.74E2,5.79E2,3.4E1,6.64E2,1E1,3.8E2,1.99E2,8E0,2.6E1,6E0,6.58E2,5E0,5E0],"tree_param":{"num_deleted":"0","num_feature":"12","num_nodes":"15","size_leaf_vector":"1"}},{"base_weights":[-9.6413225E-4,-4.9485676E-2,8.41309E-2,-1.6719109E-1,-3.8195245E-2,4.0471056E-1,7.558506E-2,-3.2200578E-3,-1.041268E-2,-2.778539E-3,1.7024465E-3,8.95985E-3,3.0017897E-2,-5.0565106E-4,4.9709086E-3],"categories":[],"categories_nodes":[],"categories_segments":[],"categories_sizes":[],"default_left":[0,0,0,0,0,0,0,0,0,0,0,0,0,0,0],"id":53,"left_children":[1,3,5,7,9,11,13,-1,-1,-1,-1,-1,-1,-1,-1],"loss_changes":[5.3552732E0,1.0913224E0,1.2597718E0,2.9048657E-1,9.496292E-1,4.2187154E-1,9.4053316E-1,0E0,0E0,0E0,0E0,0E0,0E0,0E0,0E0],"parents":[2147483647,0,0,1,1,2,2,3,3,4,4,5,5,6,6],"right_children":[2,4,6,8,10,12,14,-1,-1,-1,-1,-1,-1,-1,-1],"split_conditions":[1.0768424E0,-1.6243355E0,1.0827957E0,-1.6819355E0,-1.5318409E-1,3.2215384E-1,1.1368214E0,-3.2200578E-3,-1.041268E-2,-2.778539E-3,1.7024465E-3,8.95985E-3,3.0017897E-2,-5.0565106E-4,4.9709086E-3],"split_indices":[4,3,4,6,9,2,4,0,0,0,0,0,0,0,0],"split_type":[0,0,0,0,0,0,0,0,0,0,0,0,0,0,0],"sum_hessian":[1.295E3,8.25E2,4.7E2,7.1E1,7.54E2,1.1E1,4.59E2,2.1E1,5E1,6.08E2,1.46E2,6E0,5E0,1E2,3.59E2],"tree_param":{"num_deleted":"0","num_feature":"12","num_nodes":"15","size_leaf_vector":"1"}},{"base_weights":[-9.178569E-3,-8.250224E-2,5.7210904E-2,-5.3048037E-2,-1.3132276E-1,1.7132598E-1,3.512065E-2,-3.4944068E-3,4.9936553E-3,-1.1224459E-5,-8.591469E-3,-2.0361552E-3,1.2700203E-2,-1.5720332E-2,2.511325E-3],"categories":[],"categories_nodes":[],"categories_segments":[],"categories_sizes":[],"default_left":[0,0,0,0,0,0,0,0,0,0,0,0,0,0,0],"id":54,"left_children":[1,3,5,7,9,11,13,-1,-1,-1,-1,-1,-1,-1,-1],"loss_changes":[6.3622227E0,8.8601255E-1,1.7232733E0,1.0087358E0,1.2372732E0,1.9563744E0,3.0570173E0,0E0,0E0,0E0,0E0,0E0,0E0,0E0,0E0],"parents":[2147483647,0,0,1,1,2,2,3,3,4,4,5,5,6,6],"right_children":[2,4,6,8,10,12,14,-1,-1,-1,-1,-1,-1,-1,-1],"split_conditions":[-3.111564E-1,-1.4846988E-1,-6.89357E-1,-3.8750675E-1,-1.1615773E0,-9.965955E-1,-5.9956026E-1,-3.4944068E-3,4.9936553E-3,-1.1224459E-5,-8.591469E-3,-2.0361552E-3,1.2700203E-2,-1.5720332E-2,2.511325E-3],"split_indices":[4,8,2,4,4,1,1,0,0,0,0,0,0,0,0],"split_type":[0,0,0,0,0,0,0,0,0,0,0,0,0,0,0],"sum_hessian":[1.305E3,6.2E2,6.85E2,3.88E2,2.32E2,1.1E2,5.75E2,3.5E2,3.8E1,5.5E1,1.77E2,3.1E1,7.9E1,2.3E1,5.52E2],"tree_param":{"num_deleted":"0","num_feature":"12","num_nodes":"15","size_leaf_vector":"1"}},{"base_weights":[1.2452583E-3,-3.7004244E-2,9.131029E-2,-4.29793E-2,2.196935E-1,2.6998618E-1,7.829688E-2,-1.4494865E-3,-7.4045653E-3,-4.8215124E-3,1.9232163E-2,2.3119612E-2,4.9031125E-3,5.9425755E-4,6.239581E-3],"categories":[],"categories_nodes":[],"categories_segments":[],"categories_sizes":[],"default_left":[0,0,0,0,0,0,0,0,0,0,0,0,0,0,0],"id":55,"left_children":[1,3,5,7,9,11,13,-1,-1,-1,-1,-1,-1,-1,-1],"loss_changes":[4.495584E0,1.4143873E0,8.8335705E-1,1.3132496E0,1.1321266E0,8.14716E-1,1.1224747E0,0E0,0E0,0E0,0E0,0E0,0E0,0E0,0E0],"parents":[2147483647,0,0,1,1,2,2,3,3,4,4,5,5,6,6],"right_children":[2,4,6,8,10,12,14,-1,-1,-1,-1,-1,-1,-1,-1],"split_conditions":[1.13191E0,1.7549697E0,1.1481326E0,6.330096E-1,-1.2197195E0,6.968615E-2,2.908248E-1,-1.4494865E-3,-7.4045653E-3,-4.8215124E-3,1.9232163E-2,2.3119612E-2,4.9031125E-3,5.9425755E-4,6.239581E-3],"split_indices":[4,8,4,6,1,0,2,0,0,0,0,0,0,0,0],"split_type":[0,0,0,0,0,0,0,0,0,0,0,0,0,0,0],"sum_hessian":[1.303E3,9.15E2,3.88E2,8.95E2,2E1,2.5E1,3.63E2,7.91E2,1.04E2,7E0,1.3E1,1.1E1,1.4E1,1.5E2,2.13E2],"tree_param":{"num_deleted":"0","num_feature":"12","num_nodes":"15","size_leaf_vector":"1"}},{"base_weights":[5.0224597E-3,-4.1571945E-2,8.368797E-2,1.5749566E-1,-4.6466082E-2,2.1736793E-1,7.255998E-2,2.7754417E-2,-2.627519E-3,-6.9752866E-3,-1.8638136E-3,1.2088094E-3,1.4908654E-2,-1.7665412E-2,4.1004736E-3],"categories":[],"categories_nodes":[],"categories_segments":[],"categories_sizes":[],"default_left":[0,0,0,0,0,0,0,0,0,0,0,0,0,0,0],"id":56,"left_children":[1,3,5,7,9,11,13,-1,-1,-1,-1,-1,-1,-1,-1],"loss_changes":[4.8087826E0,8.1011164E-1,7.1017075E-1,1.6994253E0,6.830883E-1,5.703939E-1,1.8479292E0,0E0,0E0,0E0,0E0,0E0,0E0,0E0,0E0],"parents":[2147483647,0,0,1,1,2,2,3,3,4,4,5,5,6,6],"right_children":[2,4,6,8,10,12,14,-1,-1,-1,-1,-1,-1,-1,-1],"split_conditions":[1.0768424E0,-1.420097E0,-5.5274934E-1,-9.170053E-1,-1.6243355E0,-4.8579797E-1,-7.707399E-1,2.7754417E-2,-2.627519E-3,-6.9752866E-3,-1.8638136E-3,1.2088094E-3,1.4908654E-2,-1.7665412E-2,4.1004736E-3],"split_indices":[4,4,1,2,3,3,7,0,0,0,0,0,0,0,0],"split_type":[0,0,0,0,0,0,0,0,0,0,0,0,0,0,0],"sum_hessian":[1.31E3,8.23E2,4.87E2,1.9E1,8.04E2,3.6E1,4.51E2,6E0,1.3E1,7.1E1,7.33E2,1.1E1,2.5E1,9E0,4.42E2],"tree_param":{"num_deleted":"0","num_feature":"12","num_nodes":"15","size_leaf_vector":"1"}},{"base_weights":[-5.0157933E-3,-4.089515E-2,7.957024E-2,-4.607922E-2,2.2833763E-1,3.0416027E-2,1.2457784E-1,-4.6064123E-3,-1.2297379E-3,7.8598736E-4,2.327839E-2,1.5744787E-2,-1.3637247E-4,4.3964502E-3,1.811163E-2],"categories":[],"categories_nodes":[],"categories_segments":[],"categories_sizes":[],"default_left":[0,0,0,0,0,0,0,0,0,0,0,0,0,0,0],"id":57,"left_children":[1,3,5,7,9,11,13,-1,-1,-1,-1,-1,-1,-1,-1],"loss_changes":[3.8514977E0,1.2541096E0,8.324654E-1,8.634056E-1,8.501507E-1,1.7168722E0,1.683974E0,0E0,0E0,0E0,0E0,0E0,0E0,0E0,0E0],"parents":[2147483647,0,0,1,1,2,2,3,3,4,4,5,5,6,6],"right_children":[2,4,6,8,10,12,14,-1,-1,-1,-1,-1,-1,-1,-1],"split_conditions":[1.1368214E0,1.592683E0,4.1826257E-1,-7.843532E-1,-7.707399E-1,-1.6893698E-1,1.14299E0,-4.6064123E-3,-1.2297379E-3,7.8598736E-4,2.327839E-2,1.5744787E-2,-1.3637247E-4,4.3964502E-3,1.811163E-2],"split_indices":[4,9,2,1,7,8,9,0,0,0,0,0,0,0,0],"split_type":[0,0,0,0,0,0,0,0,0,0,0,0,0,0,0],"sum_hessian":[1.267E3,8.9E2,3.77E2,8.74E2,1.6E1,1.81E2,1.96E2,2.77E2,5.97E2,9E0,7E0,1.8E1,1.63E2,1.71E2,2.5E1],"tree_param":{"num_deleted":"0","num_feature":"12","num_nodes":"15","size_leaf_vector":"1"}},{"base_weights":[1.090776E-3,-4.5314085E-2,7.306167E-2,-1.3221787E-1,-2.5437849E-2,8.2326576E-2,-1.8475294E-1,-2.3902862E-3,-9.661334E-3,-1.9481521E-3,9.286094E-3,-8.533535E-3,4.4496595E-3,-1.7241739E-2,5.803318E-3],"categories":[],"categories_nodes":[],"categories_segments":[],"categories_sizes":[],"default_left":[0,0,0,0,0,0,0,0,0,0,0,0,0,0,0],"id":58,"left_children":[1,3,5,7,9,11,13,-1,-1,-1,-1,-1,-1,-1,-1],"loss_changes":[4.3450494E0,1.3629471E0,1.2334108E0,7.477956E-1,1.849341E0,8.4669876E-1,9.0682644E-1,0E0,0E0,0E0,0E0,0E0,0E0,0E0,0E0],"parents":[2147483647,0,0,1,1,2,2,3,3,4,4,5,5,6,6],"right_children":[2,4,6,8,10,12,14,-1,-1,-1,-1,-1,-1,-1,-1],"split_conditions":[2.9650894E-1,-1.0357382E0,1.9526308E0,-1.5022194E0,-4.737396E-2,-1.8795887E0,7.930164E-1,-2.3902862E-3,-9.661334E-3,-1.9481521E-3,9.286094E-3,-8.533535E-3,4.4496595E-3,-1.7241739E-2,5.803318E-3],"split_indices":[9,0,10,7,9,0,8,0,0,0,0,0,0,0,0],"split_type":[0,0,0,0,0,0,0,0,0,0,0,0,0,0,0],"sum_hessian":[1.299E3,7.9E2,5.09E2,1.46E2,6.44E2,4.92E2,1.7E1,6.2E1,8.4E1,6.06E2,3.8E1,1.2E1,4.8E2,1.1E1,6E0],"tree_param":{"num_deleted":"0","num_feature":"12","num_nodes":"15","size_leaf_vector":"1"}},{"base_weights":[-6.0475944E-3,-6.1004832E-2,4.5568343E-2,-4.822849E-2,-2.703384E-1,4.0217865E-2,3.716962E-1,-3.1972982E-3,6.6673174E-3,-2.0444825E-2,-9.373732E-3,1.7503569E-3,1.6346512E-2,2.37331E-2,1.0339052E-2],"categories":[],"categories_nodes":[],"categories_segments":[],"categories_sizes":[],"default_left":[0,0,0,0,0,0,0,0,0,0,0,0,0,0,0],"id":59,"left_children":[1,3,5,7,9,11,13,-1,-1,-1,-1,-1,-1,-1,-1],"loss_changes":[3.7897336E0,1.7173746E0,1.187315E0,1.7522587E0,3.4815574E-1,1.0029677E0,8.86358E-2,0E0,0E0,0E0,0E0,0E0,0E0,0E0,0E0],"parents":[2147483647,0,0,1,1,2,2,3,3,4,4,5,5,6,6],"right_children":[2,4,6,8,10,12,14,-1,-1,-1,-1,-1,-1,-1,-1],"split_conditions":[-3.111564E-1,-3.4300625E-1,2.0765803E0,-3.8750675E-1,-6.11138E-1,2.1191998E0,1.8390998E0,-3.1972982E-3,6.6673174E-3,-2.0444825E-2,-9.373732E-3,1.7503569E-3,1.6346512E-2,2.37331E-2,1.0339052E-2],"split_indices":[4,4,2,4,0,0,7,0,0,0,0,0,0,0,0],"split_type":[0,0,0,0,0,0,0,0,0,0,0,0,0,0,0],"sum_hessian":[1.334E3,6.46E2,6.88E2,6.1E2,3.6E1,6.78E2,1E1,5.62E2,4.8E1,1.2E1,2.4E1,6.67E2,1.1E1,5E0,5E0],"tree_param":{"num_deleted":"0","num_feature":"12","num_nodes":"15","size_leaf_vector":"1"}},{"base_weights":[1.0109283E-2,-3.4530062E-2,5.7317555E-2,-3.7912562E-2,1.7475069E-2,-2.4672249E-1,6.703285E-2,-2.1036614E-3,1.3640116E-2,-2.6984639E-3,-1.6273802E-2,1.1898707E-2,2.4819009E-3],"categories":[],"categories_nodes":[],"categories_segments":[],"categories_sizes":[],"default_left":[0,0,0,0,0,0,0,0,0,0,0,0,0],"id":60,"left_children":[1,3,5,7,-1,9,11,-1,-1,-1,-1,-1,-1],"loss_changes":[2.771032E0,8.913657E-1,1.9040413E0,8.7893367E-1,0E0,2.8603435E-1,1.8317544E0,0E0,0E0,0E0,0E0,0E0,0E0],"parents":[2147483647,0,0,1,1,2,2,3,3,5,5,6,6],"right_children":[2,4,6,8,-1,10,12,-1,-1,-1,-1,-1,-1],"split_conditions":[-1.00279026E-1,1.7142049E0,-1.8795887E0,1.7884662E0,1.7475069E-2,-1.1790259E0,3.1983636E-2,-2.1036614E-3,1.3640116E-2,-2.6984639E-3,-1.6273802E-2,1.1898707E-2,2.4819009E-3],"split_indices":[9,10,0,2,0,6,9,0,0,0,0,0,0],"split_type":[0,0,0,0,0,0,0,0,0,0,0,0,0],"sum_hessian":[1.313E3,6.75E2,6.38E2,6.7E2,5E0,1.9E1,6.19E2,6.62E2,8E0,6E0,1.3E1,5.6E1,5.63E2],"tree_param":{"num_deleted":"0","num_feature":"12","num_nodes":"13","size_leaf_vector":"1"}},{"base_weights":[-4.2105494E-3,-3.3116773E-2,6.2903926E-2,-2.25811E-2,-1.10332295E-1,2.617487E-1,4.3896608E-2,-2.0495043E-3,3.1270676E-3,-1.2933327E-3,-1.22229615E-2,2.0821875E-2,5.0556078E-3,-1.1340163E-3,4.254227E-3],"categories":[],"categories_nodes":[],"categories_segments":[],"categories_sizes":[],"default_left":[0,0,0,0,0,0,0,0,0,0,0,0,0,0,0],"id":61,"left_children":[1,3,5,7,9,11,13,-1,-1,-1,-1,-1,-1,-1,-1],"loss_changes":[2.5260568E0,7.378093E-1,1.4700761E0,1.2593119E0,1.2285504E0,8.0274796E-1,9.863673E-1,0E0,0E0,0E0,0E0,0E0,0E0,0E0,0E0],"parents":[2147483647,0,0,1,1,2,2,3,3,4,4,5,5,6,6],"right_children":[2,4,6,8,10,12,14,-1,-1,-1,-1,-1,-1,-1,-1],"split_conditions":[1.13191E0,6.330096E-1,-6.041553E-2,2.8554866E-1,7.8904855E-1,-1.2486847E-1,3.108386E-1,-2.0495043E-3,3.1270676E-3,-1.2933327E-3,-1.22229615E-2,2.0821875E-2,5.0556078E-3,-1.1340163E-3,4.254227E-3],"split_indices":[4,6,6,6,2,2,2,0,0,0,0,0,0,0,0],"split_type":[0,0,0,0,0,0,0,0,0,0,0,0,0,0,0],"sum_hessian":[1.3E3,9.09E2,3.91E2,8.01E2,1.08E2,3.3E1,3.58E2,6.59E2,1.42E2,6.7E1,4.1E1,1.6E1,1.7E1,1.37E2,2.21E2],"tree_param":{"num_deleted":"0","num_feature":"12","num_nodes":"15","size_leaf_vector":"1"}},{"base_weights":[1.787409E-2,-1.9212844E-2,7.350579E-2,-9.706858E-3,-1.3408686E-1,-1.6960973E-2,7.903736E-2,-1.4619649E-3,4.899369E-3,-1.3499319E-2,-5.4922886E-4,5.128599E-3,5.1726727E-4],"categories":[],"categories_nodes":[],"categories_segments":[],"categories_sizes":[],"default_left":[0,0,0,0,0,0,0,0,0,0,0,0,0],"id":62,"left_children":[1,3,5,7,9,-1,11,-1,-1,-1,-1,-1,-1],"loss_changes":[2.6567624E0,8.428073E-1,1.2025664E0,1.50689E0,9.840772E-1,0E0,8.2180834E-1,0E0,0E0,0E0,0E0,0E0,0E0],"parents":[2147483647,0,0,1,1,2,2,3,3,4,4,6,6],"right_children":[2,4,6,8,10,-1,12,-1,-1,-1,-1,-1,-1],"split_conditions":[-1.4818634E-1,6.330096E-1,-1.3853316E0,2.8554866E-1,-2.3763382E-1,-1.6960973E-2,1.0670489E0,-1.4619649E-3,4.899369E-3,-1.3499319E-2,-5.4922886E-4,5.128599E-3,5.1726727E-4],"split_indices":[4,6,10,6,4,0,10,0,0,0,0,0,0],"split_type":[0,0,0,0,0,0,0,0,0,0,0,0,0],"sum_hessian":[1.286E3,7.72E2,5.14E2,7.14E2,5.8E1,6E0,5.08E2,6.05E2,1.09E2,2.7E1,3.1E1,3.78E2,1.3E2],"tree_param":{"num_deleted":"0","num_feature":"12","num_nodes":"13","size_leaf_vector":"1"}},{"base_weights":[-1.1176457E-2,-5.4399565E-2,1.98706E-2,-3.785435E-2,-2.032166E-1,3.9372206E-1,1.3697877E-2,-2.6631257E-3,7.1384283E-3,-2.417023E-4,-1.37153445E-2,-4.953618E-3,3.799356E-2,-4.0451973E-3,1.8141445E-3],"categories":[],"categories_nodes":[],"categories_segments":[],"categories_sizes":[],"default_left":[0,0,0,0,0,0,0,0,0,0,0,0,0,0,0],"id":63,"left_children":[1,3,5,7,9,11,13,-1,-1,-1,-1,-1,-1,-1,-1],"loss_changes":[1.7080418E0,1.3022028E0,1.7045988E0,1.3434765E0,7.461369E-1,2.2405171E0,1.5626411E0,0E0,0E0,0E0,0E0,0E0,0E0,0E0,0E0],"parents":[2147483647,0,0,1,1,2,2,3,3,4,4,5,5,6,6],"right_children":[2,4,6,8,10,12,14,-1,-1,-1,-1,-1,-1,-1,-1],"split_conditions":[-3.8750675E-1,-4.5701087E-1,-3.7842804E-1,4.3362045E-1,-6.9760543E-1,-7.4904484E-1,-1.5318409E-1,-2.6631257E-3,7.1384283E-3,-2.417023E-4,-1.37153445E-2,-4.953618E-3,3.799356E-2,-4.0451973E-3,1.8141445E-3],"split_indices":[4,4,4,6,6,2,9,0,0,0,0,0,0,0,0],"split_type":[0,0,0,0,0,0,0,0,0,0,0,0,0,0,0],"sum_hessian":[1.271E3,5.31E2,7.4E2,4.79E2,5.2E1,1.1E1,7.29E2,4.42E2,3.7E1,1.4E1,3.8E1,5E0,6E0,1.4E2,5.89E2],"tree_param":{"num_deleted":"0","num_feature":"12","num_nodes":"15","size_leaf_vector":"1"}},{"base_weights":[9.002307E-3,-2.5484875E-2,6.7185074E-2,5.0840154E-3,-6.1258413E-2,1.5128028E-1,4.8825584E-2,-5.192657E-4,1.9302921E-2,-6.154013E-3,1.8087294E-4,1.4161006E-2,-9.6808106E-4,-7.6260365E-4,4.887121E-3],"categories":[],"categories_nodes":[],"categories_segments":[],"categories_sizes":[],"default_left":[0,0,0,0,0,0,0,0,0,0,0,0,0,0,0],"id":64,"left_children":[1,3,5,7,9,11,13,-1,-1,-1,-1,-1,-1,-1,-1],"loss_changes":[2.572115E0,8.806251E-1,7.290757E-1,2.567646E0,1.4884318E0,1.9192132E0,1.2333398E0,0E0,0E0,0E0,0E0,0E0,0E0,0E0,0E0],"parents":[2147483647,0,0,1,1,2,2,3,3,4,4,5,5,6,6],"right_children":[2,4,6,8,10,12,14,-1,-1,-1,-1,-1,-1,-1,-1],"split_conditions":[1.0768424E0,-2.9173952E-1,-4.6134423E-2,-3.531408E-1,3.6498356E-1,1.211237E0,1.2023071E0,-5.192657E-4,1.9302921E-2,-6.154013E-3,1.8087294E-4,1.4161006E-2,-9.6808106E-4,-7.6260365E-4,4.887121E-3],"split_indices":[4,8,8,8,6,4,4,0,0,0,0,0,0,0,0],"split_type":[0,0,0,0,0,0,0,0,0,0,0,0,0,0,0],"sum_hessian":[1.28E3,8.04E2,4.76E2,4.34E2,3.7E2,8.4E1,3.92E2,4.18E2,1.6E1,1.89E2,1.81E2,4.7E1,3.7E1,1.7E2,2.22E2],"tree_param":{"num_deleted":"0","num_feature":"12","num_nodes":"15","size_leaf_vector":"1"}},{"base_weights":[-2.6469047E-3,-3.1607326E-2,4.063174E-2,-3.7458085E-2,1.6182439E-1,3.3695537E-1,3.296867E-2,-1.4136782E-3,-7.367161E-3,2.1397246E-2,2.1363138E-3,3.9079636E-3,3.129288E-2,-1.0199058E-2,1.980184E-3],"categories":[],"categories_nodes":[],"categories_segments":[],"categories_sizes":[],"default_left":[0,0,0,0,0,0,0,0,0,0,0,0,0,0,0],"id":65,"left_children":[1,3,5,7,9,11,13,-1,-1,-1,-1,-1,-1,-1,-1],"loss_changes":[1.625649E0,8.8540983E-1,1.1696801E0,7.57812E-1,7.106879E-1,9.230516E-1,8.067377E-1,0E0,0E0,0E0,0E0,0E0,0E0,0E0,0E0],"parents":[2147483647,0,0,1,1,2,2,3,3,4,4,5,5,6,6],"right_children":[2,4,6,8,10,12,14,-1,-1,-1,-1,-1,-1,-1,-1],"split_conditions":[2.9650894E-1,1.6733929E0,3.4941402E-1,3.1983636E-2,4.6968994E-1,3.2296148E-1,4.5522416E-1,-1.4136782E-3,-7.367161E-3,2.1397246E-2,2.1363138E-3,3.9079636E-3,3.129288E-2,-1.0199058E-2,1.980184E-3],"split_indices":[9,0,9,9,1,9,9,0,0,0,0,0,0,0,0],"split_type":[0,0,0,0,0,0,0,0,0,0,0,0,0,0,0],"sum_hessian":[1.295E3,7.76E2,5.19E2,7.54E2,2.2E1,1.2E1,5.07E2,6.97E2,5.7E1,6E0,1.6E1,7E0,5E0,1.3E1,4.94E2],"tree_param":{"num_deleted":"0","num_feature":"12","num_nodes":"15","size_leaf_vector":"1"}},{"base_weights":[-4.679569E-3,-9.742706E-3,1.9783391E-1,-1.3711668E-2,2.075933E-1,3.1637293E-1,4.239817E-2,-4.0124394E-3,-1.0041094E-4,4.4740965E-3,2.0893345E-2,2.9827986E-2,8.135979E-3,-4.787422E-3,7.2567314E-3],"categories":[],"categories_nodes":[],"categories_segments":[],"categories_sizes":[],"default_left":[0,0,0,0,0,0,0,0,0,0,0,0,0,0,0],"id":66,"left_children":[1,3,5,7,9,11,13,-1,-1,-1,-1,-1,-1,-1,-1],"loss_changes":[1.3451403E0,1.1061097E0,5.7619286E-1,9.7868216E-1,5.3382957E-1,6.778574E-1,2.2678679E-1,0E0,0E0,0E0,0E0,0E0,0E0,0E0,0E0],"parents":[2147483647,0,0,1,1,2,2,3,3,4,4,5,5,6,6],"right_children":[2,4,6,8,10,12,14,-1,-1,-1,-1,-1,-1,-1,-1],"split_conditions":[1.8777722E0,1.9665964E0,2.041509E0,-1.0827528E0,1.7804247E0,-1.4478642E0,1.197991E0,-4.0124394E-3,-1.0041094E-4,4.4740965E-3,2.0893345E-2,2.9827986E-2,8.135979E-3,-4.787422E-3,7.2567314E-3],"split_indices":[8,0,8,0,3,0,4,0,0,0,0,0,0,0,0],"split_type":[0,0,0,0,0,0,0,0,0,0,0,0,0,0,0],"sum_hessian":[1.309E3,1.278E3,3.1E1,1.256E3,2.2E1,1.7E1,1.4E1,1.87E2,1.069E3,1.5E1,7E0,5E0,1.2E1,6E0,8E0],"tree_param":{"num_deleted":"0","num_feature":"12","num_nodes":"15","size_leaf_vector":"1"}},{"base_weights":[3.1837453E-3,-6.020399E-2,2.4133971E-2,7.417286E-2,-8.092139E-2,3.1125933E-1,1.8639378E-2,1.7320571E-2,-2.1192187E-3,-4.546077E-3,1.1292604E-2,3.426697E-2,5.4524E-4,1.7087502E-2,6.7067466E-4],"categories":[],"categories_nodes":[],"categories_segments":[],"categories_sizes":[],"default_left":[0,0,0,0,0,0,0,0,0,0,0,0,0,0,0],"id":67,"left_children":[1,3,5,7,9,11,13,-1,-1,-1,-1,-1,-1,-1,-1],"loss_changes":[1.6999488E0,8.912946E-1,1.511885E0,1.3791316E0,8.6724186E-1,2.014946E0,1.5910857E0,0E0,0E0,0E0,0E0,0E0,0E0,0E0,0E0],"parents":[2147483647,0,0,1,1,2,2,3,3,4,4,5,5,6,6],"right_children":[2,4,6,8,10,12,14,-1,-1,-1,-1,-1,-1,-1,-1],"split_conditions":[-7.634231E-1,-1.8281226E0,-1.1079499E0,-1.5629635E0,1.8573052E0,-8.1670433E-1,-7.4156165E-1,1.7320571E-2,-2.1192187E-3,-4.546077E-3,1.1292604E-2,3.426697E-2,5.4524E-4,1.7087502E-2,6.7067466E-4],"split_indices":[1,10,2,2,8,6,1,0,0,0,0,0,0,0,0],"split_type":[0,0,0,0,0,0,0,0,0,0,0,0,0,0,0],"sum_hessian":[1.278E3,3.17E2,9.61E2,4.2E1,2.75E2,1.7E1,9.44E2,1.2E1,3E1,2.67E2,8E0,7E0,1E1,1.4E1,9.3E2],"tree_param":{"num_deleted":"0","num_feature":"12","num_nodes":"15","size_leaf_vector":"1"}},{"base_weights":[3.7646302E-4,-4.3376807E-2,2.9525954E-2,-2.6856685E-2,-1.6588956E-1,1.1154679E-1,-1.2020628E-2,-1.7422651E-3,2.1193145E-2,-1.0188589E-2,1.2413502E-3,6.9294274E-3,-3.863342E-4,-1.2646417E-2,-8.7763874E-5],"categories":[],"categories_nodes":[],"categories_segments":[],"categories_sizes":[],"default_left":[0,0,0,0,0,0,0,0,0,0,0,0,0,0,0],"id":68,"left_children":[1,3,5,7,9,11,13,-1,-1,-1,-1,-1,-1,-1,-1],"loss_changes":[1.642702E0,1.0378662E0,2.6354818E0,1.653054E0,4.4576967E-1,8.3966565E-1,1.2706792E0,0E0,0E0,0E0,0E0,0E0,0E0,0E0,0E0],"parents":[2147483647,0,0,1,1,2,2,3,3,4,4,5,5,6,6],"right_children":[2,4,6,8,10,12,14,-1,-1,-1,-1,-1,-1,-1,-1],"split_conditions":[-4.102779E-1,-4.876701E-1,7.666813E-2,5.0396794E-1,8.28623E-1,1.211237E0,-2.3371835E-1,-1.7422651E-3,2.1193145E-2,-1.0188589E-2,1.2413502E-3,6.9294274E-3,-3.863342E-4,-1.2646417E-2,-8.7763874E-5],"split_indices":[4,4,8,6,10,4,6,0,0,0,0,0,0,0,0],"split_type":[0,0,0,0,0,0,0,0,0,0,0,0,0,0,0],"sum_hessian":[1.286E3,5.14E2,7.72E2,4.54E2,6E1,2.59E2,5.13E2,4.47E2,7E0,5E1,1E1,2.11E2,4.8E1,2E1,4.93E2],"tree_param":{"num_deleted":"0","num_feature":"12","num_nodes":"15","size_leaf_vector":"1"}},{"base_weights":[-7.897208E-3,-4.8133835E-2,3.0406374E-2,2.492482E-1,-5.3332333E-2,-1.7674775E-1,3.7803467E-2,2.3770913E-2,-9.231612E-4,-2.1112652E-3,-8.4484285E-3,-2.0620195E-2,-4.41882E-3,1.41954515E-2,1.5316097E-3],"categories":[],"categories_nodes":[],"categories_segments":[],"categories_sizes":[],"default_left":[0,0,0,0,0,0,0,0,0,0,0,0,0,0,0],"id":69,"left_children":[1,3,5,7,9,11,13,-1,-1,-1,-1,-1,-1,-1,-1],"loss_changes":[1.9911618E0,9.8723507E-1,1.0210896E0,6.7480934E-1,7.891778E-1,4.4253403E-1,1.1208329E0,0E0,0E0,0E0,0E0,0E0,0E0,0E0,0E0],"parents":[2147483647,0,0,1,1,2,2,3,3,4,4,5,5,6,6],"right_children":[2,4,6,8,10,12,14,-1,-1,-1,-1,-1,-1,-1,-1],"split_conditions":[-3.040125E-1,-1.5022632E0,-1.31721E0,-2.9538476E-1,-3.547639E-1,-3.3400092E-1,-1.112845E0,2.3770913E-2,-9.231612E-4,-2.1112652E-3,-8.4484285E-3,-2.0620195E-2,-4.41882E-3,1.41954515E-2,1.5316097E-3],"split_indices":[4,9,10,10,4,6,10,0,0,0,0,0,0,0,0],"split_type":[0,0,0,0,0,0,0,0,0,0,0,0,0,0,0],"sum_hessian":[1.29E3,6.29E2,6.61E2,1E1,6.19E2,2.2E1,6.39E2,5E0,5E0,5.66E2,5.3E1,5E0,1.7E1,1.7E1,6.22E2],"tree_param":{"num_deleted":"0","num_feature":"12","num_nodes":"15","size_leaf_vector":"1"}},{"base_weights":[-4.427148E-4,-3.717419E-2,3.560181E-2,-3.7345723E-3,-9.209502E-2,1.7683966E-1,2.7399296E-2,-4.857933E-4,1.1286123E-2,-5.06272E-5,-6.0719093E-3,-1.6827936E-3,1.513766E-2,-6.4664767E-3,1.904677E-3],"categories":[],"categories_nodes":[],"categories_segments":[],"categories_sizes":[],"default_left":[0,0,0,0,0,0,0,0,0,0,0,0,0,0,0],"id":70,"left_children":[1,3,5,7,9,11,13,-1,-1,-1,-1,-1,-1,-1,-1],"loss_changes":[1.6814396E0,1.1548343E0,7.377569E-1,5.4019344E-1,6.359675E-1,9.378376E-1,1.022317E0,0E0,0E0,0E0,0E0,0E0,0E0,0E0,0E0],"parents":[2147483647,0,0,1,1,2,2,3,3,4,4,5,5,6,6],"right_children":[2,4,6,8,10,12,14,-1,-1,-1,-1,-1,-1,-1,-1],"split_conditions":[-2.9523146E-1,-1.4846988E-1,-2.6457226E-1,1.4667535E0,-1.1615773E0,-4.5547625E-1,-8.8432795E-1,-4.857933E-4,1.1286123E-2,-5.06272E-5,-6.0719093E-3,-1.6827936E-3,1.513766E-2,-6.4664767E-3,1.904677E-3],"split_indices":[4,8,4,7,4,8,3,0,0,0,0,0,0,0,0],"split_type":[0,0,0,0,0,0,0,0,0,0,0,0,0,0,0],"sum_hessian":[1.268E3,6.28E2,6.4E2,3.91E2,2.37E2,3.4E1,6.06E2,3.82E2,9E0,5.8E1,1.79E2,1.3E1,2.1E1,3.8E1,5.68E2],"tree_param":{"num_deleted":"0","num_feature":"12","num_nodes":"15","size_leaf_vector":"1"}},{"base_weights":[-2.0088477E-4,-2.0652333E-2,7.7035904E-2,-6.299786E-2,-6.069165E-3,1.2007678E-1,-3.819303E-2,-1.9048353E-3,-1.1807576E-2,2.6195848E-2,-5.46492E-4,-3.37516E-3,7.495747E-3,-1.0808903E-2,4.2633805E-3],"categories":[],"categories_nodes":[],"categories_segments":[],"categories_sizes":[],"default_left":[0,0,0,0,0,0,0,0,0,0,0,0,0,0,0],"id":71,"left_children":[1,3,5,7,9,11,13,-1,-1,-1,-1,-1,-1,-1,-1],"loss_changes":[2.0598152E0,6.362931E-1,1.3585443E0,1.1292992E0,1.9841633E0,1.1239309E0,1.6664938E0,0E0,0E0,0E0,0E0,0E0,0E0,0E0,0E0],"parents":[2147483647,0,0,1,1,2,2,3,3,4,4,5,5,6,6],"right_children":[2,4,6,8,10,12,14,-1,-1,-1,-1,-1,-1,-1,-1],"split_conditions":[1.2002234E0,-8.583753E-1,1.0670489E0,-2.4328941E-1,-8.4392613E-1,-3.9480695E-1,1.3735964E0,-1.9048353E-3,-1.1807576E-2,2.6195848E-2,-5.46492E-4,-3.37516E-3,7.495747E-3,-1.0808903E-2,4.2633805E-3],"split_indices":[4,3,10,4,3,7,10,0,0,0,0,0,0,0,0],"split_type":[0,0,0,0,0,0,0,0,0,0,0,0,0,0,0],"sum_hessian":[1.302E3,1.03E3,2.72E2,2.63E2,7.67E2,1.98E2,7.4E1,2.31E2,3.2E1,6E0,7.61E2,2.7E1,1.71E2,3E1,4.4E1],"tree_param":{"num_deleted":"0","num_feature":"12","num_nodes":"15","size_leaf_vector":"1"}},{"base_weights":[-1.1515866E-2,-1.7716011E-2,1.6970964E-1,-3.648094E-2,2.675356E-2,3.5150898E-1,-5.693503E-2,-1.9842885E-3,1.3957644E-2,1.7928667E-3,-7.2375694E-3,2.6481453E-2,-7.836486E-3,-8.579848E-3,1.1960448E-2],"categories":[],"categories_nodes":[],"categories_segments":[],"categories_sizes":[],"default_left":[0,0,0,0,0,0,0,0,0,0,0,0,0,0,0],"id":72,"left_children":[1,3,5,7,9,11,13,-1,-1,-1,-1,-1,-1,-1,-1],"loss_changes":[1.4603474E0,1.0482337E0,1.7917788E0,9.042785E-1,5.8757114E-1,2.255669E0,7.2017634E-1,0E0,0E0,0E0,0E0,0E0,0E0,0E0,0E0],"parents":[2147483647,0,0,1,1,2,2,3,3,4,4,5,5,6,6],"right_children":[2,4,6,8,10,12,14,-1,-1,-1,-1,-1,-1,-1,-1],"split_conditions":[1.7823266E0,5.883454E-1,4.8601E-1,1.9372153E0,1.7884662E0,2.122935E0,1.7549697E0,-1.9842885E-3,1.3957644E-2,1.7928667E-3,-7.2375694E-3,2.6481453E-2,-7.836486E-3,-8.579848E-3,1.1960448E-2],"split_indices":[10,8,8,7,2,10,8,0,0,0,0,0,0,0,0],"split_type":[0,0,0,0,0,0,0,0,0,0,0,0,0,0,0],"sum_hessian":[1.296E3,1.254E3,4.2E1,8.82E2,3.72E2,2.3E1,1.9E1,8.74E2,8E0,3.54E2,1.8E1,1.7E1,6E0,1.4E1,5E0],"tree_param":{"num_deleted":"0","num_feature":"12","num_nodes":"15","size_leaf_vector":"1"}},{"base_weights":[7.980267E-3,-3.2694396E-2,5.0256338E-2,-2.2414086E-2,-1.7155161E-1,-5.7957046E-2,7.40205E-2,-1.5670818E-3,1.0901266E-2,-1.7869262E-2,-6.085616E-3,-4.7671003E-3,1.3388013E-2,2.5106732E-2,2.7441166E-3],"categories":[],"categories_nodes":[],"categories_segments":[],"categories_sizes":[],"default_left":[0,0,0,0,0,0,0,0,0,0,0,0,0,0,0],"id":73,"left_children":[1,3,5,7,9,11,13,-1,-1,-1,-1,-1,-1,-1,-1],"loss_changes":[2.2095644E0,9.3116415E-1,1.6243978E0,1.3183656E0,3.7328362E-1,1.4136983E0,4.208388E0,0E0,0E0,0E0,0E0,0E0,0E0,0E0,0E0],"parents":[2147483647,0,0,1,1,2,2,3,3,4,4,5,5,6,6],"right_children":[2,4,6,8,10,12,14,-1,-1,-1,-1,-1,-1,-1,-1],"split_conditions":[-1.5318409E-1,-1.843523E-1,-7.775399E-1,-2.3763382E-1,-1.7408295E-1,-2.123458E-1,3.1983636E-2,-1.5670818E-3,1.0901266E-2,-1.7869262E-2,-6.085616E-3,-4.7671003E-3,1.3388013E-2,2.5106732E-2,2.7441166E-3],"split_indices":[9,4,1,4,4,0,9,0,0,0,0,0,0,0,0],"split_type":[0,0,0,0,0,0,0,0,0,0,0,0,0,0,0],"sum_hessian":[1.283E3,6.54E2,6.29E2,6.1E2,4.4E1,1.13E2,5.16E2,5.89E2,2.1E1,8E0,3.6E1,1.02E2,1.1E1,2.1E1,4.95E2],"tree_param":{"num_deleted":"0","num_feature":"12","num_nodes":"15","size_leaf_vector":"1"}},{"base_weights":[-7.7336403E-3,-1.1402913E-2,1.58053E-1,-1.9226816E-2,6.839102E-2,2.6118287E-1,-6.620978E-3,-4.2495676E-4,-3.8335372E-3,1.2096732E-2,1.1888398E-3,2.2029033E-2,4.4959756E-3],"categories":[],"categories_nodes":[],"categories_segments":[],"categories_sizes":[],"default_left":[0,0,0,0,0,0,0,0,0,0,0,0,0],"id":74,"left_children":[1,3,5,7,9,11,-1,-1,-1,-1,-1,-1,-1],"loss_changes":[7.8653055E-1,7.8980577E-1,8.7336487E-1,7.0864075E-1,8.691516E-1,6.0559297E-1,0E0,0E0,0E0,0E0,0E0,0E0,0E0],"parents":[2147483647,0,0,1,1,2,2,3,3,4,4,5,5],"right_children":[2,4,6,8,10,12,-1,-1,-1,-1,-1,-1,-1],"split_conditions":[1.3515847E0,1.3924143E0,9.414238E-1,9.1394037E-1,1.1243613E0,7.5208217E-1,-6.620978E-3,-4.2495676E-4,-3.8335372E-3,1.2096732E-2,1.1888398E-3,2.2029033E-2,4.4959756E-3],"split_indices":[4,0,7,2,7,8,0,0,0,0,0,0,0],"split_type":[0,0,0,0,0,0,0,0,0,0,0,0,0],"sum_hessian":[1.289E3,1.262E3,2.7E1,1.15E3,1.12E2,2E1,7E0,9.7E2,1.8E2,2.2E1,9E1,9E0,1.1E1],"tree_param":{"num_deleted":"0","num_feature":"12","num_nodes":"13","size_leaf_vector":"1"}},{"base_weights":[-5.123954E-3,-3.6035098E-2,2.710544E-2,-2.1049762E-2,-2.1963401E-1,1.4334247E-1,1.4769972E-2,-1.8486762E-3,3.8664907E-3,-7.8108707E-3,-2.1513654E-2,1.7740928E-3,3.8129736E-2,-1.312567E-2,1.2340987E-3],"categories":[],"categories_nodes":[],"categories_segments":[],"categories_sizes":[],"default_left":[0,0,0,0,0,0,0,0,0,0,0,0,0,0,0],"id":75,"left_children":[1,3,5,7,9,11,13,-1,-1,-1,-1,-1,-1,-1,-1],"loss_changes":[1.2960982E0,1.8222342E0,9.1123784E-1,9.663015E-1,6.0068464E-1,4.047311E0,1.5923254E0,0E0,0E0,0E0,0E0,0E0,0E0,0E0,0E0],"parents":[2147483647,0,0,1,1,2,2,3,3,4,4,5,5,6,6],"right_children":[2,4,6,8,10,12,14,-1,-1,-1,-1,-1,-1,-1,-1],"split_conditions":[-1.2673156E-1,6.4177626E-1,-9.246845E-1,4.424941E-1,7.930164E-1,-9.7418433E-1,-6.558032E-1,-1.8486762E-3,3.8664907E-3,-7.8108707E-3,-2.1513654E-2,1.7740928E-3,3.8129736E-2,-1.312567E-2,1.2340987E-3],"split_indices":[9,6,6,6,8,6,6,0,0,0,0,0,0,0,0],"split_type":[0,0,0,0,0,0,0,0,0,0,0,0,0,0,0],"sum_hessian":[1.299E3,6.63E2,6.36E2,6.14E2,4.9E1,6E1,5.76E2,5.29E2,8.5E1,3.9E1,1E1,5.2E1,8E0,1.9E1,5.57E2],"tree_param":{"num_deleted":"0","num_feature":"12","num_nodes":"15","size_leaf_vector":"1"}},{"base_weights":[6.8563293E-3,-2.1319864E-2,3.5843093E-2,-4.2748034E-5,-7.7215195E-2,1.7998412E-1,2.2262288E-2,-8.1525417E-4,7.451477E-3,-6.1656623E-3,1.8449413E-3,4.1126888E-4,2.7106447E-2,-7.5269147E-4,3.360367E-3],"categories":[],"categories_nodes":[],"categories_segments":[],"categories_sizes":[],"default_left":[0,0,0,0,0,0,0,0,0,0,0,0,0,0,0],"id":76,"left_children":[1,3,5,7,9,11,13,-1,-1,-1,-1,-1,-1,-1,-1],"loss_changes":[1.0804901E0,7.980112E-1,1.2723165E0,1.1830463E0,9.777303E-1,3.4788275E0,1.002285E0,0E0,0E0,0E0,0E0,0E0,0E0,0E0,0E0],"parents":[2147483647,0,0,1,1,2,2,3,3,4,4,5,5,6,6],"right_children":[2,4,6,8,10,12,14,-1,-1,-1,-1,-1,-1,-1,-1],"split_conditions":[-1.00279026E-1,-4.4416195E-1,3.1983636E-2,-5.235195E-1,4.8601E-1,-7.27935E-1,6.3320965E-1,-8.1525417E-4,7.451477E-3,-6.1656623E-3,1.8449413E-3,4.1126888E-4,2.7106447E-2,-7.5269147E-4,3.360367E-3],"split_indices":[9,9,9,9,8,1,1,0,0,0,0,0,0,0,0],"split_type":[0,0,0,0,0,0,0,0,0,0,0,0,0,0,0],"sum_hessian":[1.321E3,6.7E2,6.51E2,4.86E2,1.84E2,5.5E1,5.96E2,4.39E2,4.7E1,1.31E2,5.3E1,3.8E1,1.7E1,3.26E2,2.7E2],"tree_param":{"num_deleted":"0","num_feature":"12","num_nodes":"15","size_leaf_vector":"1"}},{"base_weights":[-3.4257784E-3,-6.163675E-3,1.830756E-1,-7.7675334E-3,1.6957927E-2,2.3662467E-2,1.274549E-2,-2.2528975E-4,-8.968234E-3,-7.463973E-3,6.6335513E-3],"categories":[],"categories_nodes":[],"categories_segments":[],"categories_sizes":[],"default_left":[0,0,0,0,0,0,0,0,0,0,0],"id":77,"left_children":[1,3,5,7,-1,-1,9,-1,-1,-1,-1],"loss_changes":[6.705532E-1,7.187598E-1,9.3304944E-1,7.200919E-1,0E0,0E0,2.7240714E-1,0E0,0E0,0E0,0E0],"parents":[2147483647,0,0,1,1,2,2,3,3,6,6],"right_children":[2,4,6,8,-1,-1,10,-1,-1,-1,-1],"split_conditions":[1.9372153E0,2.0765803E0,-1.2508057E-1,1.7884662E0,1.6957927E-2,2.3662467E-2,4.5522416E-1,-2.2528975E-4,-8.968234E-3,-7.463973E-3,6.6335513E-3],"split_indices":[7,2,10,2,0,0,9,0,0,0,0],"split_type":[0,0,0,0,0,0,0,0,0,0,0],"sum_hessian":[1.31E3,1.292E3,1.8E1,1.287E3,5E0,6E0,1.2E1,1.264E3,2.3E1,5E0,7E0],"tree_param":{"num_deleted":"0","num_feature":"12","num_nodes":"11","size_leaf_vector":"1"}},{"base_weights":[3.5378916E-4,-2.9414201E-2,3.3787206E-2,-2.3765318E-2,-3.1915534E-1,2.8796828E-1,2.0119848E-2,-6.457591E-4,-7.384997E-3,-7.85238E-3,-2.0042086E-2,2.952123E-2,1.8363119E-3,-5.1204124E-3,1.9278193E-3],"categories":[],"categories_nodes":[],"categories_segments":[],"categories_sizes":[],"default_left":[0,0,0,0,0,0,0,0,0,0,0,0,0,0,0],"id":78,"left_children":[1,3,5,7,9,11,13,-1,-1,-1,-1,-1,-1,-1,-1],"loss_changes":[1.2868512E0,1.1119273E0,2.1098623E0,9.017359E-1,1.0919464E-1,2.3339984E0,1.311906E0,0E0,0E0,0E0,0E0,0E0,0E0,0E0,0E0],"parents":[2147483647,0,0,1,1,2,2,3,3,4,4,5,5,6,6],"right_children":[2,4,6,8,10,12,14,-1,-1,-1,-1,-1,-1,-1,-1],"split_conditions":[-4.737396E-2,1.6120223E0,3.1983636E-2,6.4177626E-1,-1.563571E0,-3.3267373E-1,4.5522416E-1,-6.457591E-4,-7.384997E-3,-7.85238E-3,-2.0042086E-2,2.952123E-2,1.8363119E-3,-5.1204124E-3,1.9278193E-3],"split_indices":[9,10,9,6,0,8,9,0,0,0,0,0,0,0,0],"split_type":[0,0,0,0,0,0,0,0,0,0,0,0,0,0,0],"sum_hessian":[1.291E3,6.83E2,6.08E2,6.71E2,1.2E1,3E1,5.78E2,6.18E2,5.3E1,5E0,7E0,1.3E1,1.7E1,7.5E1,5.03E2],"tree_param":{"num_deleted":"0","num_feature":"12","num_nodes":"15","size_leaf_vector":"1"}},{"base_weights":[1.562953E-3,-1.0378198E-2,9.301991E-2,3.6919754E-2,-3.1406417E-2,2.7141321E-2,7.335893E-2,2.533366E-4,1.1526736E-2,-6.5822946E-3,-8.905478E-4,-2.8242124E-4,8.351958E-3],"categories":[],"categories_nodes":[],"categories_segments":[],"categories_sizes":[],"default_left":[0,0,0,0,0,0,0,0,0,0,0,0,0],"id":79,"left_children":[1,3,5,7,9,-1,11,-1,-1,-1,-1,-1,-1],"loss_changes":[1.3901181E0,1.1210698E0,1.2601933E0,2.138858E0,1.0606408E0,0E0,1.0519462E0,0E0,0E0,0E0,0E0,0E0,0E0],"parents":[2147483647,0,0,1,1,2,2,3,3,4,4,6,6],"right_children":[2,4,6,8,10,-1,12,-1,-1,-1,-1,-1,-1],"split_conditions":[1.203764E0,-7.06542E-1,6.368587E-1,-5.8676815E-1,-6.6553676E-1,2.7141321E-2,1.4396682E0,2.533366E-4,1.1526736E-2,-6.5822946E-3,-8.905478E-4,-2.8242124E-4,8.351958E-3],"split_indices":[1,2,2,7,1,0,7,0,0,0,0,0,0],"split_type":[0,0,0,0,0,0,0,0,0,0,0,0,0],"sum_hessian":[1.271E3,1.125E3,1.46E2,3.46E2,7.79E2,5E0,1.41E2,2.98E2,4.8E1,9.2E1,6.87E2,7.7E1,6.4E1],"tree_param":{"num_deleted":"0","num_feature":"12","num_nodes":"13","size_leaf_vector":"1"}},{"base_weights":[-2.481393E-3,-1.9041564E-2,5.735388E-2,-1.4726972E-2,-2.4693984E-1,3.6016834E-1,3.91294E-2,8.494611E-3,-9.509284E-4,2.1744636E-4,-2.1504534E-2,2.4065294E-3,3.7724197E-2,6.1937333E-3,-4.306459E-4],"categories":[],"categories_nodes":[],"categories_segments":[],"categories_sizes":[],"default_left":[0,0,0,0,0,0,0,0,0,0,0,0,0,0,0],"id":80,"left_children":[1,3,5,7,9,11,13,-1,-1,-1,-1,-1,-1,-1,-1],"loss_changes":[1.2981571E0,1.0052168E0,1.5531996E0,8.018807E-1,8.763217E-1,1.932348E0,1.0894237E0,0E0,0E0,0E0,0E0,0E0,0E0,0E0,0E0],"parents":[2147483647,0,0,1,1,2,2,3,3,4,4,5,5,6,6],"right_children":[2,4,6,8,10,12,14,-1,-1,-1,-1,-1,-1,-1,-1],"split_conditions":[1.2002234E0,1.8504483E0,1.2057302E0,-1.420097E0,-7.441981E-1,3.1700292E-1,5.3460547E-3,8.494611E-3,-9.509284E-4,2.1744636E-4,-2.1504534E-2,2.4065294E-3,3.7724197E-2,6.1937333E-3,-4.306459E-4],"split_indices":[4,10,4,4,0,1,0,0,0,0,0,0,0,0,0],"split_type":[0,0,0,0,0,0,0,0,0,0,0,0,0,0,0],"sum_hessian":[1.308E3,1.025E3,2.83E2,1.007E3,1.8E1,1.5E1,2.68E2,2.2E1,9.85E2,8E0,1E1,9E0,6E0,9.6E1,1.72E2],"tree_param":{"num_deleted":"0","num_feature":"12","num_nodes":"15","size_leaf_vector":"1"}},{"base_weights":[3.6413167E-3,6.28325E-4,3.5637814E-1,-7.4907276E-3,1.0634568E-1,2.5329946E-2,7.3380517E-3,-2.0819823E-3,5.60085E-4,1.2494919E-2,2.6151302E-4],"categories":[],"categories_nodes":[],"categories_segments":[],"categories_sizes":[],"default_left":[0,0,0,0,0,0,0,0,0,0,0],"id":81,"left_children":[1,3,5,7,9,-1,-1,-1,-1,-1,-1],"loss_changes":[1.3803443E0,1.1071771E0,2.720282E-1,7.651812E-1,1.3341091E0,0E0,0E0,0E0,0E0,0E0,0E0],"parents":[2147483647,0,0,1,1,2,2,3,3,4,4],"right_children":[2,4,6,8,10,-1,-1,-1,-1,-1,-1],"split_conditions":[2.0765803E0,1.5133255E0,1.3299869E0,-3.3717048E-1,1.7249457E0,2.5329946E-2,7.3380517E-3,-2.0819823E-3,5.60085E-4,1.2494919E-2,2.6151302E-4],"split_indices":[2,9,0,2,9,0,0,0,0,0,0],"split_type":[0,0,0,0,0,0,0,0,0,0,0],"sum_hessian":[1.298E3,1.288E3,1E1,1.197E3,9.1E1,5E0,5E0,4.23E2,7.74E2,3.7E1,5.4E1],"tree_param":{"num_deleted":"0","num_feature":"12","num_nodes":"11","size_leaf_vector":"1"}},{"base_weights":[-1.0525403E-3,-6.2106E-2,1.4721637E-2,1.1470343E-2,-6.980438E-2,9.473883E-2,1.3066044E-4,5.6245434E-4,-4.9806284E-3,1.0748504E-3,1.3030549E-2,-3.398686E-3,8.7889406E-4],"categories":[],"categories_nodes":[],"categories_segments":[],"categories_sizes":[],"default_left":[0,0,0,0,0,0,0,0,0,0,0,0,0],"id":82,"left_children":[1,3,5,-1,7,9,11,-1,-1,-1,-1,-1,-1],"loss_changes":[1.2336415E0,6.062323E-1,1.1885322E0,0E0,6.2204707E-1,1.9017559E0,1.0254511E0,0E0,0E0,0E0,0E0,0E0,0E0],"parents":[2147483647,0,0,1,1,2,2,4,4,5,5,6,6],"right_children":[2,4,6,-1,8,10,12,-1,-1,-1,-1,-1,-1],"split_conditions":[-8.41027E-1,-1.8962443E0,-7.1368474E-1,1.1470343E-2,-1.6490344E0,-5.8676815E-1,-1.37466E-1,5.6245434E-4,-4.9806284E-3,1.0748504E-3,1.3030549E-2,-3.398686E-3,8.7889406E-4],"split_indices":[0,10,2,0,0,7,7,0,0,0,0,0,0],"split_type":[0,0,0,0,0,0,0,0,0,0,0,0,0],"sum_hessian":[1.279E3,2.62E2,1.017E3,6E0,2.56E2,1.56E2,8.61E2,6.9E1,1.87E2,1.09E2,4.7E1,1.75E2,6.86E2],"tree_param":{"num_deleted":"0","num_feature":"12","num_nodes":"13","size_leaf_vector":"1"}},{"base_weights":[2.1986435E-3,-8.2635395E-3,6.789821E-2,4.911841E-3,-1.2548627E-1,1.11381255E-1,-7.120862E-2,-4.58143E-4,7.2420263E-3,-1.27976155E-2,-1.7692235E-3,-8.080422E-3,6.716486E-3,-6.809067E-3,1.1503485E-2],"categories":[],"categories_nodes":[],"categories_segments":[],"categories_sizes":[],"default_left":[0,0,0,0,0,0,0,0,0,0,0,0,0,0,0],"id":83,"left_children":[1,3,5,7,9,11,13,-1,-1,-1,-1,-1,-1,-1,-1],"loss_changes":[8.9069337E-1,1.727316E0,1.0846157E0,1.9825984E0,1.3192834E0,8.737068E-1,8.730507E-1,0E0,0E0,0E0,0E0,0E0,0E0,0E0,0E0],"parents":[2147483647,0,0,1,1,2,2,3,3,4,4,5,5,6,6],"right_children":[2,4,6,8,10,12,14,-1,-1,-1,-1,-1,-1,-1,-1],"split_conditions":[1.1617566E0,9.1394037E-1,1.2938383E0,1.2688346E0,1.0838103E0,-4.2555578E-2,1.5770081E0,-4.58143E-4,7.2420263E-3,-1.27976155E-2,-1.7692235E-3,-8.080422E-3,6.716486E-3,-6.809067E-3,1.1503485E-2],"split_indices":[1,2,4,4,2,0,7,0,0,0,0,0,0,0,0],"split_type":[0,0,0,0,0,0,0,0,0,0,0,0,0,0,0],"sum_hessian":[1.294E3,1.117E3,1.77E2,1.005E3,1.12E2,1.35E2,4.2E1,9.14E2,9.1E1,4.5E1,6.7E1,1E1,1.25E2,3.5E1,7E0],"tree_param":{"num_deleted":"0","num_feature":"12","num_nodes":"15","size_leaf_vector":"1"}},{"base_weights":[2.1782038E-3,-2.445661E-2,3.0027894E-2,-2.786953E-2,1.00596985E-2,1.4608751E-1,1.6513022E-2,-9.965218E-4,-8.385431E-3,-8.397513E-3,1.1314225E-2,-7.0303576E-3,1.5794488E-3],"categories":[],"categories_nodes":[],"categories_segments":[],"categories_sizes":[],"default_left":[0,0,0,0,0,0,0,0,0,0,0,0,0],"id":84,"left_children":[1,3,5,7,-1,9,11,-1,-1,-1,-1,-1,-1],"loss_changes":[9.6207E-1,5.162015E-1,9.920361E-1,7.227255E-1,0E0,1.700207E0,1.3522526E0,0E0,0E0,0E0,0E0,0E0,0E0],"parents":[2147483647,0,0,1,1,2,2,3,3,5,5,6,6],"right_children":[2,4,6,8,-1,10,12,-1,-1,-1,-1,-1,-1],"split_conditions":[-1.5318409E-1,7.775533E-1,3.1983636E-2,6.4177626E-1,1.00596985E-2,-9.057523E-1,2.9650894E-1,-9.965218E-4,-8.385431E-3,-8.397513E-3,1.1314225E-2,-7.0303576E-3,1.5794488E-3],"split_indices":[9,6,9,6,0,8,9,0,0,0,0,0,0],"split_type":[0,0,0,0,0,0,0,0,0,0,0,0,0],"sum_hessian":[1.295E3,6.62E2,6.33E2,6.53E2,9E0,6.5E1,5.68E2,6.19E2,3.4E1,1.3E1,5.2E1,4.9E1,5.19E2],"tree_param":{"num_deleted":"0","num_feature":"12","num_nodes":"13","size_leaf_vector":"1"}},{"base_weights":[5.216771E-3,-1.6691083E-2,3.7590586E-2,1.934745E-2,-1.979851E-2,8.4254265E-2,-1.3666424E-2,2.1803165E-4,-3.7278624E-3,-8.478671E-3,5.237348E-3,-1.1476918E-2,8.269708E-4],"categories":[],"categories_nodes":[],"categories_segments":[],"categories_sizes":[],"default_left":[0,0,0,0,0,0,0,0,0,0,0,0,0],"id":85,"left_children":[1,3,5,-1,7,9,11,-1,-1,-1,-1,-1,-1],"loss_changes":[9.261867E-1,9.8474705E-1,1.2616515E0,0E0,1.0242684E0,1.4534069E0,1.6469857E0,0E0,0E0,0E0,0E0,0E0,0E0],"parents":[2147483647,0,0,1,1,2,2,4,4,5,5,6,6],"right_children":[2,4,6,-1,8,10,12,-1,-1,-1,-1,-1,-1],"split_conditions":[2.908248E-1,-1.5022632E0,9.1394037E-1,1.934745E-2,-2.7142784E-2,-4.8639414E-1,1.0191721E0,2.1803165E-4,-3.7278624E-3,-8.478671E-3,5.237348E-3,-1.1476918E-2,8.269708E-4],"split_indices":[2,9,2,0,0,0,2,0,0,0,0,0,0],"split_type":[0,0,0,0,0,0,0,0,0,0,0,0,0],"sum_hessian":[1.304E3,7.78E2,5.26E2,5E0,7.73E2,2.75E2,2.51E2,5.37E2,2.36E2,2E1,2.55E2,3E1,2.21E2],"tree_param":{"num_deleted":"0","num_feature":"12","num_nodes":"13","size_leaf_vector":"1"}},{"base_weights":[-1.1145957E-2,7.7595063E-3,-4.677006E-2,-5.7208276E-4,2.589627E-1,-1.4904179E-1,-3.3021898E-3,-2.0543041E-3,2.184157E-3,3.5435222E-2,1.6148754E-3,-8.880162E-3,5.3208214E-3,2.2509139E-2,-6.7989726E-4],"categories":[],"categories_nodes":[],"categories_segments":[],"categories_sizes":[],"default_left":[0,0,0,0,0,0,0,0,0,0,0,0,0,0,0],"id":86,"left_children":[1,3,5,7,9,11,13,-1,-1,-1,-1,-1,-1,-1,-1],"loss_changes":[8.6647123E-1,1.7602954E0,1.9822162E0,1.4630537E0,2.7295117E0,9.893017E-1,1.4721781E0,0E0,0E0,0E0,0E0,0E0,0E0,0E0,0E0],"parents":[2147483647,0,0,1,1,2,2,3,3,4,4,5,5,6,6],"right_children":[2,4,6,8,10,12,14,-1,-1,-1,-1,-1,-1,-1,-1],"split_conditions":[4.235151E-1,3.769718E-1,7.721326E-1,-3.8750675E-1,-4.6134423E-2,1.2535577E0,9.881814E-2,-2.0543041E-3,2.184157E-3,3.5435222E-2,1.6148754E-3,-8.880162E-3,5.3208214E-3,2.2509139E-2,-6.7989726E-4],"split_indices":[0,0,0,4,8,3,7,0,0,0,0,0,0,0,0],"split_type":[0,0,0,0,0,0,0,0,0,0,0,0,0,0,0],"sum_hessian":[1.285E3,8.4E2,4.45E2,8.14E2,2.6E1,1.32E2,3.13E2,4.25E2,3.89E2,8E0,1.8E1,1.19E2,1.3E1,6E0,3.07E2],"tree_param":{"num_deleted":"0","num_feature":"12","num_nodes":"15","size_leaf_vector":"1"}},{"base_weights":[8.2513463E-4,-9.131091E-3,5.6262463E-2,5.1131118E-2,-2.0083925E-2,-9.651613E-3,1.7083068E-1,1.3729292E-3,1.6654467E-2,-4.94704E-3,-2.4466956E-4,6.7051E-3,-4.156244E-3,4.3348325E-3,1.5817435E-2],"categories":[],"categories_nodes":[],"categories_segments":[],"categories_sizes":[],"default_left":[0,0,0,0,0,0,0,0,0,0,0,0,0,0,0],"id":87,"left_children":[1,3,5,7,9,11,13,-1,-1,-1,-1,-1,-1,-1,-1],"loss_changes":[7.141806E-1,7.250929E-1,1.4893254E0,1.1188724E0,1.1123447E0,1.341965E0,8.5407114E-1,0E0,0E0,0E0,0E0,0E0,0E0,0E0,0E0],"parents":[2147483647,0,0,1,1,2,2,3,3,4,4,5,5,6,6],"right_children":[2,4,6,8,10,12,14,-1,-1,-1,-1,-1,-1,-1,-1],"split_conditions":[1.1694425E0,-1.2115269E0,1.2642208E0,-1.0285548E0,-8.583753E-1,5.6787837E-1,2.9671E-1,1.3729292E-3,1.6654467E-2,-4.94704E-3,-2.4466956E-4,6.7051E-3,-4.156244E-3,4.3348325E-3,1.5817435E-2],