{"learner":{"attributes":{},"feature_names":[],"feature_types":[],"gradient_booster":{"model":{"gbtree_model_param":{"num_parallel_tree":"1","num_trees":"100"},"iteration_indptr":[0,1,2,3,4,5,6,7,8,9,10,11,12,13,14,15,16,17,18,19,20,21,22,23,24,25,26,27,28,29,30,31,32,33,34,35,36,37,38,39,40,41,42,43,44,45,46,47,48,49,50,51,52,53,54,55,56,57,58,59,60,61,62,63,64,65,66,67,68,69,70,71,72,73,74,75,76,77,78,79,80,81,82,83,84,85,86,87,88,89,90,91,92,93,94,95,96,97,98,99,100],"tree_info":[0,0,0,0,0,0,0,0,0,0,0,0,0,0,0,0,0,0,0,0,0,0,0,0,0,0,0,0,0,0,0,0,0,0,0,0,0,0,0,0,0,0,0,0,0,0,0,0,0,0,0,0,0,0,0,0,0,0,0,0,0,0,0,0,0,0,0,0,0,0,0,0,0,0,0,0,0,0,0,0,0,0,0,0,0,0,0,0,0,0,0,0,0,0,0,0,0,0,0,0],"trees":[{"base_weights":[1.0466672E-3,-3.1244052E-3,2.0056477E-2,-3.7132418E-3,1.316203E-1,7.243933E-2,1.3680341E-2,-2.7616757E-3,-9.65394E-2,2.3841362E-1,3.1530247E-3,6.594818E-2,3.036111E-3,1.0782194E-1,1.02158E-2,8.407919E-4,-3.4642813E-5,-1.5103841E-3,-2.3625884E-4,3.624962E-3,5.3915E-4,-1.6791655E-3,1.2489514E-3,6.132906E-4,3.0319293E-3,-6.0211436E-4,1.5983966E-3,-6.08452E-4,1.3878783E-4],"categories":[],"categories_nodes":[],"categories_segments":[],"categories_sizes":[],"default_left":[0,0,0,0,0,0,0,0,0,0,0,0,0,0,0,0,0,0,0,0,0,0,0,0,0,0,0,0,0],"id":0,"left_children":[1,3,5,7,9,11,13,15,17,19,21,23,-1,25,27,-1,-1,-1,-1,-1,-1,-1,-1,-1,-1,-1,-1,-1,-1],"loss_changes":[4.8825914E-1,4.0116894E-1,3.6908117E-1,4.439461E-1,3.0107608E-1,1.6004562E-1,3.2146817E-1,3.0408445E-1,1.9909108E-1,2.5517285E-1,2.5006208E-1,1.107173E-1,0E0,3.155492E-1,2.4942641E-1,0E0,0E0,0E0,0E0,0E0,0E0,0E0,0E0,0E0,0E0,0E0,0E0,0E0,0E0],"parents":[2147483647,0,0,1,1,2,2,3,3,4,4,5,5,6,6,7,7,8,8,9,9,10,10,11,11,13,13,14,14],"right_children":[2,4,6,8,10,12,14,16,18,20,22,24,-1,26,28,-1,-1,-1,-1,-1,-1,-1,-1,-1,-1,-1,-1,-1,-1],"split_conditions":[7.755102E-1,9.6666664E-1,6E-1,9.4736844E-1,6.931818E-1,9.6153843E-1,1.4285715E-1,1.0526316E-1,9E-1,1E0,9.2105263E-1,7.894737E-1,3.036111E-3,7.9591835E-1,2.857143E-1,8.407919E-4,-3.4642813E-5,-1.5103841E-3,-2.3625884E-4,3.624962E-3,5.3915E-4,-1.6791655E-3,1.2489514E-3,6.132906E-4,3.0319293E-3,-6.0211436E-4,1.5983966E-3,-6.08452E-4,1.3878783E-4],"split_indices":[3,2,2,1,0,6,4,1,2,2,1,1,0,3,4,0,0,0,0,0,0,0,0,0,0,0,0,0,0],"split_type":[0,0,0,0,0,0,0,0,0,0,0,0,0,0,0,0,0,0,0,0,0,0,0,0,0,0,0,0,0],"sum_hessian":[6.156E3,5.049E3,1.107E3,5.028E3,2.1E1,1.19E2,9.88E2,4.978E3,5E1,1.1E1,1E1,1.17E2,2E0,3.4E1,9.54E2,3.9E1,4.939E3,2.8E1,2.2E1,6E0,5E0,4E0,6E0,1.16E2,1E0,8E0,2.6E1,4.6E1,9.08E2],"tree_param":{"num_deleted":"0","num_feature":"7","num_nodes":"29","size_leaf_vector":"1"}},{"base_weights":[-3.3135938E-3,-6.9102813E-3,3.2659158E-2,-1.4797406E-2,2.7908084E-3,2.6137898E-2,1.5656118E-1,3.366837E-2,-1.8032247E-2,1.7662302E-2,-1.1271241E-2,2.2179153E-2,1.3904954E-1,-3.4283794E-2,2.644908E-1,1.0416423E-3,8.64108E-5,1.8462356E-3,-1.9213604E-4,5.7274394E-4,9.309645E-5,-1.1027163E-5,-3.3845654E-4,4.1563524E-4,4.2150496E-5,3.7593316E-4,2.6117065E-3,1.6425062E-3,-1.2926552E-3,3.1725853E-3,6.3843024E-4],"categories":[],"categories_nodes":[],"categories_segments":[],"categories_sizes":[],"default_left":[0,0,0,0,0,0,0,0,0,0,0,0,0,0,0,0,0,0,0,0,0,0,0,0,0,0,0,0,0,0,0],"id":1,"left_children":[1,3,5,7,9,11,13,15,17,19,21,23,25,27,29,-1,-1,-1,-1,-1,-1,-1,-1,-1,-1,-1,-1,-1,-1,-1,-1],"loss_changes":[8.027868E-1,4.3157864E-1,4.516182E-1,4.883467E-1,5.29282E-1,2.3694876E-1,5.858069E-1,3.4314233E-1,7.01903E-1,4.0643218E-1,2.9860532E-1,1.8090075E-1,2.1320078E-1,2.2866054E-1,1.7032444E-1,0E0,0E0,0E0,0E0,0E0,0E0,0E0,0E0,0E0,0E0,0E0,0E0,0E0,0E0,0E0,0E0],"parents":[2147483647,0,0,1,1,2,2,3,3,4,4,5,5,6,6,7,7,8,8,9,9,10,10,11,11,12,12,13,13,14,14],"right_children":[2,4,6,8,10,12,14,16,18,20,22,24,26,28,30,-1,-1,-1,-1,-1,-1,-1,-1,-1,-1,-1,-1,-1,-1,-1,-1],"split_conditions":[9.230769E-1,5.4545456E-1,9.591837E-1,2.3333333E-1,7E-1,9.6666664E-1,7.613636E-1,2.159091E-1,1.25E-1,5.681818E-1,7.307692E-1,7E-1,9.4736844E-1,7.894737E-1,8.9772725E-1,1.0416423E-3,8.64108E-5,1.8462356E-3,-1.9213604E-4,5.7274394E-4,9.309645E-5,-1.1027163E-5,-3.3845654E-4,4.1563524E-4,4.2150496E-5,3.7593316E-4,2.6117065E-3,1.6425062E-3,-1.2926552E-3,3.1725853E-3,6.3843024E-4],"split_indices":[6,0,3,2,2,2,0,0,0,0,6,2,1,1,0,0,0,0,0,0,0,0,0,0,0,0,0,0,0,0,0],"split_type":[0,0,0,0,0,0,0,0,0,0,0,0,0,0,0,0,0,0,0,0,0,0,0,0,0,0,0,0,0,0,0],"sum_hessian":[6.202E3,5.639E3,5.63E2,3.11E3,2.529E3,5.36E2,2.7E1,1.94E2,2.916E3,1.229E3,1.3E3,5.19E2,1.7E1,1E1,1.7E1,5E1,1.44E2,1.6E1,2.9E3,2.13E2,1.016E3,8.97E2,4.03E2,2.49E2,2.7E2,1E1,7E0,3E0,7E0,1.3E1,4E0],"tree_param":{"num_deleted":"0","num_feature":"7","num_nodes":"31","size_leaf_vector":"1"}},{"base_weights":[-1.0299801E-3,-1.1359412E-2,6.7319577E-3,-2.2337683E-2,2.9278377E-3,1.8328624E-2,-5.9721526E-3,-7.5724963E-3,-3.5817478E-2,1.7288405E-1,1.1471905E-3,1.574912E-2,7.530005E-2,1.2843181E-1,-7.5753247E-3,-5.862123E-4,8.51645E-6,-3.9681446E-4,6.3006027E-4,6.751829E-4,3.6673595E-3,6.603538E-5,-5.035132E-4,1.7095299E-4,-8.3122205E-4,1.6082985E-3,5.2028725E-5,2.0895568E-3,-9.4283186E-4,-1.6765292E-4,1.216625E-4],"categories":[],"categories_nodes":[],"categories_segments":[],"categories_sizes":[],"default_left":[0,0,0,0,0,0,0,0,0,0,0,0,0,0,0,0,0,0,0,0,0,0,0,0,0,0,0,0,0,0,0],"id":2,"left_children":[1,3,5,7,9,11,13,15,17,19,21,23,25,27,29,-1,-1,-1,-1,-1,-1,-1,-1,-1,-1,-1,-1,-1,-1,-1,-1],"loss_changes":[4.9765128E-1,4.1775513E-1,5.2223045E-1,2.9947042E-1,3.5024956E-1,2.7112746E-1,3.655527E-1,3.0967999E-1,3.030169E-1,2.203429E-1,3.2263237E-1,2.3753807E-1,4.7879505E-1,3.7837848E-1,3.03727E-1,0E0,0E0,0E0,0E0,0E0,0E0,0E0,0E0,0E0,0E0,0E0,0E0,0E0,0E0,0E0,0E0],"parents":[2147483647,0,0,1,1,2,2,3,3,4,4,5,5,6,6,7,7,8,8,9,9,10,10,11,11,12,12,13,13,14,14],"right_children":[2,4,6,8,10,12,14,16,18,20,22,24,26,28,30,-1,-1,-1,-1,-1,-1,-1,-1,-1,-1,-1,-1,-1,-1,-1,-1],"split_conditions":[5E-1,4.6153846E-1,7E-1,4.2105263E-1,1.25E-1,9.6153843E-1,3.877551E-1,1.2244898E-1,8.1578946E-1,3E-1,7E-1,7.8409094E-1,5.681818E-1,5.7954544E-1,8.367347E-1,-5.862123E-4,8.51645E-6,-3.9681446E-4,6.3006027E-4,6.751829E-4,3.6673595E-3,6.603538E-5,-5.035132E-4,1.7095299E-4,-8.3122205E-4,1.6082985E-3,5.2028725E-5,2.0895568E-3,-9.4283186E-4,-1.6765292E-4,1.216625E-4],"split_indices":[0,6,2,1,0,6,3,3,1,2,2,0,0,0,3,0,0,0,0,0,0,0,0,0,0,0,0,0,0,0,0],"split_type":[0,0,0,0,0,0,0,0,0,0,0,0,0,0,0,0,0,0,0,0,0,0,0,0,0,0,0,0,0,0,0],"sum_hessian":[6.205E3,2.662E3,3.543E3,1.505E3,1.157E3,1.852E3,1.691E3,7.19E2,7.86E2,1.1E1,1.146E3,1.773E3,7.9E1,1.9E1,1.672E3,1.01E2,6.18E2,7.57E2,2.9E1,8E0,3E0,1.037E3,1.09E2,1.75E3,2.3E1,3.5E1,4.4E1,1.4E1,5E0,1.141E3,5.31E2],"tree_param":{"num_deleted":"0","num_feature":"7","num_nodes":"31","size_leaf_vector":"1"}},{"base_weights":[-2.0688428E-3,-1.0598911E-2,5.1402394E-3,-3.1598363E-2,-1.0309048E-3,1.0676911E-3,3.2488678E-2,1.2789125E-2,-3.9537326E-2,1.7241888E-3,-6.297544E-2,1.01659605E-2,-1.7485274E-2,4.5334633E-2,-2.5005553E-2,-6.456481E-4,2.734945E-4,-9.2251075E-4,-3.1709526E-4,7.6763776E-5,-2.0242631E-4,-2.454363E-4,-1.6383616E-3,1.887892E-3,9.165443E-5,-8.422127E-4,-1.124894E-4,-7.118204E-4,5.4995687E-4,-3.417004E-4,3.5407667E-3],"categories":[],"categories_nodes":[],"categories_segments":[],"categories_sizes":[],"default_left":[0,0,0,0,0,0,0,0,0,0,0,0,0,0,0,0,0,0,0,0,0,0,0,0,0,0,0,0,0,0,0],"id":3,"left_children":[1,3,5,7,9,11,13,15,17,19,21,23,25,27,29,-1,-1,-1,-1,-1,-1,-1,-1,-1,-1,-1,-1,-1,-1,-1,-1],"loss_changes":[3.8519117E-1,5.7641524E-1,3.7809306E-1,3.1695235E-1,3.3665603E-1,4.9915016E-1,3.261037E-1,1.5606868E-1,3.115009E-1,2.4714337E-1,3.2158467E-1,3.5284162E-1,4.0400353E-1,4.0915745E-1,2.9350042E-1,0E0,0E0,0E0,0E0,0E0,0E0,0E0,0E0,0E0,0E0,0E0,0E0,0E0,0E0,0E0,0E0],"parents":[2147483647,0,0,1,1,2,2,3,3,4,4,5,5,6,6,7,7,8,8,9,9,10,10,11,11,12,12,13,13,14,14],"right_children":[2,4,6,8,10,12,14,16,18,20,22,24,26,28,30,-1,-1,-1,-1,-1,-1,-1,-1,-1,-1,-1,-1,-1,-1,-1,-1],"split_conditions":[4.6153846E-1,3.877551E-1,8.367347E-1,2.3333333E-1,7.8409094E-1,6.0227275E-1,8.2954544E-1,1.4285715E-1,2.631579E-1,7.631579E-1,9.591837E-1,1.25E-1,6.136364E-1,6.136364E-1,1E0,-6.456481E-4,2.734945E-4,-9.2251075E-4,-3.1709526E-4,7.6763776E-5,-2.0242631E-4,-2.454363E-4,-1.6383616E-3,1.887892E-3,9.165443E-5,-8.422127E-4,-1.124894E-4,-7.118204E-4,5.4995687E-4,-3.417004E-4,3.5407667E-3],"split_indices":[6,3,3,2,0,0,0,4,1,1,3,0,0,0,0,0,0,0,0,0,0,0,0,0,0,0,0,0,0,0,0],"split_type":[0,0,0,0,0,0,0,0,0,0,0,0,0,0,0,0,0,0,0,0,0,0,0,0,0,0,0,0,0,0,0],"sum_hessian":[6.262E3,2.868E3,3.394E3,8.97E2,1.971E3,2.955E3,4.39E2,1.36E2,7.61E2,1.888E3,8.3E1,1.983E3,9.72E2,3.59E2,8E1,2.1E1,1.15E2,9.7E1,6.64E2,1.486E3,4.02E2,6.1E1,2.2E1,1E1,1.973E3,8.2E1,8.9E2,2.7E1,3.32E2,7.9E1,1E0],"tree_param":{"num_deleted":"0","num_feature":"7","num_nodes":"31","size_leaf_vector":"1"}},{"base_weights":[1.4264988E-4,-3.2868538E-2,2.7720379E-3,9.787103E-3,-5.0727047E-2,-2.701084E-2,4.5263646E-3,-8.119511E-3,1.4459418E-1,-9.334213E-2,-2.6070213E-2,-8.313924E-2,-3.2975273E-3,9.679499E-2,3.9271563E-3,-1.3580435E-4,3.2359574E-3,1.9208781E-4,2.3998185E-3,-1.0076787E-3,9.4633026E-4,1.6400177E-4,-5.102521E-4,2.8276013E-3,-9.4048475E-4,3.3679724E-4,-3.187136E-4,6.0334347E-5,2.7025184E-3,-2.3888554E-4,5.8079007E-5],"categories":[],"categories_nodes":[],"categories_segments":[],"categories_sizes":[],"default_left":[0,0,0,0,0,0,0,0,0,0,0,0,0,0,0,0,0,0,0,0,0,0,0,0,0,0,0,0,0,0,0],"id":4,"left_children":[1,3,5,7,9,11,13,15,17,19,21,23,25,27,29,-1,-1,-1,-1,-1,-1,-1,-1,-1,-1,-1,-1,-1,-1,-1,-1],"loss_changes":[5.388539E-1,3.4938535E-1,3.0055347E-1,3.2946965E-1,3.3695984E-1,4.256427E-1,2.998898E-1,2.2358268E-1,1.8675375E-1,1.7424667E-1,2.1916562E-1,4.0580302E-1,2.3986089E-1,5.49382E-1,2.8247878E-1,0E0,0E0,0E0,0E0,0E0,0E0,0E0,0E0,0E0,0E0,0E0,0E0,0E0,0E0,0E0,0E0],"parents":[2147483647,0,0,1,1,2,2,3,3,4,4,5,5,6,6,7,7,8,8,9,9,10,10,11,11,12,12,13,13,14,14],"right_children":[2,4,6,8,10,12,14,16,18,20,22,24,26,28,30,-1,-1,-1,-1,-1,-1,-1,-1,-1,-1,-1,-1,-1,-1,-1,-1],"split_conditions":[2.840909E-1,2.6666668E-1,7.692308E-2,5.769231E-1,3.4210527E-1,4.2857143E-1,1.3157895E-1,3.9473686E-1,6.122449E-2,8.8461536E-1,2.2727273E-1,1.2244898E-1,3.846154E-2,2.857143E-1,3.1578946E-1,-1.3580435E-4,3.2359574E-3,1.9208781E-4,2.3998185E-3,-1.0076787E-3,9.4633026E-4,1.6400177E-4,-5.102521E-4,2.8276013E-3,-9.4048475E-4,3.3679724E-4,-3.187136E-4,6.0334347E-5,2.7025184E-3,-2.3888554E-4,5.8079007E-5],"split_indices":[0,2,6,6,1,3,1,1,3,6,0,3,6,3,1,0,0,0,0,0,0,0,0,0,0,0,0,0,0,0,0],"split_type":[0,0,0,0,0,0,0,0,0,0,0,0,0,0,0,0,0,0,0,0,0,0,0,0,0,0,0,0,0,0,0],"sum_hessian":[6.206E3,4.57E2,5.749E3,1.35E2,3.22E2,3.19E2,5.43E3,1.2E2,1.5E1,1.17E2,2.05E2,9.4E1,2.25E2,3.4E1,5.396E3,1.19E2,1E0,7E0,8E0,1.13E2,4E0,7.6E1,1.29E2,2E0,9.2E1,9.8E1,1.27E2,2.3E1,1.1E1,3.41E2,5.055E3],"tree_param":{"num_deleted":"0","num_feature":"7","num_nodes":"31","size_leaf_vector":"1"}},{"base_weights":[1.384601E-3,5.9440043E-3,-1.4200545E-2,-1.4005155E-2,1.30013535E-2,-2.1522561E-2,2.546945E-2,-2.6826027E-3,-5.9016246E-2,-3.845305E-3,1.766322E-2,-1.7983686E-2,-7.4649595E-2,1.6691815E-2,2.5599033E-1,3.895841E-4,-1.1854494E-4,-3.4908616E-4,-8.674043E-4,4.6452662E-4,-1.5060761E-4,5.346535E-4,1.3832955E-4,-3.9137347E-4,-5.613583E-5,-9.69604E-4,4.8702944E-4,2.5399537E-5,1.4595932E-3,2.7855518E-3,4.9018086E-4],"categories":[],"categories_nodes":[],"categories_segments":[],"categories_sizes":[],"default_left":[0,0,0,0,0,0,0,0,0,0,0,0,0,0,0,0,0,0,0,0,0,0,0,0,0,0,0,0,0,0,0],"id":5,"left_children":[1,3,5,7,9,11,13,15,17,19,21,23,25,27,29,-1,-1,-1,-1,-1,-1,-1,-1,-1,-1,-1,-1,-1,-1,-1,-1],"loss_changes":[4.4235542E-1,6.7821807E-1,4.0981248E-1,6.41479E-1,2.7950203E-1,2.2238928E-1,4.4088122E-1,3.850622E-1,1.6606814E-1,4.3619612E-1,3.8144612E-1,2.92069E-1,2.0837721E-1,3.892863E-1,2.3708224E-2,0E0,0E0,0E0,0E0,0E0,0E0,0E0,0E0,0E0,0E0,0E0,0E0,0E0,0E0,0E0,0E0],"parents":[2147483647,0,0,1,1,2,2,3,3,4,4,5,5,6,6,7,7,8,8,9,9,10,10,11,11,12,12,13,13,14,14],"right_children":[2,4,6,8,10,12,14,16,18,20,22,24,26,28,30,-1,-1,-1,-1,-1,-1,-1,-1,-1,-1,-1,-1,-1,-1,-1,-1],"split_conditions":[7.631579E-1,3.8636363E-1,9.230769E-1,5.263158E-1,4.0816328E-1,8.5227275E-1,1E0,2.1052632E-1,3.469388E-1,4.090909E-1,4.489796E-1,6.136364E-1,8.5714287E-1,9.6666664E-1,8.9772725E-1,3.895841E-4,-1.1854494E-4,-3.4908616E-4,-8.674043E-4,4.6452662E-4,-1.5060761E-4,5.346535E-4,1.3832955E-4,-3.9137347E-4,-5.613583E-5,-9.69604E-4,4.8702944E-4,2.5399537E-5,1.4595932E-3,2.7855518E-3,4.9018086E-4],"split_indices":[1,0,6,1,3,0,3,1,3,0,3,0,4,2,0,0,0,0,0,0,0,0,0,0,0,0,0,0,0,0,0],"split_type":[0,0,0,0,0,0,0,0,0,0,0,0,0,0,0,0,0,0,0,0,0,0,0,0,0,0,0,0,0,0,0],"sum_hessian":[6.223E3,4.815E3,1.408E3,1.258E3,3.557E3,1.189E3,2.19E2,1.006E3,2.52E2,7.71E2,2.786E3,1.116E3,7.3E1,2.12E2,7E0,1.81E2,8.25E2,1.36E2,1.16E2,1.4E2,6.31E2,2.68E2,2.518E3,4.11E2,7.05E2,6.2E1,1.1E1,1.92E2,2E1,6E0,1E0],"tree_param":{"num_deleted":"0","num_feature":"7","num_nodes":"31","size_leaf_vector":"1"}},{"base_weights":[-8.362201E-4,-1.0867481E-2,6.6193766E-3,-2.1375867E-2,3.3003958E-3,3.1015472E-2,-2.6411621E-3,7.7907026E-2,-2.3442395E-2,6.0666166E-2,-3.0074269E-3,2.8035788E-2,2.0748566E-1,-8.701274E-3,3.4009792E-2,-5.048911E-5,2.0967466E-3,-4.7016502E-4,-1.6310149E-4,2.317529E-3,3.3584028E-4,-5.6754047E-4,7.478625E-5,3.679921E-4,-3.6523893E-4,2.7080104E-3,1.4031601E-4,-9.025922E-5,3.5276203E-3,4.7641862E-4,-5.255243E-4],"categories":[],"categories_nodes":[],"categories_segments":[],"categories_sizes":[],"default_left":[0,0,0,0,0,0,0,0,0,0,0,0,0,0,0,0,0,0,0,0,0,0,0,0,0,0,0,0,0,0,0],"id":6,"left_children":[1,3,5,7,9,11,13,15,17,19,21,23,25,27,29,-1,-1,-1,-1,-1,-1,-1,-1,-1,-1,-1,-1,-1,-1,-1,-1],"loss_changes":[4.6099678E-1,3.9133117E-1,7.989385E-1,3.1142902E-1,4.0545794E-1,5.0581133E-1,5.697831E-1,3.3991683E-1,2.4790674E-1,5.065236E-1,5.6965023E-1,5.433456E-1,1.9217813E-1,2.6146764E-1,4.320318E-1,0E0,0E0,0E0,0E0,0E0,0E0,0E0,0E0,0E0,0E0,0E0,0E0,0E0,0E0,0E0,0E0],"parents":[2147483647,0,0,1,1,2,2,3,3,4,4,5,5,6,6,7,7,8,8,9,9,10,10,11,11,12,12,13,13,14,14],"right_children":[2,4,6,8,10,12,14,16,18,20,22,24,26,28,30,-1,-1,-1,-1,-1,-1,-1,-1,-1,-1,-1,-1,-1,-1,-1,-1],"split_conditions":[5E-1,4.6153846E-1,5.7894737E-1,1.0526316E-1,2.6136363E-1,9.183673E-1,1E0,7.8947365E-2,2.9545453E-1,5E-1,2.0408164E-1,6.7045456E-1,9.7959185E-1,1E0,9.3877554E-1,-5.048911E-5,2.0967466E-3,-4.7016502E-4,-1.6310149E-4,2.317529E-3,3.3584028E-4,-5.6754047E-4,7.478625E-5,3.679921E-4,-3.6523893E-4,2.7080104E-3,1.4031601E-4,-9.025922E-5,3.5276203E-3,4.7641862E-4,-5.255243E-4],"split_indices":[0,6,1,1,0,3,4,1,0,6,3,0,3,0,3,0,0,0,0,0,0,0,0,0,0,0,0,0,0,0,0],"split_type":[0,0,0,0,0,0,0,0,0,0,0,0,0,0,0,0,0,0,0,0,0,0,0,0,0,0,0,0,0,0,0],"sum_hessian":[6.162E3,2.627E3,3.535E3,1.508E3,1.119E3,9.72E2,2.563E3,3E1,1.478E3,1.1E2,1.009E3,9.57E2,1.5E1,2.2E3,3.63E2,1.9E1,1.1E1,3.42E2,1.136E3,1.4E1,9.6E1,1.64E2,8.45E2,8.43E2,1.14E2,1.1E1,4E0,2.199E3,1E0,3.14E2,4.9E1],"tree_param":{"num_deleted":"0","num_feature":"7","num_nodes":"31","size_leaf_vector":"1"}},{"base_weights":[4.0273224E-3,-9.942068E-3,1.4305632E-2,4.3345932E-2,-1.44226E-2,2.740881E-2,6.6799535E-3,-2.065797E-2,8.480537E-2,-3.384236E-2,-6.7847264E-3,2.5645865E-2,1.6029897E-1,-2.1830201E-2,1.3553183E-2,4.6563582E-4,-1.2504609E-3,9.337322E-4,-7.173924E-4,-6.618151E-4,-1.2331606E-4,4.6768127E-4,-9.7323486E-5,-2.788116E-4,2.8768455E-4,-5.332971E-4,1.923381E-3,-1.5242047E-4,-1.1444747E-3,-4.0951406E-4,1.7083273E-4],"categories":[],"categories_nodes":[],"categories_segments":[],"categories_sizes":[],"default_left":[0,0,0,0,0,0,0,0,0,0,0,0,0,0,0,0,0,0,0,0,0,0,0,0,0,0,0,0,0,0,0],"id":7,"left_children":[1,3,5,7,9,11,13,15,17,19,21,23,25,27,29,-1,-1,-1,-1,-1,-1,-1,-1,-1,-1,-1,-1,-1,-1,-1,-1],"loss_changes":[8.8977444E-1,6.2784404E-1,3.565336E-1,5.430793E-1,3.5931176E-1,3.0349618E-1,4.4276643E-1,5.742103E-1,1.7301375E-1,4.7500128E-1,2.7527833E-1,2.1758682E-1,1.2661344E-1,2.6612318E-1,3.508789E-1,0E0,0E0,0E0,0E0,0E0,0E0,0E0,0E0,0E0,0E0,0E0,0E0,0E0,0E0,0E0,0E0],"parents":[2147483647,0,0,1,1,2,2,3,3,4,4,5,5,6,6,7,7,8,8,9,9,10,10,11,11,12,12,13,13,14,14],"right_children":[2,4,6,8,10,12,14,16,18,20,22,24,26,28,30,-1,-1,-1,-1,-1,-1,-1,-1,-1,-1,-1,-1,-1,-1,-1,-1],"split_conditions":[5E-1,2.3333333E-1,6.315789E-1,1.6666667E-1,2.3076923E-1,7.6666665E-1,5.9183675E-1,3.068182E-1,3.1578946E-1,3.5227272E-1,2.2727273E-1,3.1578946E-1,4.6153846E-1,9.2105263E-1,1.15384616E-1,4.6563582E-4,-1.2504609E-3,9.337322E-4,-7.173924E-4,-6.618151E-4,-1.2331606E-4,4.6768127E-4,-9.7323486E-5,-2.788116E-4,2.8768455E-4,-5.332971E-4,1.923381E-3,-1.5242047E-4,-1.1444747E-3,-4.0951406E-4,1.7083273E-4],"split_indices":[0,2,1,2,6,2,3,0,1,0,0,1,6,1,6,0,0,0,0,0,0,0,0,0,0,0,0,0,0,0,0],"split_type":[0,0,0,0,0,0,0,0,0,0,0,0,0,0,0,0,0,0,0,0,0,0,0,0,0,0,0,0,0,0,0],"sum_hessian":[6.195E3,2.626E3,3.569E3,2.03E2,2.423E3,1.312E3,2.257E3,8E1,1.23E2,6.83E2,1.74E3,1.296E3,1.6E1,4.38E2,1.819E3,4.9E1,3.1E1,1.17E2,6E0,2.72E2,4.11E2,9E1,1.65E3,7.1E1,1.225E3,2E0,1.4E1,4.1E2,2.8E1,1.1E2,1.709E3],"tree_param":{"num_deleted":"0","num_feature":"7","num_nodes":"31","size_leaf_vector":"1"}},{"base_weights":[-1.2587466E-3,3.0253414E-4,-6.0982093E-2,-9.231389E-3,9.975262E-3,-7.143927E-2,1.4532715E-1,3.7955377E-2,-1.1947385E-2,2.6843596E-2,2.959241E-3,-8.372903E-2,2.4702718E-2,-3.3349224E-4,1.7561653E-1,2.268033E-4,1.7140105E-3,-2.550932E-4,-5.5964098E-5,1.8363562E-4,9.992253E-4,-7.302971E-5,2.1521849E-4,2.164232E-4,-9.7080803E-4,-1.6821885E-3,7.4501627E-4,7.876306E-5,2.0226052E-3],"categories":[],"categories_nodes":[],"categories_segments":[],"categories_sizes":[],"default_left":[0,0,0,0,0,0,0,0,0,0,0,0,0,0,0,0,0,0,0,0,0,0,0,0,0,0,0,0,0],"id":8,"left_children":[1,3,5,7,9,11,13,15,17,19,21,23,25,-1,27,-1,-1,-1,-1,-1,-1,-1,-1,-1,-1,-1,-1,-1,-1],"loss_changes":[5.8195996E-1,5.610605E-1,3.5341084E-1,3.9313293E-1,3.5733333E-1,1.8166566E-1,4.9152642E-2,3.3652347E-1,2.4946639E-1,5.478495E-1,4.0667015E-1,1.920318E-1,1.8546368E-1,0E0,2.9691815E-2,0E0,0E0,0E0,0E0,0E0,0E0,0E0,0E0,0E0,0E0,0E0,0E0,0E0,0E0],"parents":[2147483647,0,0,1,1,2,2,3,3,4,4,5,5,6,6,7,7,8,8,9,9,10,10,11,11,12,12,14,14],"right_children":[2,4,6,8,10,12,14,16,18,20,22,24,26,-1,28,-1,-1,-1,-1,-1,-1,-1,-1,-1,-1,-1,-1,-1,-1],"split_conditions":[8.2954544E-1,5E-1,1E0,2.3333333E-1,6.5384614E-1,8.5714287E-1,8.4090906E-1,4.090909E-1,4.0816328E-1,8.367347E-1,8.8461536E-1,1.4285715E-1,7.105263E-1,-3.3349224E-4,1.15384616E-1,2.268033E-4,1.7140105E-3,-2.550932E-4,-5.5964098E-5,1.8363562E-4,9.992253E-4,-7.302971E-5,2.1521849E-4,2.164232E-4,-9.7080803E-4,-1.6821885E-3,7.4501627E-4,7.876306E-5,2.0226052E-3],"split_indices":[0,6,1,2,6,4,0,0,3,3,6,4,1,0,6,0,0,0,0,0,0,0,0,0,0,0,0,0,0],"split_type":[0,0,0,0,0,0,0,0,0,0,0,0,0,0,0,0,0,0,0,0,0,0,0,0,0,0,0,0,0],"sum_hessian":[6.24E3,6.082E3,1.58E2,3.063E3,3.019E3,1.51E2,7E0,1.66E2,2.897E3,8.86E2,2.133E3,1.34E2,1.7E1,1E0,6E0,1.5E2,1.6E1,9.23E2,1.974E3,7.95E2,9.1E1,1.374E3,7.59E2,1.5E1,1.19E2,3E0,1.4E1,1E0,5E0],"tree_param":{"num_deleted":"0","num_feature":"7","num_nodes":"29","size_leaf_vector":"1"}},{"base_weights":[1.2529874E-3,5.128797E-2,8.164182E-5,6.85334E-2,-5.6473557E-2,-8.707413E-3,7.4617392E-3,8.441104E-2,-5.9980605E-2,-1.0581492E-3,-2.2250814E-3,-6.576557E-3,-4.315954E-2,2.186996E-2,9.468761E-5,5.533096E-4,1.5265587E-3,8.633562E-4,-1.5086023E-3,-8.12569E-4,1.4614925E-3,-2.1868962E-4,-6.460012E-6,8.7932136E-4,-5.633225E-4,1.2655098E-4,5.4107985E-4,-1.15426876E-4,1.2113707E-4],"categories":[],"categories_nodes":[],"categories_segments":[],"categories_sizes":[],"default_left":[0,0,0,0,0,0,0,0,0,0,0,0,0,0,0,0,0,0,0,0,0,0,0,0,0,0,0,0,0],"id":9,"left_children":[1,3,5,7,9,11,13,15,17,19,-1,21,23,25,27,-1,-1,-1,-1,-1,-1,-1,-1,-1,-1,-1,-1,-1,-1],"loss_changes":[3.6125708E-1,2.6590392E-1,3.9080623E-1,2.5400388E-1,1.8378204E-1,2.0160061E-1,3.4762642E-1,2.0787096E-1,1.9918492E-1,2.0076925E-1,0E0,2.3497006E-1,2.8124666E-1,3.284676E-1,3.0337766E-1,0E0,0E0,0E0,0E0,0E0,0E0,0E0,0E0,0E0,0E0,0E0,0E0,0E0,0E0],"parents":[2147483647,0,0,1,1,2,2,3,3,4,4,5,5,6,6,7,7,8,8,9,9,11,11,12,12,13,13,14,14],"right_children":[2,4,6,8,10,12,14,16,18,20,-1,22,24,26,28,-1,-1,-1,-1,-1,-1,-1,-1,-1,-1,-1,-1,-1,-1],"split_conditions":[1.8421052E-1,5.714286E-1,5.2272725E-1,2.6666668E-1,2.9545453E-1,6.530612E-1,6.315789E-1,2.6530612E-1,2.0408164E-1,1.3333334E-1,-2.2250814E-3,2.3076923E-1,7.692308E-2,6.333333E-1,7.5510204E-1,5.533096E-4,1.5265587E-3,8.633562E-4,-1.5086023E-3,-8.12569E-4,1.4614925E-3,-2.1868962E-4,-6.460012E-6,8.7932136E-4,-5.633225E-4,1.2655098E-4,5.4107985E-4,-1.15426876E-4,1.2113707E-4],"split_indices":[1,4,0,2,0,3,1,3,3,2,0,6,6,2,3,0,0,0,0,0,0,0,0,0,0,0,0,0,0],"split_type":[0,0,0,0,0,0,0,0,0,0,0,0,0,0,0,0,0,0,0,0,0,0,0,0,0,0,0,0,0],"sum_hessian":[6.163E3,1.4E2,6.023E3,1.21E2,1.9E1,2.749E3,3.274E3,1.08E2,1.3E1,1.5E1,4E0,2.59E3,1.59E2,1.107E3,2.167E3,7.7E1,3.1E1,5E0,8E0,1E1,5E0,7.23E2,1.867E3,1.4E1,1.45E2,8.62E2,2.45E2,1.101E3,1.066E3],"tree_param":{"num_deleted":"0","num_feature":"7","num_nodes":"29","size_leaf_vector":"1"}},{"base_weights":[1.5627873E-3,-1.7268479E-2,4.824011E-3,-3.46941E-2,1.4472481E-2,2.6960067E-2,-1.5626695E-3,-1.734738E-2,-6.429493E-2,1.1651295E-1,2.1498387E-3,1.5537955E-2,5.4659173E-2,-2.117935E-2,1.8645176E-3,-8.321304E-4,-2.4386303E-5,1.9866675E-3,-7.0138444E-4,1.7398372E-3,-4.4562377E-4,1.6709148E-3,-4.314602E-5,1.8222224E-4,-1.7097141E-3,1.3922518E-3,4.4662284E-4,-6.507008E-4,-1.9208659E-5,3.955095E-5,-4.975264E-4],"categories":[],"categories_nodes":[],"categories_segments":[],"categories_sizes":[],"default_left":[0,0,0,0,0,0,0,0,0,0,0,0,0,0,0,0,0,0,0,0,0,0,0,0,0,0,0,0,0,0,0],"id":10,"left_children":[1,3,5,7,9,11,13,15,17,19,21,23,25,27,29,-1,-1,-1,-1,-1,-1,-1,-1,-1,-1,-1,-1,-1,-1,-1,-1],"loss_changes":[3.8065952E-1,5.065942E-1,7.469311E-1,3.023497E-1,4.0840715E-1,3.7343103E-1,2.7574986E-1,3.6705562E-1,3.4891784E-1,3.3175245E-1,3.1100127E-1,4.2315343E-1,2.8544378E-1,5.154891E-1,3.770173E-1,0E0,0E0,0E0,0E0,0E0,0E0,0E0,0E0,0E0,0E0,0E0,0E0,0E0,0E0,0E0,0E0],"parents":[2147483647,0,0,1,1,2,2,3,3,4,4,5,5,6,6,7,7,8,8,9,9,10,10,11,11,12,12,13,13,14,14],"right_children":[2,4,6,8,10,12,14,16,18,20,22,24,26,28,30,-1,-1,-1,-1,-1,-1,-1,-1,-1,-1,-1,-1,-1,-1,-1,-1],"split_conditions":[3.5227272E-1,4.6153846E-1,5E-1,2.857143E-1,2.1052632E-1,5.3061223E-1,2.3076923E-1,8.163265E-2,1.3157895E-1,7.692308E-1,2.0408163E-2,1E0,2.857143E-1,5.2272725E-1,8.2954544E-1,-8.321304E-4,-2.4386303E-5,1.9866675E-3,-7.0138444E-4,1.7398372E-3,-4.4562377E-4,1.6709148E-3,-4.314602E-5,1.8222224E-4,-1.7097141E-3,1.3922518E-3,4.4662284E-4,-6.507008E-4,-1.9208659E-5,3.955095E-5,-4.975264E-4],"split_indices":[0,6,2,3,1,3,6,3,1,6,3,6,4,0,0,0,0,0,0,0,0,0,0,0,0,0,0,0,0,0,0],"split_type":[0,0,0,0,0,0,0,0,0,0,0,0,0,0,0,0,0,0,0,0,0,0,0,0,0,0,0,0,0,0,0],"sum_hessian":[6.196E3,9.14E2,5.282E3,5.9E2,3.24E2,1.182E3,4.1E3,3.73E2,2.17E2,3.4E1,2.9E2,8.38E2,3.44E2,6.09E2,3.491E3,6.8E1,3.05E2,4E0,2.13E2,2.5E1,9E0,1E1,2.8E2,8.27E2,1.1E1,3.5E1,3.09E2,1.85E2,4.24E2,3.356E3,1.35E2],"tree_param":{"num_deleted":"0","num_feature":"7","num_nodes":"31","size_leaf_vector":"1"}},{"base_weights":[-1.6377798E-3,-1.648154E-2,5.610742E-3,2.3221908E-2,-2.0331379E-2,2.2841392E-2,7.86548E-4,3.6262188E-2,-9.124485E-2,-4.92784E-2,-1.302822E-2,1.7627014E-2,1.17745206E-1,-1.21071E-2,8.18115E-3,-3.781123E-4,4.975967E-4,-1.668471E-3,1.12962276E-4,-2.0101154E-4,-8.659558E-4,-5.0573674E-4,-6.285122E-5,2.6578296E-4,-1.9004385E-4,7.146339E-4,2.6692376E-3,-1.453216E-4,5.709538E-4,9.5865515E-4,6.38944E-5],"categories":[],"categories_nodes":[],"categories_segments":[],"categories_sizes":[],"default_left":[0,0,0,0,0,0,0,0,0,0,0,0,0,0,0,0,0,0,0,0,0,0,0,0,0,0,0,0,0,0,0],"id":11,"left_children":[1,3,5,7,9,11,13,15,17,19,21,23,25,27,29,-1,-1,-1,-1,-1,-1,-1,-1,-1,-1,-1,-1,-1,-1,-1,-1],"loss_changes":[6.771897E-1,3.161114E-1,3.5151345E-1,2.7646893E-1,3.9743292E-1,4.5567417E-1,3.1520897E-1,1.668492E-1,1.4917913E-1,4.1091937E-1,3.8070706E-1,2.8839955E-1,3.1232888E-1,2.0305304E-1,3.2946518E-1,0E0,0E0,0E0,0E0,0E0,0E0,0E0,0E0,0E0,0E0,0E0,0E0,0E0,0E0,0E0,0E0],"parents":[2147483647,0,0,1,1,2,2,3,3,4,4,5,5,6,6,7,7,8,8,9,9,10,10,11,11,12,12,13,13,14,14],"right_children":[2,4,6,8,10,12,14,16,18,20,22,24,26,28,30,-1,-1,-1,-1,-1,-1,-1,-1,-1,-1,-1,-1,-1,-1,-1,-1],"split_conditions":[4.2857143E-1,2.3333333E-1,5.263158E-1,8.5714287E-1,3.1578946E-1,6.818182E-1,6.3265306E-1,1.4285715E-1,2E-1,3.2954547E-1,1.5384616E-1,6.923077E-1,4.2857143E-1,7.1590906E-1,5E-1,-3.781123E-4,4.975967E-4,-1.668471E-3,1.12962276E-4,-2.0101154E-4,-8.659558E-4,-5.0573674E-4,-6.285122E-5,2.6578296E-4,-1.9004385E-4,7.146339E-4,2.6692376E-3,-1.453216E-4,5.709538E-4,9.5865515E-4,6.38944E-5],"split_indices":[3,2,1,4,1,0,3,4,2,0,6,6,4,0,2,0,0,0,0,0,0,0,0,0,0,0,0,0,0,0,0],"split_type":[0,0,0,0,0,0,0,0,0,0,0,0,0,0,0,0,0,0,0,0,0,0,0,0,0,0,0,0,0,0,0],"sum_hessian":[6.292E3,2.064E3,4.228E3,1.82E2,1.882E3,9.24E2,3.304E3,1.64E2,1.8E1,3.78E2,1.504E3,8.77E2,4.7E1,1.204E3,2.1E3,2.5E1,1.39E2,1E1,8E0,2.13E2,1.65E2,2.28E2,1.276E3,7.05E2,1.72E2,3.7E1,1E1,1.164E3,4E1,4.1E1,2.059E3],"tree_param":{"num_deleted":"0","num_feature":"7","num_nodes":"31","size_leaf_vector":"1"}},{"base_weights":[-8.5009285E-4,-2.9778918E-2,4.30914E-3,-1.1117096E-2,-4.8496027E-2,5.6222314E-3,-6.581103E-2,-3.1993599E-3,-1.6726722E-1,-8.0753766E-2,-3.0685617E-2,-1.3290171E-2,1.0235431E-2,3.265794E-3,-7.322309E-2,-9.380691E-5,1.1888689E-3,-7.861877E-4,-1.8179221E-3,7.3056384E-5,-9.6199854E-4,1.1783696E-3,-4.0893137E-4,-2.9348247E-4,4.404177E-5,2.875444E-4,2.9678822E-5,-9.4972656E-4,7.461816E-4],"categories":[],"categories_nodes":[],"categories_segments":[],"categories_sizes":[],"default_left":[0,0,0,0,0,0,0,0,0,0,0,0,0,0,0,0,0,0,0,0,0,0,0,0,0,0,0,0,0],"id":12,"left_children":[1,3,5,7,9,11,13,15,17,19,21,23,25,-1,27,-1,-1,-1,-1,-1,-1,-1,-1,-1,-1,-1,-1,-1,-1],"loss_changes":[9.3682474E-1,3.3129162E-1,4.908492E-1,5.892064E-1,2.6984608E-1,4.5643613E-1,3.0893844E-1,3.4448355E-1,1.5322924E-2,2.2921205E-1,4.702452E-1,2.9165405E-1,5.6585634E-1,0E0,3.1898862E-1,0E0,0E0,0E0,0E0,0E0,0E0,0E0,0E0,0E0,0E0,0E0,0E0,0E0,0E0],"parents":[2147483647,0,0,1,1,2,2,3,3,4,4,5,5,6,6,7,7,8,8,9,9,10,10,11,11,12,12,14,14],"right_children":[2,4,6,8,10,12,14,16,18,20,22,24,26,-1,28,-1,-1,-1,-1,-1,-1,-1,-1,-1,-1,-1,-1,-1,-1],"split_conditions":[3.5227272E-1,3.6666667E-1,8.5227275E-1,4.0816328E-1,2.6923078E-1,4.0816328E-1,6.052632E-1,4.2105263E-1,4.2857143E-1,3.846154E-2,3.0769232E-1,5.3846157E-1,5.5263156E-1,3.265794E-3,8.5714287E-1,-9.380691E-5,1.1888689E-3,-7.861877E-4,-1.8179221E-3,7.3056384E-5,-9.6199854E-4,1.1783696E-3,-4.0893137E-4,-2.9348247E-4,4.404177E-5,2.875444E-4,2.9678822E-5,-9.4972656E-4,7.461816E-4],"split_indices":[0,2,0,3,6,3,1,1,4,6,6,6,1,0,4,0,0,0,0,0,0,0,0,0,0,0,0,0,0],"split_type":[0,0,0,0,0,0,0,0,0,0,0,0,0,0,0,0,0,0,0,0,0,0,0,0,0,0,0,0,0],"sum_hessian":[6.275E3,9.49E2,5.326E3,4.76E2,4.73E2,5.229E3,9.7E1,4.54E2,2.2E1,1.67E2,3.06E2,1.025E3,4.204E3,1E0,9.6E1,4.33E2,2.1E1,4E0,1.8E1,2.5E1,1.42E2,1.9E1,2.87E2,5.37E2,4.88E2,1.184E3,3.02E3,8.4E1,1.2E1],"tree_param":{"num_deleted":"0","num_feature":"7","num_nodes":"29","size_leaf_vector":"1"}},{"base_weights":[-1.4413436E-3,-3.7269988E-3,1.8725721E-2,-2.00744E-3,-3.6706857E-2,3.68265E-2,-3.768267E-2,-1.1342503E-2,2.989747E-3,-4.5259457E-2,1.7500262E-1,1.8207567E-2,8.3580695E-2,-4.4990774E-2,2.494458E-1,-8.651415E-5,-8.00339E-4,-3.3852994E-4,5.5386943E-5,-5.890325E-4,5.368583E-4,2.735071E-3,1.0387505E-3,-1.0842726E-3,2.114229E-4,6.112862E-4,1.7708265E-3,-4.9951364E-4,3.5202934E-3,2.9033641E-3,6.338696E-4],"categories":[],"categories_nodes":[],"categories_segments":[],"categories_sizes":[],"default_left":[0,0,0,0,0,0,0,0,0,0,0,0,0,0,0,0,0,0,0,0,0,0,0,0,0,0,0,0,0,0,0],"id":13,"left_children":[1,3,5,7,9,11,13,15,17,19,21,23,25,27,29,-1,-1,-1,-1,-1,-1,-1,-1,-1,-1,-1,-1,-1,-1,-1,-1],"loss_changes":[2.8797895E-1,3.1813067E-1,6.507665E-1,2.4885999E-1,5.112859E-1,4.1806543E-1,3.364691E-1,3.4313717E-1,3.265255E-1,3.649593E-1,4.8659623E-2,1.3087922E-1,2.7678114E-1,3.1694153E-1,1.2028724E-2,0E0,0E0,0E0,0E0,0E0,0E0,0E0,0E0,0E0,0E0,0E0,0E0,0E0,0E0,0E0,0E0],"parents":[2147483647,0,0,1,1,2,2,3,3,4,4,5,5,6,6,7,7,8,8,9,9,10,10,11,11,12,12,13,13,14,14],"right_children":[2,4,6,8,10,12,14,16,18,20,22,24,26,28,30,-1,-1,-1,-1,-1,-1,-1,-1,-1,-1,-1,-1,-1,-1,-1,-1],"split_conditions":[7.386364E-1,8.947368E-1,8.2954544E-1,4.0816328E-1,1E0,8.4615386E-1,1E0,1E0,3.8636363E-1,8.979592E-1,6.3265306E-1,6.122449E-1,9.2105263E-1,1E0,8.863636E-1,-8.651415E-5,-8.00339E-4,-3.3852994E-4,5.5386943E-5,-5.890325E-4,5.368583E-4,2.735071E-3,1.0387505E-3,-1.0842726E-3,2.114229E-4,6.112862E-4,1.7708265E-3,-4.9951364E-4,3.5202934E-3,2.9033641E-3,6.338696E-4],"split_indices":[0,1,0,3,6,6,4,4,0,3,3,3,1,0,0,0,0,0,0,0,0,0,0,0,0,0,0,0,0,0,0],"split_type":[0,0,0,0,0,0,0,0,0,0,0,0,0,0,0,0,0,0,0,0,0,0,0,0,0,0,0,0,0,0,0],"sum_hessian":[6.245E3,5.61E3,6.35E2,5.333E3,2.77E2,4.81E2,1.54E2,1.859E3,3.474E3,2.67E2,1E1,3.45E2,1.36E2,1.51E2,3E0,1.79E3,6.9E1,2.24E2,3.25E3,2.35E2,3.2E1,3E0,7E0,7E0,3.38E2,1.11E2,2.5E1,1.5E2,1E0,2E0,1E0],"tree_param":{"num_deleted":"0","num_feature":"7","num_nodes":"31","size_leaf_vector":"1"}},{"base_weights":[4.2430987E-3,-6.4568073E-3,1.2077798E-2,-2.1945843E-3,-5.3644016E-2,2.248151E-2,-1.7029918E-3,-3.1354576E-3,1.3070832E-1,4.1060444E-2,-7.015801E-2,2.7349435E-2,-2.0482419E-2,-1.6097436E-2,1.4139067E-2,-6.529254E-5,2.8144135E-4,1.73558E-3,-1.2710962E-3,-3.6975095E-4,2.895434E-3,-6.214142E-4,-2.4075941E-3,2.4592748E-4,1.3199078E-3,-5.8891E-4,1.2669041E-4,5.040562E-4,-2.24478E-4,2.9401446E-4,-1.1312544E-4],"categories":[],"categories_nodes":[],"categories_segments":[],"categories_sizes":[],"default_left":[0,0,0,0,0,0,0,0,0,0,0,0,0,0,0,0,0,0,0,0,0,0,0,0,0,0,0,0,0,0,0],"id":14,"left_children":[1,3,5,7,9,11,13,15,17,19,21,23,25,27,29,-1,-1,-1,-1,-1,-1,-1,-1,-1,-1,-1,-1,-1,-1,-1,-1],"loss_changes":[5.219231E-1,5.2923644E-1,5.1531494E-1,3.0239296E-1,3.4382164E-1,4.288894E-1,3.5300183E-1,2.548534E-1,2.0986706E-1,6.5059245E-1,2.3942012E-1,5.275264E-1,2.668659E-1,3.4363192E-1,2.8662187E-1,0E0,0E0,0E0,0E0,0E0,0E0,0E0,0E0,0E0,0E0,0E0,0E0,0E0,0E0,0E0,0E0],"parents":[2147483647,0,0,1,1,2,2,3,3,4,4,5,5,6,6,7,7,8,8,9,9,10,10,11,11,12,12,13,13,14,14],"right_children":[2,4,6,8,10,12,14,16,18,20,22,24,26,28,30,-1,-1,-1,-1,-1,-1,-1,-1,-1,-1,-1,-1,-1,-1,-1,-1],"split_conditions":[5E-1,1E0,6.5384614E-1,7.346939E-1,4.2105263E-1,7.613636E-1,8.4615386E-1,6.8421054E-1,5.769231E-1,3.3333334E-1,7.6666665E-1,7.5E-1,8.5714287E-1,4.2857143E-1,7.894737E-1,-6.529254E-5,2.8144135E-4,1.73558E-3,-1.2710962E-3,-3.6975095E-4,2.895434E-3,-6.214142E-4,-2.4075941E-3,2.4592748E-4,1.3199078E-3,-5.8891E-4,1.2669041E-4,5.040562E-4,-2.24478E-4,2.9401446E-4,-1.1312544E-4],"split_indices":[0,4,6,3,1,0,6,1,6,2,2,0,3,3,1,0,0,0,0,0,0,0,0,0,0,0,0,0,0,0,0],"split_type":[0,0,0,0,0,0,0,0,0,0,0,0,0,0,0,0,0,0,0,0,0,0,0,0,0,0,0,0,0,0,0],"sum_hessian":[6.224E3,2.631E3,3.593E3,2.414E3,2.17E2,2.047E3,1.546E3,2.398E3,1.6E1,3.2E1,1.85E2,1.839E3,2.08E2,8.1E2,7.36E2,2.164E3,2.34E2,1.4E1,2E0,2.5E1,7E0,1.78E2,7E0,1.793E3,4.6E1,9.6E1,1.12E2,7E1,7.4E2,4.6E2,2.76E2],"tree_param":{"num_deleted":"0","num_feature":"7","num_nodes":"31","size_leaf_vector":"1"}},{"base_weights":[2.7189176E-3,-1.4270853E-2,7.112986E-3,5.472332E-2,-2.0155594E-2,6.9716405E-3,3.5020586E-3,1.527752E-2,1.3806821E-1,-3.3911787E-2,1.6138918E-3,9.164866E-3,-1.524995E-2,3.7829022E-4,-1.2155924E-3,8.35785E-4,2.9109004E-3,-2.937292E-4,-1.3687277E-3,-6.669017E-4,1.618112E-4,-1.8408496E-4,1.052324E-4,-5.92375E-4,3.327605E-5],"categories":[],"categories_nodes":[],"categories_segments":[],"categories_sizes":[],"default_left":[0,0,0,0,0,0,0,0,0,0,0,0,0,0,0,0,0,0,0,0,0,0,0,0,0],"id":15,"left_children":[1,3,5,7,9,11,-1,13,15,17,19,21,23,-1,-1,-1,-1,-1,-1,-1,-1,-1,-1,-1,-1],"loss_changes":[4.6101665E-1,5.163332E-1,2.3547281E-1,3.2665128E-1,3.5042912E-1,2.3919448E-1,0E0,2.1752381E-1,2.4249077E-1,3.3105242E-1,4.5280954E-1,1.6743004E-1,3.60574E-1,0E0,0E0,0E0,0E0,0E0,0E0,0E0,0E0,0E0,0E0,0E0,0E0],"parents":[2147483647,0,0,1,1,2,2,3,3,4,4,5,5,7,7,8,8,9,9,10,10,11,11,12,12],"right_children":[2,4,6,8,10,12,-1,14,16,18,20,22,24,-1,-1,-1,-1,-1,-1,-1,-1,-1,-1,-1,-1],"split_conditions":[3.8636363E-1,1.5789473E-1,1E0,3.846154E-1,4.6153846E-1,8.947368E-1,3.5020586E-3,2.3333333E-1,3.2954547E-1,5.3061223E-1,1.2244898E-1,3.1578946E-1,9.2105263E-1,3.7829022E-4,-1.2155924E-3,8.35785E-4,2.9109004E-3,-2.937292E-4,-1.3687277E-3,-6.669017E-4,1.618112E-4,-1.8408496E-4,1.052324E-4,-5.92375E-4,3.327605E-5],"split_indices":[0,1,0,6,6,1,0,2,0,3,3,1,1,0,0,0,0,0,0,0,0,0,0,0,0],"split_type":[0,0,0,0,0,0,0,0,0,0,0,0,0,0,0,0,0,0,0,0,0,0,0,0,0],"sum_hessian":[6.173E3,1.268E3,4.905E3,9.9E1,1.169E3,4.904E3,1E0,6.8E1,3.1E1,7.16E2,4.53E2,4.464E3,4.4E2,5.9E1,9E0,2.4E1,7E0,6.87E2,2.9E1,7.9E1,3.74E2,2.09E2,4.255E3,1.3E2,3.1E2],"tree_param":{"num_deleted":"0","num_feature":"7","num_nodes":"25","size_leaf_vector":"1"}},{"base_weights":[4.4255398E-4,-1.7210262E-2,4.245197E-3,1.8680291E-2,-2.5393486E-2,4.1096457E-3,3.4845483E-3,-3.7517373E-3,8.648978E-2,-2.8997885E-2,5.6848004E-2,2.5055467E-3,3.964101E-3,-1.7029494E-3,5.2759475E-5,-3.6925395E-4,1.2968248E-3,1.4923095E-3,-3.042482E-4,1.2169533E-3,-1.3689405E-3,2.0802328E-5,2.0870696E-4],"categories":[],"categories_nodes":[],"categories_segments":[],"categories_sizes":[],"default_left":[0,0,0,0,0,0,0,0,0,0,0,0,0,0,0,0,0,0,0,0,0,0,0],"id":16,"left_children":[1,3,5,7,9,11,-1,13,15,17,19,-1,21,-1,-1,-1,-1,-1,-1,-1,-1,-1,-1],"loss_changes":[4.1700104E-1,3.2383856E-1,2.3703642E-1,3.1215093E-1,2.6754725E-1,1.8229677E-1,0E0,2.339409E-1,2.76651E-1,2.2325665E-1,4.9407825E-1,0E0,1.6264534E-1,0E0,0E0,0E0,0E0,0E0,0E0,0E0,0E0,0E0,0E0],"parents":[2147483647,0,0,1,1,2,2,3,3,4,4,5,5,7,7,8,8,9,9,10,10,12,12],"right_children":[2,4,6,8,10,12,-1,14,16,18,20,-1,22,-1,-1,-1,-1,-1,-1,-1,-1,-1,-1],"split_conditions":[3.0612245E-1,2.6666668E-1,1E0,4.2307693E-1,9.6153843E-1,1.0526316E-1,3.4845483E-3,7.954545E-2,2.0454545E-1,1.1363637E-1,6.052632E-1,2.5055467E-3,8.77551E-1,-1.7029494E-3,5.2759475E-5,-3.6925395E-4,1.2968248E-3,1.4923095E-3,-3.042482E-4,1.2169533E-3,-1.3689405E-3,2.0802328E-5,2.0870696E-4],"split_indices":[3,2,0,6,6,1,0,0,0,0,1,0,3,0,0,0,0,0,0,0,0,0,0],"split_type":[0,0,0,0,0,0,0,0,0,0,0,0,0,0,0,0,0,0,0,0,0,0,0],"sum_hessian":[6.21E3,1.1E3,5.11E3,2.04E2,8.96E2,5.109E3,1E0,1.54E2,5E1,8.59E2,3.7E1,2E0,5.107E3,7E0,1.47E2,1.3E1,3.7E1,6E0,8.53E2,2.8E1,9E0,4.596E3,5.11E2],"tree_param":{"num_deleted":"0","num_feature":"7","num_nodes":"23","size_leaf_vector":"1"}},{"base_weights":[-1.5210746E-3,-1.2934491E-2,1.0002892E-2,-7.246925E-3,-3.0141024E-2,4.1888356E-2,4.1410886E-3,-1.6446946E-2,5.9034117E-3,-8.636837E-2,-2.4036884E-2,9.576691E-2,2.4983417E-2,1.5260117E-3,7.3125094E-2,-4.2787342E-5,-4.2622353E-4,1.94692E-3,3.7408176E-5,-1.6428531E-3,-4.0081772E-4,-1.9411041E-4,-1.120341E-3,-1.8125279E-3,1.1540016E-3,-8.446648E-5,5.4213963E-4,-5.0949424E-5,1.6900591E-4,4.8655772E-4,1.924307E-3],"categories":[],"categories_nodes":[],"categories_segments":[],"categories_sizes":[],"default_left":[0,0,0,0,0,0,0,0,0,0,0,0,0,0,0,0,0,0,0,0,0,0,0,0,0,0,0,0,0,0,0],"id":17,"left_children":[1,3,5,7,9,11,13,15,17,19,21,23,25,27,29,-1,-1,-1,-1,-1,-1,-1,-1,-1,-1,-1,-1,-1,-1,-1,-1],"loss_changes":[8.223099E-1,3.071702E-1,5.8129215E-1,2.8585988E-1,2.656352E-1,4.3753034E-1,4.7415608E-1,4.4254366E-1,3.9652136E-1,2.6750988E-1,2.8480342E-1,6.463783E-1,3.6103708E-1,2.5803313E-1,2.708925E-1,0E0,0E0,0E0,0E0,0E0,0E0,0E0,0E0,0E0,0E0,0E0,0E0,0E0,0E0,0E0,0E0],"parents":[2147483647,0,0,1,1,2,2,3,3,4,4,5,5,6,6,7,7,8,8,9,9,10,10,11,11,12,12,13,13,14,14],"right_children":[2,4,6,8,10,12,14,16,18,20,22,24,26,28,30,-1,-1,-1,-1,-1,-1,-1,-1,-1,-1,-1,-1,-1,-1,-1,-1],"split_conditions":[5.3409094E-1,4.7727272E-1,5.263158E-1,4.6153846E-1,1.15384616E-1,2.6923078E-1,1E0,3.0769232E-1,1.3157895E-1,5E-1,8E-1,4.2857143E-1,2.857143E-1,7.1590906E-1,9.2105263E-1,-4.2787342E-5,-4.2622353E-4,1.94692E-3,3.7408176E-5,-1.6428531E-3,-4.0081772E-4,-1.9411041E-4,-1.120341E-3,-1.8125279E-3,1.1540016E-3,-8.446648E-5,5.4213963E-4,-5.0949424E-5,1.6900591E-4,4.8655772E-4,1.924307E-3],"split_indices":[0,0,1,6,6,6,6,6,1,0,2,3,4,0,1,0,0,0,0,0,0,0,0,0,0,0,0,0,0,0,0],"split_type":[0,0,0,0,0,0,0,0,0,0,0,0,0,0,0,0,0,0,0,0,0,0,0,0,0,0,0,0,0,0,0],"sum_hessian":[6.25E3,3.14E3,3.11E3,2.361E3,7.79E2,4.82E2,2.628E3,1.389E3,9.72E2,7.5E1,7.04E2,1.14E2,3.68E2,2.533E3,9.5E1,9.49E2,4.4E2,1E1,9.62E2,2.7E1,4.8E1,6.7E2,3.4E1,7E0,1.07E2,1.72E2,1.96E2,1.771E3,7.62E2,8E1,1.5E1],"tree_param":{"num_deleted":"0","num_feature":"7","num_nodes":"31","size_leaf_vector":"1"}},{"base_weights":[-2.3275595E-3,4.75826E-2,-3.8835425E-3,-1.7658399E-1,5.4595668E-2,-1.679142E-2,4.208177E-3,-1.954306E-3,-4.117549E-4,9.2572816E-2,2.067034E-2,9.778918E-2,-1.7718561E-2,4.0241857E-3,3.4662806E-3,7.0292235E-4,2.5710403E-3,-8.3357445E-4,6.0838496E-4,-1.2251993E-3,1.4675463E-3,-5.9172604E-4,-1.522213E-4,5.885525E-5,-3.6915723E-4],"categories":[],"categories_nodes":[],"categories_segments":[],"categories_sizes":[],"default_left":[0,0,0,0,0,0,0,0,0,0,0,0,0,0,0,0,0,0,0,0,0,0,0,0,0],"id":18,"left_children":[1,3,5,7,9,11,13,-1,-1,15,17,19,21,23,-1,-1,-1,-1,-1,-1,-1,-1,-1,-1,-1],"loss_changes":[4.880408E-1,3.0833873E-1,6.364658E-1,7.2650015E-3,2.3643816E-1,2.5116646E-1,2.3461184E-1,0E0,0E0,3.0085653E-1,4.187532E-1,2.2294354E-1,2.4022436E-1,2.855978E-1,0E0,0E0,0E0,0E0,0E0,0E0,0E0,0E0,0E0,0E0,0E0],"parents":[2147483647,0,0,1,1,2,2,3,3,4,4,5,5,6,6,9,9,10,10,11,11,12,12,13,13],"right_children":[2,4,6,8,10,12,14,-1,-1,16,18,20,22,24,-1,-1,-1,-1,-1,-1,-1,-1,-1,-1,-1],"split_conditions":[2.3333333E-1,2.631579E-2,4.8863637E-1,5.769231E-1,2.7272728E-1,1.25E-1,1E0,-1.954306E-3,-4.117549E-4,2.631579E-1,1.6666667E-1,9.090909E-2,1.0204082E-1,8.2954544E-1,3.4662806E-3,7.0292235E-4,2.5710403E-3,-8.3357445E-4,6.0838496E-4,-1.2251993E-3,1.4675463E-3,-5.9172604E-4,-1.522213E-4,5.885525E-5,-3.6915723E-4],"split_indices":[2,1,0,6,0,0,0,0,0,1,2,0,3,0,0,0,0,0,0,0,0,0,0,0,0],"split_type":[0,0,0,0,0,0,0,0,0,0,0,0,0,0,0,0,0,0,0,0,0,0,0,0,0],"sum_hessian":[6.281E3,1.89E2,6.092E3,5E0,1.84E2,2.347E3,3.745E3,4E0,1E0,8.6E1,9.8E1,1.8E1,2.329E3,3.744E3,1E0,7.7E1,9E0,2.7E1,7.1E1,3E0,1.5E1,1.31E2,2.198E3,3.582E3,1.62E2],"tree_param":{"num_deleted":"0","num_feature":"7","num_nodes":"25","size_leaf_vector":"1"}},{"base_weights":[1.368161E-3,-2.6452793E-2,3.2201319E-3,1.825346E-1,-2.9084535E-2,-9.898516E-3,6.4095724E-3,-1.8916547E-4,2.3762651E-3,-3.2036178E-2,1.3572417E-1,4.1118294E-2,-2.0693544E-2,1.306952E-2,-3.1079315E-3,-1.4552486E-4,-7.285717E-4,1.3104307E-4,2.948492E-3,1.3312421E-4,1.0624023E-3,-8.376722E-4,-1.3743054E-4,5.0051938E-5,3.5878224E-4,-2.9423946E-4,4.1763087E-5],"categories":[],"categories_nodes":[],"categories_segments":[],"categories_sizes":[],"default_left":[0,0,0,0,0,0,0,0,0,0,0,0,0,0,0,0,0,0,0,0,0,0,0,0,0,0,0],"id":19,"left_children":[1,3,5,7,9,11,13,-1,-1,15,17,19,21,23,25,-1,-1,-1,-1,-1,-1,-1,-1,-1,-1,-1,-1],"loss_changes":[3.2277745E-1,2.2035933E-1,2.4579653E-1,5.9986725E-2,1.926068E-1,6.3363713E-1,2.9953986E-1,0E0,0E0,2.7086005E-1,1.3271946E-1,3.6255094E-1,4.148836E-1,5.1116484E-1,3.7315586E-1,0E0,0E0,0E0,0E0,0E0,0E0,0E0,0E0,0E0,0E0,0E0,0E0],"parents":[2147483647,0,0,1,1,2,2,3,3,4,4,5,5,6,6,9,9,10,10,11,11,12,12,13,13,14,14],"right_children":[2,4,6,8,10,12,14,-1,-1,16,18,20,22,24,26,-1,-1,-1,-1,-1,-1,-1,-1,-1,-1,-1,-1],"split_conditions":[7.692308E-2,7.8947365E-2,3.8636363E-1,4.0816326E-2,8.947368E-1,2.6666668E-1,6.5384614E-1,-1.8916547E-4,2.3762651E-3,6.052632E-1,8.1632656E-1,3.846154E-1,3E-1,5E-1,5E-1,-1.4552486E-4,-7.285717E-4,1.3104307E-4,2.948492E-3,1.3312421E-4,1.0624023E-3,-8.376722E-4,-1.3743054E-4,5.0051938E-5,3.5878224E-4,-2.9423946E-4,4.1763087E-5],"split_indices":[6,1,0,3,1,2,6,0,0,1,3,6,2,6,0,0,0,0,0,0,0,0,0,0,0,0,0],"split_type":[0,0,0,0,0,0,0,0,0,0,0,0,0,0,0,0,0,0,0,0,0,0,0,0,0,0,0],"sum_hessian":[6.262E3,3.9E2,5.872E3,4E0,3.86E2,1.148E3,4.724E3,1E0,3E0,3.8E2,6E0,2E2,9.48E2,2.779E3,1.945E3,2.67E2,1.13E2,4E0,2E0,1.41E2,5.9E1,9.3E1,8.55E2,2.054E3,7.25E2,4.21E2,1.524E3],"tree_param":{"num_deleted":"0","num_feature":"7","num_nodes":"27","size_leaf_vector":"1"}},{"base_weights":[-1.9438074E-3,9.94559E-2,-2.567996E-3,1.6669157E-1,6.5946905E-3,-1.5186771E-2,1.5098474E-3,-4.436501E-2,2.681423E-1,-1.4721759E-1,1.0387571E-1,-3.5642147E-2,-6.90965E-4,4.97392E-3,-1.872316E-2,-1.3175845E-3,1.4521022E-3,2.9070466E-3,-2.386549E-4,1.0862427E-3,-2.0796193E-3,2.082092E-3,-6.2966323E-4,-4.1785045E-4,9.204587E-4,5.9439824E-4,-1.3978583E-4,2.8580333E-5,4.743326E-4,-2.4102145E-4,9.5013005E-4],"categories":[],"categories_nodes":[],"categories_segments":[],"categories_sizes":[],"default_left":[0,0,0,0,0,0,0,0,0,0,0,0,0,0,0,0,0,0,0,0,0,0,0,0,0,0,0,0,0,0,0],"id":20,"left_children":[1,3,5,7,9,11,13,15,17,19,21,23,25,27,29,-1,-1,-1,-1,-1,-1,-1,-1,-1,-1,-1,-1,-1,-1,-1,-1],"loss_changes":[3.931123E-1,2.36157E-1,3.1751502E-1,4.829567E-1,2.6966357E-1,4.4682676E-1,3.269864E-1,1.5167373E-1,1.05763674E-1,1.3137634E-1,2.0458949E-1,4.940802E-1,7.063435E-1,3.5769376E-1,4.1952747E-1,0E0,0E0,0E0,0E0,0E0,0E0,0E0,0E0,0E0,0E0,0E0,0E0,0E0,0E0,0E0,0E0],"parents":[2147483647,0,0,1,1,2,2,3,3,4,4,5,5,6,6,7,7,8,8,9,9,10,10,11,11,12,12,13,13,14,14],"right_children":[2,4,6,8,10,12,14,16,18,20,22,24,26,28,30,-1,-1,-1,-1,-1,-1,-1,-1,-1,-1,-1,-1,-1,-1,-1,-1],"split_conditions":[1.0526316E-1,1.632653E-1,2.857143E-1,6.122449E-2,2.6530612E-1,3.6734694E-1,8.4210527E-1,3.4615386E-1,3.6363637E-1,1.590909E-1,2.857143E-1,6.5789473E-1,4.6666667E-1,8.1578946E-1,1E0,-1.3175845E-3,1.4521022E-3,2.9070466E-3,-2.386549E-4,1.0862427E-3,-2.0796193E-3,2.082092E-3,-6.2966323E-4,-4.1785045E-4,9.204587E-4,5.9439824E-4,-1.3978583E-4,2.8580333E-5,4.743326E-4,-2.4102145E-4,9.5013005E-4],"split_indices":[1,3,4,3,3,3,1,6,0,0,4,1,2,1,6,0,0,0,0,0,0,0,0,0,0,0,0,0,0,0,0],"split_type":[0,0,0,0,0,0,0,0,0,0,0,0,0,0,0,0,0,0,0,0,0,0,0,0,0,0,0,0,0,0,0],"sum_hessian":[6.206E3,3.7E1,6.169E3,2.1E1,1.6E1,1.506E3,4.663E3,7E0,1.4E1,6E0,1E1,6.24E2,8.82E2,3.982E3,6.81E2,5E0,2E0,1.3E1,1E0,1E0,5E0,6E0,4E0,5.96E2,2.8E1,1.59E2,7.23E2,3.794E3,1.88E2,6.51E2,3E1],"tree_param":{"num_deleted":"0","num_feature":"7","num_nodes":"31","size_leaf_vector":"1"}},{"base_weights":[-1.1222755E-3,-2.7115012E-2,1.9008889E-3,7.710388E-3,-4.0653963E-2,-4.39833E-2,3.9834E-3,5.985709E-2,-4.5101393E-2,-5.2737724E-2,2.0292811E-2,-8.3381616E-2,-2.1696037E-2,7.122709E-2,1.6984713E-3,8.510881E-4,-1.1347579E-3,-9.2194113E-4,7.4365083E-4,-4.6750632E-4,-1.4084558E-3,1.3197218E-3,-8.8549714E-5,-4.3869004E-4,-1.7803762E-3,-2.7390473E-4,2.740541E-3,1.817149E-3,5.307419E-4,-6.6934015E-5,1.14272014E-4],"categories":[],"categories_nodes":[],"categories_segments":[],"categories_sizes":[],"default_left":[0,0,0,0,0,0,0,0,0,0,0,0,0,0,0,0,0,0,0,0,0,0,0,0,0,0,0,0,0,0,0],"id":21,"left_children":[1,3,5,7,9,11,13,15,17,19,21,23,25,27,29,-1,-1,-1,-1,-1,-1,-1,-1,-1,-1,-1,-1,-1,-1,-1,-1],"loss_changes":[4.826918E-1,3.0207303E-1,5.260107E-1,4.984125E-1,3.4058112E-1,2.0805219E-1,8.088306E-1,4.0796053E-1,5.1319623E-1,1.9650674E-1,2.5181943E-1,3.1383884E-1,2.6686257E-1,3.3733726E-1,4.1588056E-1,0E0,0E0,0E0,0E0,0E0,0E0,0E0,0E0,0E0,0E0,0E0,0E0,0E0,0E0,0E0,0E0],"parents":[2147483647,0,0,1,1,2,2,3,3,4,4,5,5,6,6,7,7,8,8,9,9,10,10,11,11,12,12,13,13,14,14],"right_children":[2,4,6,8,10,12,14,16,18,20,22,24,26,28,30,-1,-1,-1,-1,-1,-1,-1,-1,-1,-1,-1,-1,-1,-1,-1,-1],"split_conditions":[3.1578946E-1,2.6136363E-1,2.840909E-1,2.1052632E-1,4.8979592E-1,2.3076923E-1,3.6666667E-1,7.1428573E-1,2.8947368E-1,5E-1,1.15384616E-1,2.857143E-1,4.6938777E-1,2.244898E-1,5.769231E-1,8.510881E-4,-1.1347579E-3,-9.2194113E-4,7.4365083E-4,-4.6750632E-4,-1.4084558E-3,1.3197218E-3,-8.8549714E-5,-4.3869004E-4,-1.7803762E-3,-2.7390473E-4,2.740541E-3,1.817149E-3,5.307419E-4,-6.6934015E-5,1.14272014E-4],"split_indices":[1,0,0,1,3,6,2,4,1,0,6,3,3,3,6,0,0,0,0,0,0,0,0,0,0,0,0,0,0,0,0],"split_type":[0,0,0,0,0,0,0,0,0,0,0,0,0,0,0,0,0,0,0,0,0,0,0,0,0,0,0,0,0,0,0],"sum_hessian":[6.141E3,6.39E2,5.502E3,1.79E2,4.6E2,2.38E2,5.264E3,9E1,8.9E1,3.84E2,7.6E1,8.5E1,1.53E2,1.72E2,5.092E3,7.9E1,1.1E1,6.4E1,2.5E1,3.61E2,2.3E1,1.5E1,6.1E1,6.1E1,2.4E1,1.51E2,2E0,2.3E1,1.49E2,2.734E3,2.358E3],"tree_param":{"num_deleted":"0","num_feature":"7","num_nodes":"31","size_leaf_vector":"1"}},{"base_weights":[5.1999255E-4,-7.5131003E-3,7.844268E-3,-4.9233916E-3,-3.7757102E-2,6.3115675E-3,5.9673987E-2,-7.1058567E-3,3.481062E-2,-1.3350966E-2,-9.4397806E-2,1.2345639E-2,-6.8467637E-3,4.056076E-2,2.3355734E-1,7.668076E-5,-1.2721206E-4,1.1645963E-3,2.7643035E-5,-5.458525E-4,4.7161142E-4,2.6651283E-4,-1.1990195E-3,1.1819618E-4,2.9291594E-3,-2.9439473E-4,9.54977E-5,1.1284527E-3,-2.6199818E-4,-1.4450717E-3,2.988788E-3],"categories":[],"categories_nodes":[],"categories_segments":[],"categories_sizes":[],"default_left":[0,0,0,0,0,0,0,0,0,0,0,0,0,0,0,0,0,0,0,0,0,0,0,0,0,0,0,0,0,0,0],"id":22,"left_children":[1,3,5,7,9,11,13,15,17,19,21,23,25,27,29,-1,-1,-1,-1,-1,-1,-1,-1,-1,-1,-1,-1,-1,-1,-1,-1],"loss_changes":[3.6466923E-1,2.313373E-1,2.5716612E-1,2.3646744E-1,3.2083443E-1,2.501892E-1,2.9960963E-1,2.1438527E-1,3.712282E-1,4.1178283E-1,2.1930325E-1,3.1532317E-1,3.673893E-1,4.1314584E-1,2.6545164E-1,0E0,0E0,0E0,0E0,0E0,0E0,0E0,0E0,0E0,0E0,0E0,0E0,0E0,0E0,0E0,0E0],"parents":[2147483647,0,0,1,1,2,2,3,3,4,4,5,5,6,6,7,7,8,8,9,9,10,10,11,11,12,12,13,13,14,14],"right_children":[2,4,6,8,10,12,14,16,18,20,22,24,26,28,30,-1,-1,-1,-1,-1,-1,-1,-1,-1,-1,-1,-1,-1,-1,-1,-1],"split_conditions":[5.2272725E-1,1E0,1E0,9.230769E-1,5.9183675E-1,7.307692E-1,9.3877554E-1,3.6666667E-1,2.857143E-1,4.090909E-1,1.5384616E-1,9.5454544E-1,8.4615386E-1,6.4772725E-1,7.1590906E-1,7.668076E-5,-1.2721206E-4,1.1645963E-3,2.7643035E-5,-5.458525E-4,4.7161142E-4,2.6651283E-4,-1.1990195E-3,1.1819618E-4,2.9291594E-3,-2.9439473E-4,9.54977E-5,1.1284527E-3,-2.6199818E-4,-1.4450717E-3,2.988788E-3],"split_indices":[0,4,6,6,3,6,3,2,3,0,6,0,6,0,0,0,0,0,0,0,0,0,0,0,0,0,0,0,0,0,0],"split_type":[0,0,0,0,0,0,0,0,0,0,0,0,0,0,0,0,0,0,0,0,0,0,0,0,0,0,0,0,0,0,0],"sum_hessian":[6.196E3,2.955E3,3.241E3,2.723E3,2.32E2,3.149E3,9.2E1,2.582E3,1.41E2,1.63E2,6.9E1,2.159E3,9.9E2,8.4E1,8E0,7.11E2,1.871E3,3.9E1,1.02E2,9.7E1,6.6E1,1.2E1,5.7E1,2.156E3,3E0,4.16E2,5.74E2,4E1,4.4E1,1E0,7E0],"tree_param":{"num_deleted":"0","num_feature":"7","num_nodes":"31","size_leaf_vector":"1"}},{"base_weights":[9.186621E-4,-1.5980022E-2,5.361754E-3,2.474667E-3,-4.2168453E-2,2.1723616E-3,2.4103587E-2,8.1111364E-2,-1.9453046E-3,-8.120096E-2,-2.92772E-2,2.836151E-3,-8.5660934E-2,-7.2117574E-3,3.5080303E-2,-4.1815548E-4,1.169913E-3,-2.3540531E-4,1.8673523E-4,-2.8068895E-4,-1.1455215E-3,-2.503215E-4,-1.8059517E-3,4.9503215E-5,-2.0119722E-4,2.296534E-4,-1.5198495E-3,-2.857943E-4,1.0261636E-3,6.3397974E-4,1.2667122E-4],"categories":[],"categories_nodes":[],"categories_segments":[],"categories_sizes":[],"default_left":[0,0,0,0,0,0,0,0,0,0,0,0,0,0,0,0,0,0,0,0,0,0,0,0,0,0,0,0,0,0,0],"id":23,"left_children":[1,3,5,7,9,11,13,15,17,19,21,23,25,27,29,-1,-1,-1,-1,-1,-1,-1,-1,-1,-1,-1,-1,-1,-1,-1,-1],"loss_changes":[4.7280455E-1,6.3370985E-1,2.979861E-1,2.677882E-1,2.7034515E-1,2.4872951E-1,2.4946421E-1,1.8572703E-1,3.2548544E-1,2.3423511E-1,2.5820142E-1,2.0544118E-1,2.3403539E-1,4.4647244E-1,3.4002495E-1,0E0,0E0,0E0,0E0,0E0,0E0,0E0,0E0,0E0,0E0,0E0,0E0,0E0,0E0,0E0,0E0],"parents":[2147483647,0,0,1,1,2,2,3,3,4,4,5,5,6,6,7,7,8,8,9,9,10,10,11,11,12,12,13,13,14,14],"right_children":[2,4,6,8,10,12,14,16,18,20,22,24,26,28,30,-1,-1,-1,-1,-1,-1,-1,-1,-1,-1,-1,-1,-1,-1,-1,-1],"split_conditions":[3.8636363E-1,4.2105263E-1,8.367347E-1,1.0526316E-1,1.923077E-1,8.2954544E-1,3.4615386E-1,6.122449E-2,2.9545453E-1,5E-1,1E0,1E0,7.755102E-1,1E0,6.923077E-1,-4.1815548E-4,1.169913E-3,-2.3540531E-4,1.8673523E-4,-2.8068895E-4,-1.1455215E-3,-2.503215E-4,-1.8059517E-3,4.9503215E-5,-2.0119722E-4,2.296534E-4,-1.5198495E-3,-2.857943E-4,1.0261636E-3,6.3397974E-4,1.2667122E-4],"split_indices":[0,1,3,1,6,0,6,3,0,1,6,4,3,4,6,0,0,0,0,0,0,0,0,0,0,0,0,0,0,0,0],"split_type":[0,0,0,0,0,0,0,0,0,0,0,0,0,0,0,0,0,0,0,0,0,0,0,0,0,0,0,0,0,0,0],"sum_hessian":[6.295E3,1.31E3,4.985E3,7.69E2,5.41E2,4.261E3,7.24E2,4E1,7.29E2,1.33E2,4.08E2,4.23E3,3.1E1,1.88E2,5.36E2,9E0,3.1E1,3.56E2,3.73E2,5.2E1,8.1E1,3.98E2,1E1,3.874E3,3.56E2,1.2E1,1.9E1,1.58E2,3E1,2.36E2,3E2],"tree_param":{"num_deleted":"0","num_feature":"7","num_nodes":"31","size_leaf_vector":"1"}},{"base_weights":[-5.572617E-4,-6.66882E-4,3.429973E-3,-7.7491044E-3,3.9594485E-3,-1.6325318E-3,-2.2226932E-2,1.3683205E-2,-7.1164537E-3,7.47069E-6,-6.7181326E-4,-1.4705499E-4,-7.7359454E-4,1.6674724E-3,1.2914502E-4,-1.8412461E-4,1.7492443E-4],"categories":[],"categories_nodes":[],"categories_segments":[],"categories_sizes":[],"default_left":[0,0,0,0,0,0,0,0,0,0,0,0,0,0,0,0,0],"id":24,"left_children":[1,3,-1,5,7,9,11,13,15,-1,-1,-1,-1,-1,-1,-1,-1],"loss_changes":[2.3613444E-1,2.05236E-1,0E0,2.1913655E-1,4.081703E-1,2.716113E-1,3.0364892E-1,2.3528594E-1,4.9290666E-1,0E0,0E0,0E0,0E0,0E0,0E0,0E0,0E0],"parents":[2147483647,0,0,1,1,3,3,4,4,5,5,6,6,7,7,8,8],"right_children":[2,4,-1,6,8,10,12,14,16,-1,-1,-1,-1,-1,-1,-1,-1],"split_conditions":[1E0,4.8863637E-1,3.429973E-3,5.5263156E-1,7E-1,6E-1,8.8461536E-1,2.1052632E-1,8.367347E-1,7.47069E-6,-6.7181326E-4,-1.4705499E-4,-7.7359454E-4,1.6674724E-3,1.2914502E-4,-1.8412461E-4,1.7492443E-4],"split_indices":[0,0,0,1,2,2,6,1,3,0,0,0,0,0,0,0,0],"split_type":[0,0,0,0,0,0,0,0,0,0,0,0,0,0,0,0,0],"sum_hessian":[6.263E3,6.262E3,1E0,2.474E3,3.788E3,1.74E3,7.34E2,2.017E3,1.771E3,1.68E3,6E1,6.47E2,8.7E1,9E0,2.008E3,1.214E3,5.57E2],"tree_param":{"num_deleted":"0","num_feature":"7","num_nodes":"17","size_leaf_vector":"1"}},{"base_weights":[2.1893098E-3,-3.2673962E-2,4.904668E-3,3.9620984E-2,-5.278905E-2,1.718633E-2,-1.1938333E-3,-1.8108254E-3,4.8591126E-2,-3.3203423E-2,-1.1669737E-1,1.5281801E-2,1.23723164E-1,-1.3737697E-3,3.4128232E-3,9.827099E-4,1.1576839E-4,-8.436206E-4,-5.3751704E-5,-6.1846315E-4,-1.6870213E-3,-7.762042E-4,1.731969E-4,4.5574474E-4,2.2652678E-3,-7.708462E-6,-1.0983456E-3],"categories":[],"categories_nodes":[],"categories_segments":[],"categories_sizes":[],"default_left":[0,0,0,0,0,0,0,0,0,0,0,0,0,0,0,0,0,0,0,0,0,0,0,0,0,0,0],"id":25,"left_children":[1,3,5,7,9,11,13,-1,15,17,19,21,23,25,-1,-1,-1,-1,-1,-1,-1,-1,-1,-1,-1,-1,-1],"loss_changes":[5.8036983E-1,6.463108E-1,4.2597532E-1,2.0083396E-1,4.3045986E-1,3.809864E-1,2.3470147E-1,0E0,1.7171562E-1,3.7966257E-1,2.2062027E-1,3.5254133E-1,2.547971E-1,2.4841084E-1,0E0,0E0,0E0,0E0,0E0,0E0,0E0,0E0,0E0,0E0,0E0,0E0,0E0],"parents":[2147483647,0,0,1,1,2,2,3,3,4,4,5,5,6,6,8,8,9,9,10,10,11,11,12,12,13,13],"right_children":[2,4,6,8,10,12,14,-1,16,18,20,22,24,26,-1,-1,-1,-1,-1,-1,-1,-1,-1,-1,-1,-1,-1],"split_conditions":[2.840909E-1,2.1052632E-1,5.263158E-1,2.631579E-2,2.6136363E-1,6.666667E-1,1E0,-1.8108254E-3,2.0454545E-1,2.3076923E-1,4E-1,1.0204082E-1,6.3265306E-1,9.318182E-1,3.4128232E-3,9.827099E-4,1.1576839E-4,-8.436206E-4,-5.3751704E-5,-6.1846315E-4,-1.6870213E-3,-7.762042E-4,1.731969E-4,4.5574474E-4,2.2652678E-3,-7.708462E-6,-1.0983456E-3],"split_indices":[0,1,1,1,0,2,0,0,0,6,2,3,3,0,0,0,0,0,0,0,0,0,0,0,0,0,0],"split_type":[0,0,0,0,0,0,0,0,0,0,0,0,0,0,0,0,0,0,0,0,0,0,0,0,0,0,0],"sum_hessian":[6.128E3,4.42E2,5.686E3,9.6E1,3.46E2,1.886E3,3.8E3,3E0,9.3E1,2.66E2,8E1,1.854E3,3.2E1,3.799E3,1E0,3.9E1,5.4E1,9.3E1,1.73E2,4E1,4E1,3.9E1,1.815E3,1.9E1,1.3E1,3.779E3,2E1],"tree_param":{"num_deleted":"0","num_feature":"7","num_nodes":"27","size_leaf_vector":"1"}},{"base_weights":[-2.4826091E-3,-7.790121E-3,8.810539E-3,-1.5818865E-4,-1.7491784E-2,4.205549E-2,3.9045447E-3,-7.822759E-3,3.0018378E-2,-7.2365336E-2,-1.5517847E-2,6.532716E-2,-1.8226297E-3,9.6979586E-4,7.319269E-2,-1.3727833E-4,2.739607E-4,5.4579746E-4,-3.2608057E-4,-1.0376582E-3,2.0551641E-4,-2.7962247E-4,-4.923415E-5,-2.6366574E-4,8.9144986E-4,1.4938386E-4,-1.7339521E-3,2.5569869E-5,-1.1169392E-3,4.9714575E-4,2.090899E-3],"categories":[],"categories_nodes":[],"categories_segments":[],"categories_sizes":[],"default_left":[0,0,0,0,0,0,0,0,0,0,0,0,0,0,0,0,0,0,0,0,0,0,0,0,0,0,0,0,0,0,0],"id":26,"left_children":[1,3,5,7,9,11,13,15,17,19,21,23,25,27,29,-1,-1,-1,-1,-1,-1,-1,-1,-1,-1,-1,-1,-1,-1,-1,-1],"loss_changes":[3.7042874E-1,3.1127158E-1,3.221205E-1,5.446926E-1,1.993717E-1,2.5948277E-1,3.5028952E-1,3.909433E-1,7.354969E-1,1.8886143E-1,2.3559469E-1,3.648855E-1,2.585303E-1,2.9605198E-1,2.1294793E-1,0E0,0E0,0E0,0E0,0E0,0E0,0E0,0E0,0E0,0E0,0E0,0E0,0E0,0E0,0E0,0E0],"parents":[2147483647,0,0,1,1,2,2,3,3,4,4,5,5,6,6,7,7,8,8,9,9,10,10,11,11,12,12,13,13,14,14],"right_children":[2,4,6,8,10,12,14,16,18,20,22,24,26,28,30,-1,-1,-1,-1,-1,-1,-1,-1,-1,-1,-1,-1,-1,-1,-1,-1],"split_conditions":[6.7346936E-1,5.5263156E-1,5.5263156E-1,5.102041E-1,2.244898E-1,7.755102E-1,1E0,5.3333336E-1,5.681818E-1,4.2045453E-1,5.3846157E-1,4.2105263E-1,1E0,9.2045456E-1,9.183673E-1,-1.3727833E-4,2.739607E-4,5.4579746E-4,-3.2608057E-4,-1.0376582E-3,2.0551641E-4,-2.7962247E-4,-4.923415E-5,-2.6366574E-4,8.9144986E-4,1.4938386E-4,-1.7339521E-3,2.5569869E-5,-1.1169392E-3,4.9714575E-4,2.090899E-3],"split_indices":[3,1,1,3,3,3,6,2,0,0,6,1,4,0,3,0,0,0,0,0,0,0,0,0,0,0,0,0,0,0,0],"split_type":[0,0,0,0,0,0,0,0,0,0,0,0,0,0,0,0,0,0,0,0,0,0,0,0,0,0,0,0,0,0,0],"sum_hessian":[6.178E3,4.203E3,1.975E3,2.353E3,1.85E3,2.53E2,1.722E3,1.877E3,4.76E2,6.3E1,1.787E3,1.65E2,8.8E1,1.653E3,6.9E1,1.608E3,2.69E2,3.42E2,1.34E2,4.7E1,1.6E1,8.21E2,9.66E2,3.4E1,1.31E2,8.1E1,7E0,1.631E3,2.2E1,6E1,9E0],"tree_param":{"num_deleted":"0","num_feature":"7","num_nodes":"31","size_leaf_vector":"1"}},{"base_weights":[-2.7611172E-3,-5.4035285E-3,1.5702125E-2,-3.4603383E-3,-5.041692E-2,6.9362787E-3,1.07641496E-1,-1.7310299E-2,4.4438743E-4,-1.6745793E-2,-1.0607436E-1,1.8439667E-2,-3.961218E-2,1.3069002E-1,9.405049E-3,3.0549316E-4,-2.4615508E-4,-5.8023474E-4,1.9103709E-5,-9.3616947E-4,2.476285E-4,-2.292443E-4,-1.5840174E-3,5.880765E-4,7.527231E-5,-5.2927935E-4,1.4144861E-3,-1.085422E-3,1.4176561E-3,-7.375512E-4,2.3574424E-3],"categories":[],"categories_nodes":[],"categories_segments":[],"categories_sizes":[],"default_left":[0,0,0,0,0,0,0,0,0,0,0,0,0,0,0,0,0,0,0,0,0,0,0,0,0,0,0,0,0,0,0],"id":27,"left_children":[1,3,5,7,9,11,13,15,17,19,21,23,25,27,29,-1,-1,-1,-1,-1,-1,-1,-1,-1,-1,-1,-1,-1,-1,-1,-1],"loss_changes":[3.0471388E-1,4.776719E-1,6.2948775E-1,2.832803E-1,4.2175865E-1,3.8358793E-1,1.5273672E-1,4.0351948E-1,3.5041952E-1,4.5541427E-1,3.6620533E-1,2.524118E-1,3.4984317E-1,1.6111779E-1,2.8090104E-1,0E0,0E0,0E0,0E0,0E0,0E0,0E0,0E0,0E0,0E0,0E0,0E0,0E0,0E0,0E0,0E0],"parents":[2147483647,0,0,1,1,2,2,3,3,4,4,5,5,6,6,7,7,8,8,9,9,10,10,11,11,12,12,13,13,14,14],"right_children":[2,4,6,8,10,12,14,16,18,20,22,24,26,28,30,-1,-1,-1,-1,-1,-1,-1,-1,-1,-1,-1,-1,-1,-1,-1,-1],"split_conditions":[7.1590906E-1,6.931818E-1,1E0,3.75E-1,7.1428573E-1,8.2954544E-1,8.068182E-1,2.3333333E-1,2.0408164E-1,6.530612E-1,7.9591835E-1,3.4615386E-1,1E0,6.5789473E-1,8.75E-1,3.0549316E-4,-2.4615508E-4,-5.8023474E-4,1.9103709E-5,-9.3616947E-4,2.476285E-4,-2.292443E-4,-1.5840174E-3,5.880765E-4,7.527231E-5,-5.2927935E-4,1.4144861E-3,-1.085422E-3,1.4176561E-3,-7.375512E-4,2.3574424E-3],"split_indices":[0,0,4,0,4,0,0,2,3,3,3,6,6,1,0,0,0,0,0,0,0,0,0,0,0,0,0,0,0,0,0],"split_type":[0,0,0,0,0,0,0,0,0,0,0,0,0,0,0,0,0,0,0,0,0,0,0,0,0,0,0,0,0,0,0],"sum_hessian":[6.243E3,5.462E3,7.81E2,5.237E3,2.25E2,7.14E2,6.7E1,1.151E3,4.086E3,1.41E2,8.4E1,5.73E2,1.41E2,5.4E1,1.3E1,1.52E2,9.99E2,9.9E1,3.987E3,4.9E1,9.2E1,3.3E1,5.1E1,1.21E2,4.52E2,1.32E2,9E0,2E0,5.2E1,1E1,3E0],"tree_param":{"num_deleted":"0","num_feature":"7","num_nodes":"31","size_leaf_vector":"1"}},{"base_weights":[-1.4526928E-3,-9.0779895E-3,5.3242594E-3,-4.768989E-3,-4.514396E-2,-1.3369755E-1,6.246106E-3,-3.469968E-3,-1.1081494E-1,-6.214131E-3,-8.073299E-2,-2.1260099E-1,-3.546675E-2,2.0496381E-2,-1.0247712E-3,-3.813907E-5,2.973726E-3,-5.3592486E-4,-2.0171965E-3,-1.3995216E-3,1.6293126E-4,-5.441875E-4,-1.5650041E-3,-2.2108324E-3,-5.96482E-4,1.6417546E-3,-7.1848516E-4,-1.1973983E-4,2.6982406E-4,1.8156433E-3,-1.9439358E-5],"categories":[],"categories_nodes":[],"categories_segments":[],"categories_sizes":[],"default_left":[0,0,0,0,0,0,0,0,0,0,0,0,0,0,0,0,0,0,0,0,0,0,0,0,0,0,0,0,0,0,0],"id":28,"left_children":[1,3,5,7,9,11,13,15,17,19,21,23,25,27,29,-1,-1,-1,-1,-1,-1,-1,-1,-1,-1,-1,-1,-1,-1,-1,-1],"loss_changes":[3.252988E-1,4.6010402E-1,4.2798162E-1,3.6425543E-1,4.3730825E-1,1.6297615E-1,3.4318393E-1,2.7181596E-1,1.5564665E-1,4.598119E-1,3.2045412E-1,2.381444E-3,9.169247E-2,2.3598859E-1,3.6857072E-1,0E0,0E0,0E0,0E0,0E0,0E0,0E0,0E0,0E0,0E0,0E0,0E0,0E0,0E0,0E0,0E0],"parents":[2147483647,0,0,1,1,2,2,3,3,4,4,5,5,6,6,7,7,8,8,9,9,10,10,11,11,12,12,13,13,14,14],"right_children":[2,4,6,8,10,12,14,16,18,20,22,24,26,28,30,-1,-1,-1,-1,-1,-1,-1,-1,-1,-1,-1,-1,-1,-1,-1,-1],"split_conditions":[5.2272725E-1,7.105263E-1,2.8947368E-1,1E0,4.5454547E-1,5.9183675E-1,6.315789E-1,8E-1,6E-1,6E-1,1E0,7.692308E-1,6.122449E-1,1.4285715E-1,5E-1,-3.813907E-5,2.973726E-3,-5.3592486E-4,-2.0171965E-3,-1.3995216E-3,1.6293126E-4,-5.441875E-4,-1.5650041E-3,-2.2108324E-3,-5.96482E-4,1.6417546E-3,-7.1848516E-4,-1.1973983E-4,2.6982406E-4,1.8156433E-3,-1.9439358E-5],"split_indices":[0,1,1,6,0,3,1,2,2,2,4,6,3,4,2,0,0,0,0,0,0,0,0,0,0,0,0,0,0,0,0],"split_type":[0,0,0,0,0,0,0,0,0,0,0,0,0,0,0,0,0,0,0,0,0,0,0,0,0,0,0,0,0,0,0],"sum_hessian":[6.293E3,2.961E3,3.332E3,2.646E3,3.15E2,2.1E1,3.311E3,2.615E3,3.1E1,1.51E2,1.64E2,1.1E1,1E1,1.118E3,2.193E3,2.613E3,2E0,2E1,1.1E1,2.1E1,1.3E2,1.23E2,4.1E1,1E1,1E0,1E0,9E0,1.86E2,9.32E2,1E1,2.183E3],"tree_param":{"num_deleted":"0","num_feature":"7","num_nodes":"31","size_leaf_vector":"1"}},{"base_weights":[-2.3094835E-4,-2.5508627E-3,2.6241388E-2,1.3225665E-3,-1.9833572E-2,-4.9914535E-2,3.3272695E-2,-1.3625761E-2,6.5568923E-3,5.520136E-2,-2.4422994E-2,2.1151818E-2,-9.719453E-2,1.5002649E-1,2.9019153E-2,4.3878643E-4,-1.8803883E-4,1.4849646E-4,-7.960341E-6,-1.06608866E-4,1.3320546E-3,-6.6371524E-4,-1.2676207E-4,1.0813834E-3,-7.7850075E-4,-1.8531454E-3,-2.0218876E-4,2.4651592E-3,-1.1155347E-3,-5.385393E-4,3.5972032E-4],"categories":[],"categories_nodes":[],"categories_segments":[],"categories_sizes":[],"default_left":[0,0,0,0,0,0,0,0,0,0,0,0,0,0,0,0,0,0,0,0,0,0,0,0,0,0,0,0,0,0,0],"id":29,"left_children":[1,3,5,7,9,11,13,15,17,19,21,23,25,27,29,-1,-1,-1,-1,-1,-1,-1,-1,-1,-1,-1,-1,-1,-1,-1,-1],"loss_changes":[3.841473E-1,3.8501742E-1,2.7154058E-1,3.6775982E-1,3.6396664E-1,1.4653656E-1,2.2508341E-1,3.638005E-1,2.1226929E-1,3.1480914E-1,4.8846978E-1,1.6343154E-1,1.7261365E-1,4.3133494E-1,2.5950158E-1,0E0,0E0,0E0,0E0,0E0,0E0,0E0,0E0,0E0,0E0,0E0,0E0,0E0,0E0,0E0,0E0],"parents":[2147483647,0,0,1,1,2,2,3,3,4,4,5,5,6,6,7,7,8,8,9,9,10,10,11,11,12,12,13,13,14,14],"right_children":[2,4,6,8,10,12,14,16,18,20,22,24,26,28,30,-1,-1,-1,-1,-1,-1,-1,-1,-1,-1,-1,-1,-1,-1,-1,-1],"split_conditions":[8.77551E-1,7.631579E-1,6.363636E-1,3.265306E-1,4.431818E-1,8.979592E-1,6.4772725E-1,1.8181819E-1,5.5263156E-1,4.6153846E-1,5.9183675E-1,6.5789473E-1,1E0,9.3877554E-1,1.5384616E-1,4.3878643E-4,-1.8803883E-4,1.4849646E-4,-7.960341E-6,-1.06608866E-4,1.3320546E-3,-6.6371524E-4,-1.2676207E-4,1.0813834E-3,-7.7850075E-4,-1.8531454E-3,-2.0218876E-4,2.4651592E-3,-1.1155347E-3,-5.385393E-4,3.5972032E-4],"split_indices":[3,1,0,3,0,3,0,0,1,6,3,1,4,3,6,0,0,0,0,0,0,0,0,0,0,0,0,0,0,0,0],"split_type":[0,0,0,0,0,0,0,0,0,0,0,0,0,0,0,0,0,0,0,0,0,0,0,0,0,0,0,0,0,0,0],"sum_hessian":[6.253E3,5.75E3,5.03E2,4.698E3,1.052E3,4.2E1,4.61E2,1.218E3,3.48E3,6E1,9.92E2,1.7E1,2.5E1,1.5E1,4.46E2,1E2,1.118E3,1.635E3,1.845E3,3.3E1,2.7E1,2.16E2,7.76E2,9E0,8E0,1.1E1,1.4E1,1.1E1,4E0,3.4E1,4.12E2],"tree_param":{"num_deleted":"0","num_feature":"7","num_nodes":"31","size_leaf_vector":"1"}},{"base_weights":[-1.17683776E-4,3.4544544E-4,-1.3519143E-1,3.382463E-3,-1.0501951E-2,-1.913386E-1,-2.0034967E-2,1.5954744E-3,3.2465264E-2,-4.9317367E-2,-2.9988845E-3,1.9682526E-4,-2.0908503E-1,-8.193703E-2,1.1044749E-3,2.662314E-5,-9.173198E-4,4.5418646E-4,-2.8734517E-4,1.3207902E-5,-9.0260885E-4,1.9985458E-4,-1.9426717E-4,-2.2848782E-3,1.1874258E-4,3.349763E-4,-1.4802878E-3],"categories":[],"categories_nodes":[],"categories_segments":[],"categories_sizes":[],"default_left":[0,0,0,0,0,0,0,0,0,0,0,0,0,0,0,0,0,0,0,0,0,0,0,0,0,0,0],"id":30,"left_children":[1,3,5,7,9,11,13,15,17,19,21,-1,23,25,-1,-1,-1,-1,-1,-1,-1,-1,-1,-1,-1,-1,-1],"loss_changes":[3.8445696E-1,2.0181589E-1,1.3194644E-1,2.4867965E-1,3.9010656E-1,5.654353E-2,7.36668E-2,4.4928426E-1,2.208952E-1,4.500262E-1,4.247914E-1,0E0,5.8447123E-2,5.073428E-2,0E0,0E0,0E0,0E0,0E0,0E0,0E0,0E0,0E0,0E0,0E0,0E0,0E0],"parents":[2147483647,0,0,1,1,2,2,3,3,4,4,5,5,6,6,7,7,8,8,9,9,10,10,12,12,13,13],"right_children":[2,4,6,8,10,12,14,16,18,20,22,-1,24,26,-1,-1,-1,-1,-1,-1,-1,-1,-1,-1,-1,-1,-1],"split_conditions":[9.2045456E-1,8.5714287E-1,9.230769E-1,8.77551E-1,3.8636363E-1,6.8421054E-1,9E-1,8.2954544E-1,9.7959185E-1,4E-1,7.105263E-1,1.9682526E-4,9.736842E-1,8.684211E-1,1.1044749E-3,2.662314E-5,-9.173198E-4,4.5418646E-4,-2.8734517E-4,1.3207902E-5,-9.0260885E-4,1.9985458E-4,-1.9426717E-4,-2.2848782E-3,1.1874258E-4,3.349763E-4,-1.4802878E-3],"split_indices":[0,4,6,3,0,1,2,0,3,2,1,0,1,1,0,0,0,0,0,0,0,0,0,0,0,0,0],"split_type":[0,0,0,0,0,0,0,0,0,0,0,0,0,0,0,0,0,0,0,0,0,0,0,0,0,0,0],"sum_hessian":[6.144E3,6.124E3,2E1,4.785E3,1.339E3,1.3E1,7E0,4.509E3,2.76E2,2.16E2,1.123E3,1E0,1.2E1,5E0,2E0,4.459E3,5E1,2.28E2,4.8E1,9.7E1,1.19E2,4.68E2,6.55E2,1.1E1,1E0,2E0,3E0],"tree_param":{"num_deleted":"0","num_feature":"7","num_nodes":"27","size_leaf_vector":"1"}},{"base_weights":[-9.7316067E-4,-3.457499E-2,1.5798596E-3,3.6020998E-2,-5.3504996E-2,2.5659318E-3,-4.8555266E-2,2.0268835E-2,1.6473706E-1,1.3744806E-1,-5.961538E-2,2.1232215E-3,1.0194913E-1,-5.520343E-2,3.4137135E-3,-9.576299E-4,3.9064905E-4,-5.307527E-4,2.6566738E-3,1.5639363E-5,3.0019623E-3,-1.0990903E-3,-4.2880248E-4,2.6056185E-5,-6.521217E-4,-6.0666734E-5,2.645795E-3,-7.657145E-4,6.619641E-4],"categories":[],"categories_nodes":[],"categories_segments":[],"categories_sizes":[],"default_left":[0,0,0,0,0,0,0,0,0,0,0,0,0,0,0,0,0,0,0,0,0,0,0,0,0,0,0,0,0],"id":31,"left_children":[1,3,5,7,9,11,13,15,17,19,21,23,25,27,-1,-1,-1,-1,-1,-1,-1,-1,-1,-1,-1,-1,-1,-1,-1],"loss_changes":[5.3089935E-1,5.859264E-1,2.8448537E-1,1.852237E-1,4.1073895E-1,2.4802002E-1,3.0658972E-1,1.8694012E-1,2.3393905E-1,2.427943E-1,2.772467E-1,1.8265596E-1,4.4077143E-1,2.9041693E-1,0E0,0E0,0E0,0E0,0E0,0E0,0E0,0E0,0E0,0E0,0E0,0E0,0E0,0E0,0E0],"parents":[2147483647,0,0,1,1,2,2,3,3,4,4,5,5,6,6,7,7,8,8,9,9,10,10,11,11,12,12,13,13],"right_children":[2,4,6,8,10,12,14,16,18,20,22,24,26,28,-1,-1,-1,-1,-1,-1,-1,-1,-1,-1,-1,-1,-1,-1,-1],"split_conditions":[2.840909E-1,2.1052632E-1,8.5227275E-1,6.1538464E-1,1.1363637E-1,1E0,1E0,1.1363637E-1,2.0408163E-2,3E-1,1.5384616E-1,1E0,8.8461536E-1,8.5714287E-1,3.4137135E-3,-9.576299E-4,3.9064905E-4,-5.307527E-4,2.6566738E-3,1.5639363E-5,3.0019623E-3,-1.0990903E-3,-4.2880248E-4,2.6056185E-5,-6.521217E-4,-6.0666734E-5,2.645795E-3,-7.657145E-4,6.619641E-4],"split_indices":[0,1,0,6,0,2,0,0,3,2,6,1,6,4,0,0,0,0,0,0,0,0,0,0,0,0,0,0,0],"split_type":[0,0,0,0,0,0,0,0,0,0,0,0,0,0,0,0,0,0,0,0,0,0,0,0,0,0,0,0,0],"sum_hessian":[6.187E3,4.36E2,5.751E3,9.2E1,3.44E2,5.641E3,1.1E2,8.3E1,9E0,1E1,3.34E2,5.617E3,2.4E1,1.09E2,1E0,1.1E1,7.2E1,3E0,6E0,6E0,4E0,8.2E1,2.52E2,5.578E3,3.9E1,1.5E1,9E0,9.3E1,1.6E1],"tree_param":{"num_deleted":"0","num_feature":"7","num_nodes":"29","size_leaf_vector":"1"}},{"base_weights":[-7.0742687E-4,-1.0928327E-2,8.192451E-3,7.960675E-2,-1.2701525E-2,8.3366714E-2,6.7420015E-3,-9.519585E-2,1.1138582E-1,-2.2101024E-2,-3.6031317E-3,-5.081757E-2,1.3114424E-1,1.271926E-1,5.8733416E-3,-1.329733E-4,-1.9424467E-3,-1.6253822E-3,1.2717218E-3,-1.5265332E-4,-6.182136E-4,5.496983E-4,-7.733954E-5,2.4547474E-4,-1.6198871E-3,1.5375537E-3,-1.4471158E-3,2.1845133E-3,-1.3288888E-4,-5.948698E-4,7.78577E-5],"categories":[],"categories_nodes":[],"categories_segments":[],"categories_sizes":[],"default_left":[0,0,0,0,0,0,0,0,0,0,0,0,0,0,0,0,0,0,0,0,0,0,0,0,0,0,0,0,0,0,0],"id":32,"left_children":[1,3,5,7,9,11,13,15,17,19,21,23,25,27,29,-1,-1,-1,-1,-1,-1,-1,-1,-1,-1,-1,-1,-1,-1,-1,-1],"loss_changes":[5.5815834E-1,4.5950365E-1,3.5707754E-1,3.1613207E-1,2.3954836E-1,4.04146E-1,3.360589E-1,7.042463E-2,2.2391069E-1,3.7320524E-1,3.452103E-1,1.4640953E-1,3.091712E-1,2.9776675E-1,4.0007845E-1,0E0,0E0,0E0,0E0,0E0,0E0,0E0,0E0,0E0,0E0,0E0,0E0,0E0,0E0,0E0,0E0],"parents":[2147483647,0,0,1,1,2,2,3,3,4,4,5,5,6,6,7,7,8,8,9,9,10,10,11,11,12,12,13,13,14,14],"right_children":[2,4,6,8,10,12,14,16,18,20,22,24,26,28,30,-1,-1,-1,-1,-1,-1,-1,-1,-1,-1,-1,-1,-1,-1,-1,-1],"split_conditions":[4.6153846E-1,1.3157895E-1,2.6666668E-1,6.122449E-2,5.102041E-1,5.3846157E-1,4.0816326E-2,1.6666667E-1,2.631579E-2,6E-1,4E-1,2.8947368E-1,8.8461536E-1,3.9473686E-1,2.840909E-1,-1.329733E-4,-1.9424467E-3,-1.6253822E-3,1.2717218E-3,-1.5265332E-4,-6.182136E-4,5.496983E-4,-7.733954E-5,2.4547474E-4,-1.6198871E-3,1.5375537E-3,-1.4471158E-3,2.1845133E-3,-1.3288888E-4,-5.948698E-4,7.78577E-5],"split_indices":[6,1,2,3,3,6,3,2,1,2,2,1,6,1,0,0,0,0,0,0,0,0,0,0,0,0,0,0,0,0,0],"split_type":[0,0,0,0,0,0,0,0,0,0,0,0,0,0,0,0,0,0,0,0,0,0,0,0,0,0,0,0,0,0,0],"sum_hessian":[6.134E3,2.855E3,3.279E3,5.4E1,2.801E3,6.1E1,3.218E3,8E0,4.6E1,1.377E3,1.424E3,1.6E1,4.5E1,2.2E1,3.196E3,5E0,3E0,2E0,4.4E1,1.176E3,2.01E2,9.3E1,1.331E3,1E1,6E0,4.2E1,3E0,1.3E1,9E0,9E1,3.106E3],"tree_param":{"num_deleted":"0","num_feature":"7","num_nodes":"31","size_leaf_vector":"1"}},{"base_weights":[6.054261E-4,-6.0215862E-3,9.376391E-3,-3.3175389E-3,-5.1104084E-2,1.4777295E-1,8.850403E-3,3.9840262E-2,-5.3722737E-3,-3.626538E-2,-1.7515281E-1,2.6002118E-1,-1.6479492E-2,-7.5003635E-3,1.4127535E-2,9.1699057E-4,-2.4806484E-4,-4.1256356E-4,-3.663427E-5,-7.371353E-4,2.594724E-4,-1.1704282E-3,-2.273695E-3,1.6311451E-4,3.0550084E-3,5.2256824E-4,-1.4571237E-3,2.8854414E-4,-3.312031E-4,-3.01514E-4,1.7883716E-4],"categories":[],"categories_nodes":[],"categories_segments":[],"categories_sizes":[],"default_left":[0,0,0,0,0,0,0,0,0,0,0,0,0,0,0,0,0,0,0,0,0,0,0,0,0,0,0,0,0,0,0],"id":33,"left_children":[1,3,5,7,9,11,13,15,17,19,21,23,25,27,29,-1,-1,-1,-1,-1,-1,-1,-1,-1,-1,-1,-1,-1,-1,-1,-1],"loss_changes":[3.5898015E-1,4.2869306E-1,1.9218102E-1,2.946245E-1,3.5995167E-1,1.8865545E-1,2.2867535E-1,5.0850254E-1,1.9423452E-1,4.1893744E-1,3.71086E-2,6.151986E-2,5.2029427E-2,6.035763E-1,3.336775E-1,0E0,0E0,0E0,0E0,0E0,0E0,0E0,0E0,0E0,0E0,0E0,0E0,0E0,0E0,0E0,0E0],"parents":[2147483647,0,0,1,1,2,2,3,3,4,4,5,5,6,6,7,7,8,8,9,9,10,10,11,11,12,12,13,13,14,14],"right_children":[2,4,6,8,10,12,14,16,18,20,22,24,26,28,30,-1,-1,-1,-1,-1,-1,-1,-1,-1,-1,-1,-1,-1,-1,-1,-1],"split_conditions":[5.9183675E-1,1E0,3E-1,1.8421052E-1,5.2272725E-1,1.923077E-1,3.0769232E-1,3.068182E-1,1.0204082E-1,4.090909E-1,8.4210527E-1,4.090909E-1,5.3409094E-1,5.9090906E-1,5E-1,9.1699057E-4,-2.4806484E-4,-4.1256356E-4,-3.663427E-5,-7.371353E-4,2.594724E-4,-1.1704282E-3,-2.273695E-3,1.6311451E-4,3.0550084E-3,5.2256824E-4,-1.4571237E-3,2.8854414E-4,-3.312031E-4,-3.01514E-4,1.7883716E-4],"split_indices":[3,4,2,1,0,6,6,0,3,0,1,0,0,0,1,0,0,0,0,0,0,0,0,0,0,0,0,0,0,0,0],"split_type":[0,0,0,0,0,0,0,0,0,0,0,0,0,0,0,0,0,0,0,0,0,0,0,0,0,0,0,0,0,0,0],"sum_hessian":[6.174E3,3.517E3,2.657E3,3.319E3,1.98E2,9E0,2.648E3,1.5E2,3.169E3,1.78E2,2E1,5E0,4E0,6.46E2,2.002E3,8.3E1,6.7E1,1.43E2,3.026E3,1.11E2,6.7E1,1.1E1,9E0,1E0,4E0,3E0,1E0,2.67E2,3.79E2,1.56E2,1.846E3],"tree_param":{"num_deleted":"0","num_feature":"7","num_nodes":"31","size_leaf_vector":"1"}},{"base_weights":[1.215863E-3,-1.1163068E-2,6.597481E-3,-3.4793396E-2,-2.0650052E-3,3.438727E-2,2.8591407E-3,-3.794288E-2,2.4501067E-1,1.3813478E-2,-1.4455789E-2,3.8248774E-2,-1.6521582E-1,2.1734146E-2,-1.8207307E-3,-2.6181305E-4,-1.1608368E-3,1.1134255E-3,3.4156463E-3,-2.608977E-4,2.6559224E-4,-6.976379E-4,-7.3085546E-5,9.095473E-5,6.066614E-4,-1.9999186E-3,7.3884334E-4,5.665276E-4,7.778038E-5,-1.2716587E-3,-1.1251378E-5],"categories":[],"categories_nodes":[],"categories_segments":[],"categories_sizes":[],"default_left":[0,0,0,0,0,0,0,0,0,0,0,0,0,0,0,0,0,0,0,0,0,0,0,0,0,0,0,0,0,0,0],"id":34,"left_children":[1,3,5,7,9,11,13,15,17,19,21,23,25,27,29,-1,-1,-1,-1,-1,-1,-1,-1,-1,-1,-1,-1,-1,-1,-1,-1],"loss_changes":[4.168401E-1,4.0754962E-1,4.5295596E-1,4.7370917E-1,2.6974285E-1,4.0480638E-1,3.3967844E-1,4.7670966E-1,3.940645E-2,3.0635956E-1,3.038706E-1,3.3144653E-1,9.792584E-2,3.7187788E-1,2.6857403E-1,0E0,0E0,0E0,0E0,0E0,0E0,0E0,0E0,0E0,0E0,0E0,0E0,0E0,0E0,0E0,0E0],"parents":[2147483647,0,0,1,1,2,2,3,3,4,4,5,5,6,6,7,7,8,8,9,9,10,10,11,11,12,12,13,13,14,14],"right_children":[2,4,6,8,10,12,14,16,18,20,22,24,26,28,30,-1,-1,-1,-1,-1,-1,-1,-1,-1,-1,-1,-1,-1,-1,-1,-1],"split_conditions":[4.0816328E-1,2.3076923E-1,4.6938777E-1,7E-1,3.6363637E-1,1E0,5.263158E-1,5.7894737E-1,7.105263E-1,1.2244898E-1,2.0408164E-1,5E-1,5.681818E-1,2.3076923E-1,4.3333334E-1,-2.6181305E-4,-1.1608368E-3,1.1134255E-3,3.4156463E-3,-2.608977E-4,2.6559224E-4,-6.976379E-4,-7.3085546E-5,9.095473E-5,6.066614E-4,-1.9999186E-3,7.3884334E-4,5.665276E-4,7.778038E-5,-1.2716587E-3,-1.1251378E-5],"split_indices":[3,6,3,2,0,6,1,1,1,3,3,1,0,6,2,0,0,0,0,0,0,0,0,0,0,0,0,0,0,0,0],"split_type":[0,0,0,0,0,0,0,0,0,0,0,0,0,0,0,0,0,0,0,0,0,0,0,0,0,0,0,0,0,0,0],"sum_hessian":[6.255E3,1.895E3,4.36E3,5.26E2,1.369E3,5.16E2,3.844E3,5.21E2,5E0,6E2,7.69E2,5.07E2,9E0,7.63E2,3.081E3,4.54E2,6.7E1,3E0,2E0,1.45E2,4.55E2,8.7E1,6.82E2,2.21E2,2.86E2,8E0,1E0,2.17E2,5.46E2,1.6E1,3.065E3],"tree_param":{"num_deleted":"0","num_feature":"7","num_nodes":"31","size_leaf_vector":"1"}},{"base_weights":[1.1451917E-3,-1.7854584E-3,2.264435E-2,1.5811804E-4,-2.8092086E-2,1.6863938E-2,9.5443554E-2,-7.579232E-3,8.592085E-3,1.4765623E-1,-3.285625E-2,3.1454604E-2,-3.2312725E-2,-6.7810364E-2,1.5427768E-1,2.2852149E-4,-1.0150777E-4,4.3595122E-4,5.404663E-5,-9.137592E-4,2.1883626E-3,-1.0809996E-4,-5.8099814E-4,2.4724865E-4,1.5074551E-3,-3.2721353E-5,-7.1273634E-4,1.5516093E-3,-1.3648326E-3,1.8044604E-3,-1.2634903E-3],"categories":[],"categories_nodes":[],"categories_segments":[],"categories_sizes":[],"default_left":[0,0,0,0,0,0,0,0,0,0,0,0,0,0,0,0,0,0,0,0,0,0,0,0,0,0,0,0,0,0,0],"id":35,"left_children":[1,3,5,7,9,11,13,15,17,19,21,23,25,27,29,-1,-1,-1,-1,-1,-1,-1,-1,-1,-1,-1,-1,-1,-1,-1,-1],"loss_changes":[3.8708943E-1,2.7645862E-1,3.0852696E-1,3.2869714E-1,3.1632462E-1,4.9180025E-1,5.291263E-1,2.058096E-1,2.686468E-1,1.9013952E-1,2.0139092E-1,4.201495E-1,1.7740406E-1,2.5085816E-1,3.1654084E-1,0E0,0E0,0E0,0E0,0E0,0E0,0E0,0E0,0E0,0E0,0E0,0E0,0E0,0E0,0E0,0E0],"parents":[2147483647,0,0,1,1,2,2,3,3,4,4,5,5,6,6,7,7,8,8,9,9,10,10,11,11,12,12,13,13,14,14],"right_children":[2,4,6,8,10,12,14,16,18,20,22,24,26,28,30,-1,-1,-1,-1,-1,-1,-1,-1,-1,-1,-1,-1,-1,-1,-1,-1],"split_conditions":[8.367347E-1,8.333333E-1,9.6153843E-1,5E-1,4.2857143E-1,9.591837E-1,7.386364E-1,2.2727273E-1,1.15384616E-1,3.469388E-1,7.692308E-1,8.75E-1,7.8409094E-1,6.363636E-1,8.9772725E-1,2.2852149E-4,-1.0150777E-4,4.3595122E-4,5.404663E-5,-9.137592E-4,2.1883626E-3,-1.0809996E-4,-5.8099814E-4,2.4724865E-4,1.5074551E-3,-3.2721353E-5,-7.1273634E-4,1.5516093E-3,-1.3648326E-3,1.8044604E-3,-1.2634903E-3],"split_indices":[3,2,6,0,3,3,0,0,6,3,6,0,0,0,0,0,0,0,0,0,0,0,0,0,0,0,0,0,0,0,0],"split_type":[0,0,0,0,0,0,0,0,0,0,0,0,0,0,0,0,0,0,0,0,0,0,0,0,0,0,0,0,0,0,0],"sum_hessian":[6.142E3,5.406E3,7.36E2,5.035E3,3.71E2,6.83E2,5.3E1,2.626E3,2.409E3,9E0,3.62E2,5.27E2,1.56E2,1.4E1,3.9E1,2.04E2,2.422E3,2E2,2.209E3,2E0,7E0,1.94E2,1.68E2,5E2,2.7E1,9E1,6.6E1,3E0,1.1E1,3.6E1,3E0],"tree_param":{"num_deleted":"0","num_feature":"7","num_nodes":"31","size_leaf_vector":"1"}},{"base_weights":[-2.1885526E-4,-2.53393E-2,1.3711384E-3,-8.255128E-3,-6.937944E-2,2.3537488E-3,-4.4621434E-2,3.2038715E-2,-2.6605278E-2,-8.9802615E-2,1.2953636E-1,-1.8068366E-1,2.545872E-3,-9.689517E-2,1.283858E-2,-4.6459588E-4,7.21175E-4,-7.897369E-4,1.9826573E-5,-1.6638685E-3,-6.549226E-4,-1.2625365E-3,2.571969E-3,-2.283384E-3,2.8795077E-4,1.2928946E-3,2.0771595E-5,-1.1062649E-3,2.1918376E-3,-4.5962693E-4,2.0512573E-3],"categories":[],"categories_nodes":[],"categories_segments":[],"categories_sizes":[],"default_left":[0,0,0,0,0,0,0,0,0,0,0,0,0,0,0,0,0,0,0,0,0,0,0,0,0,0,0,0,0,0,0],"id":36,"left_children":[1,3,5,7,9,11,13,15,17,19,21,23,25,27,29,-1,-1,-1,-1,-1,-1,-1,-1,-1,-1,-1,-1,-1,-1,-1,-1],"loss_changes":[2.475912E-1,2.770589E-1,2.6357892E-1,1.9827168E-1,4.3006945E-1,2.0122115E-1,3.676893E-1,2.6762438E-1,2.7562386E-1,1.6411126E-1,3.5901496E-1,6.6470996E-2,3.3858493E-1,3.0201906E-1,6.765252E-1,0E0,0E0,0E0,0E0,0E0,0E0,0E0,0E0,0E0,0E0,0E0,0E0,0E0,0E0,0E0,0E0],"parents":[2147483647,0,0,1,1,2,2,3,3,4,4,5,5,6,6,7,7,8,8,9,9,10,10,11,11,12,12,13,13,14,14],"right_children":[2,4,6,8,10,12,14,16,18,20,22,24,26,28,30,-1,-1,-1,-1,-1,-1,-1,-1,-1,-1,-1,-1,-1,-1,-1,-1],"split_conditions":[7.692308E-2,7.1428573E-1,8.4090906E-1,3.6842105E-1,6.818182E-1,6.818182E-2,8.863636E-1,2.6666668E-1,5E-1,3.877551E-1,6.666667E-1,6.122449E-2,1.25E-1,1E0,7.1428573E-1,-4.6459588E-4,7.21175E-4,-7.897369E-4,1.9826573E-5,-1.6638685E-3,-6.549226E-4,-1.2625365E-3,2.571969E-3,-2.283384E-3,2.8795077E-4,1.2928946E-3,2.0771595E-5,-1.1062649E-3,2.1918376E-3,-4.5962693E-4,2.0512573E-3],"split_indices":[6,4,0,1,0,0,0,2,1,3,2,3,0,6,4,0,0,0,0,0,0,0,0,0,0,0,0,0,0,0,0],"split_type":[0,0,0,0,0,0,0,0,0,0,0,0,0,0,0,0,0,0,0,0,0,0,0,0,0,0,0,0,0,0,0],"sum_hessian":[6.197E3,3.68E2,5.829E3,2.66E2,1.02E2,5.708E3,1.21E2,8.3E1,1.83E2,9.3E1,9E0,5E0,5.703E3,6.3E1,5.8E1,2.8E1,5.5E1,6.4E1,1.19E2,2.1E1,7.2E1,3E0,6E0,4E0,1E0,2E1,5.683E3,6.1E1,2E0,4.5E1,1.3E1],"tree_param":{"num_deleted":"0","num_feature":"7","num_nodes":"31","size_leaf_vector":"1"}},{"base_weights":[-1.2608485E-3,-1.1341032E-2,7.442657E-3,-4.1500106E-2,-6.834403E-3,2.056373E-1,6.8410877E-3,-2.2097545E-2,-1.05767965E-1,-4.211578E-3,-6.35922E-2,2.2873828E-1,-1.1357069E-5,3.839027E-3,3.3911683E-2,-7.0621475E-4,-8.687892E-5,-1.7409146E-4,-1.416952E-3,-1.3161568E-4,1.04980645E-4,-9.4287907E-4,4.878245E-5,2.5332945E-3,1.6004368E-4,1.2636087E-4,-7.666223E-5,1.2286541E-4,8.0134254E-4],"categories":[],"categories_nodes":[],"categories_segments":[],"categories_sizes":[],"default_left":[0,0,0,0,0,0,0,0,0,0,0,0,0,0,0,0,0,0,0,0,0,0,0,0,0,0,0,0,0],"id":37,"left_children":[1,3,5,7,9,11,13,15,17,19,21,23,-1,25,27,-1,-1,-1,-1,-1,-1,-1,-1,-1,-1,-1,-1,-1,-1],"loss_changes":[5.420984E-1,3.8884315E-1,3.9395252E-1,4.6153247E-1,3.7070572E-1,4.8026383E-2,2.6862168E-1,1.8613422E-1,2.7053916E-1,3.1386292E-1,2.3165235E-1,4.3028086E-2,0E0,3.0150738E-1,3.288734E-1,0E0,0E0,0E0,0E0,0E0,0E0,0E0,0E0,0E0,0E0,0E0,0E0,0E0,0E0],"parents":[2147483647,0,0,1,1,2,2,3,3,4,4,5,5,6,6,7,7,8,8,9,9,10,10,11,11,13,13,14,14],"right_children":[2,4,6,8,10,12,14,16,18,20,22,24,-1,26,28,-1,-1,-1,-1,-1,-1,-1,-1,-1,-1,-1,-1,-1,-1],"split_conditions":[4.6153846E-1,2.9545453E-1,1.25E-1,4E-1,8.947368E-1,8.5714287E-1,9.6153843E-1,8.163265E-2,4.2857143E-1,6.122449E-1,9.736842E-1,8.076923E-1,-1.1357069E-5,7.307692E-1,7.346939E-1,-7.0621475E-4,-8.687892E-5,-1.7409146E-4,-1.416952E-3,-1.3161568E-4,1.04980645E-4,-9.4287907E-4,4.878245E-5,2.5332945E-3,1.6004368E-4,1.2636087E-4,-7.666223E-5,1.2286541E-4,8.0134254E-4],"split_indices":[6,0,0,2,1,4,6,3,4,3,1,6,0,6,3,0,0,0,0,0,0,0,0,0,0,0,0,0,0],"split_type":[0,0,0,0,0,0,0,0,0,0,0,0,0,0,0,0,0,0,0,0,0,0,0,0,0,0,0,0,0],"sum_hessian":[6.177E3,2.862E3,3.315E3,3.71E2,2.491E3,9E0,3.306E3,2.86E2,8.5E1,2.382E3,1.09E2,8E0,1E0,2.977E3,3.29E2,6.1E1,2.25E2,2.5E1,6E1,1.481E3,9.01E2,7.5E1,3.4E1,7E0,1E0,1.687E3,1.29E3,2.25E2,1.04E2],"tree_param":{"num_deleted":"0","num_feature":"7","num_nodes":"29","size_leaf_vector":"1"}},{"base_weights":[-1.6967426E-3,2.5354728E-1,-1.90251E-3,2.9734373E-3,3.918071E-4,-1.5047824E-2,2.4204564E-3,4.337617E-2,-1.8981073E-2,-1.3162696E-2,4.9936804E-3,8.3525904E-4,-3.0132668E-4,1.2875787E-3,-2.0840453E-4,-1.6027593E-4,1.7494498E-3,1.7757599E-3,4.125832E-5],"categories":[],"categories_nodes":[],"categories_segments":[],"categories_sizes":[],"default_left":[0,0,0,0,0,0,0,0,0,0,0,0,0,0,0,0,0,0,0],"id":38,"left_children":[1,3,5,-1,-1,7,9,11,13,15,17,-1,-1,-1,-1,-1,-1,-1,-1],"loss_changes":[3.2600692E-1,3.5292357E-2,3.520213E-1,0E0,0E0,3.5310084E-1,1.87007E-1,2.887988E-1,3.9743137E-1,3.590231E-1,5.98668E-1,0E0,0E0,0E0,0E0,0E0,0E0,0E0,0E0],"parents":[2147483647,0,0,1,1,2,2,5,5,6,6,7,7,8,8,9,9,10,10],"right_children":[2,4,6,-1,-1,8,10,12,14,16,18,-1,-1,-1,-1,-1,-1,-1,-1],"split_conditions":[4.5454547E-2,2.1052632E-1,4.090909E-1,2.9734373E-3,3.918071E-4,2E-1,4.0816328E-1,5.714286E-1,1.25E-1,8.333333E-1,2.3684211E-1,8.3525904E-4,-3.0132668E-4,1.2875787E-3,-2.0840453E-4,-1.6027593E-4,1.7494498E-3,1.7757599E-3,4.125832E-5],"split_indices":[0,1,0,0,0,2,3,4,0,2,1,0,0,0,0,0,0,0,0],"split_type":[0,0,0,0,0,0,0,0,0,0,0,0,0,0,0,0,0,0,0],"sum_hessian":[6.197E3,4E0,6.193E3,3E0,1E0,1.532E3,4.661E3,9.6E1,1.436E3,6.6E2,4.001E3,6.2E1,3.4E1,1.7E1,1.419E3,6.51E2,9E0,1.9E1,3.982E3],"tree_param":{"num_deleted":"0","num_feature":"7","num_nodes":"19","size_leaf_vector":"1"}},{"base_weights":[-1.9185792E-3,-2.658295E-3,5.279003E-2,-2.769173E-3,3.3878868E-3,7.5464964E-2,-8.765876E-2,5.781459E-4,-1.2273155E-2,-1.0989863E-1,9.093835E-2,-1.5760559E-1,9.163628E-2,-2.17101E-4,5.4630855E-5,6.3661614E-4,-1.6369646E-4,-2.0022157E-3,4.7164856E-4,2.6965201E-5,1.401269E-3,-1.4154066E-4,-1.9656972E-3,1.8949568E-3,-4.1487514E-5],"categories":[],"categories_nodes":[],"categories_segments":[],"categories_sizes":[],"default_left":[0,0,0,0,0,0,0,0,0,0,0,0,0,0,0,0,0,0,0,0,0,0,0,0,0],"id":39,"left_children":[1,3,5,7,-1,9,11,13,15,17,19,21,23,-1,-1,-1,-1,-1,-1,-1,-1,-1,-1,-1,-1],"loss_changes":[2.5177544E-1,2.3324046E-1,2.7094257E-1,1.9517896E-1,0E0,2.1650454E-1,1.6493583E-1,4.9420118E-1,4.981258E-1,9.456206E-2,2.9043484E-1,4.7522917E-2,3.8280036E-2,0E0,0E0,0E0,0E0,0E0,0E0,0E0,0E0,0E0,0E0,0E0,0E0],"parents":[2147483647,0,0,1,1,2,2,3,3,5,5,6,6,7,7,8,8,9,9,10,10,11,11,12,12],"right_children":[2,4,6,8,-1,10,12,14,16,18,20,22,24,-1,-1,-1,-1,-1,-1,-1,-1,-1,-1,-1,-1],"split_conditions":[9.6666664E-1,1E0,8.636364E-1,7.307692E-1,3.3878868E-3,3.4615386E-1,9.7959185E-1,3.5227272E-1,3.181818E-1,7.613636E-1,9.4736844E-1,8.5714287E-1,3.846154E-1,-2.17101E-4,5.4630855E-5,6.3661614E-4,-1.6369646E-4,-2.0022157E-3,4.7164856E-4,2.6965201E-5,1.401269E-3,-1.4154066E-4,-1.9656972E-3,1.8949568E-3,-4.1487514E-5],"split_indices":[2,0,0,6,0,6,3,0,0,0,1,3,6,0,0,0,0,0,0,0,0,0,0,0,0],"split_type":[0,0,0,0,0,0,0,0,0,0,0,0,0,0,0,0,0,0,0,0,0,0,0,0,0],"sum_hessian":[6.217E3,6.135E3,8.2E1,6.134E3,1E0,7.1E1,1.1E1,4.537E3,1.597E3,5E0,6.6E1,8E0,3E0,8.15E2,3.722E3,8.1E1,1.516E3,3E0,2E0,2.4E1,4.2E1,2E0,6E0,1E0,2E0],"tree_param":{"num_deleted":"0","num_feature":"7","num_nodes":"25","size_leaf_vector":"1"}},{"base_weights":[2.2002594E-3,3.2252194E-3,-5.2747812E-2,1.8879797E-4,2.7587445E-2,-7.347108E-2,5.582612E-2,2.2681747E-3,-4.8849907E-2,2.1099778E-2,9.45994E-2,9.0843834E-2,-8.926167E-2,-2.967119E-2,2.0663168E-1,7.723392E-5,-9.307298E-5,-2.740096E-4,-9.945723E-4,1.66506E-4,1.0567111E-3,1.2371792E-3,-1.101357E-3,1.9618697E-3,-1.8523806E-3,-1.676961E-3,-5.423007E-4,-7.6707674E-4,2.6738334E-3,3.0591025E-4,2.3087328E-3],"categories":[],"categories_nodes":[],"categories_segments":[],"categories_sizes":[],"default_left":[0,0,0,0,0,0,0,0,0,0,0,0,0,0,0,0,0,0,0,0,0,0,0,0,0,0,0,0,0,0,0],"id":40,"left_children":[1,3,5,7,9,11,13,15,17,19,21,23,25,27,29,-1,-1,-1,-1,-1,-1,-1,-1,-1,-1,-1,-1,-1,-1,-1,-1],"loss_changes":[3.5368806E-1,4.5589644E-1,2.628524E-1,5.5900806E-1,2.949391E-1,2.5978804E-1,2.5110692E-1,3.3216047E-1,2.3933542E-1,2.3303476E-1,3.7132072E-1,2.9809123E-1,2.3544979E-1,2.021516E-1,2.2809893E-2,0E0,0E0,0E0,0E0,0E0,0E0,0E0,0E0,0E0,0E0,0E0,0E0,0E0,0E0,0E0,0E0],"parents":[2147483647,0,0,1,1,2,2,3,3,4,4,5,5,6,6,7,7,8,8,9,9,10,10,11,11,12,12,13,13,14,14],"right_children":[2,4,6,8,10,12,14,16,18,20,22,24,26,28,30,-1,-1,-1,-1,-1,-1,-1,-1,-1,-1,-1,-1,-1,-1,-1,-1],"split_conditions":[8.4090906E-1,7.1590906E-1,8.5714287E-1,6.931818E-1,1E0,7.755102E-1,8.863636E-1,6.5384614E-1,8.1578946E-1,9.6666664E-1,8.068182E-1,8.9772725E-1,8.5714287E-1,9.230769E-1,8.684211E-1,7.723392E-5,-9.307298E-5,-2.740096E-4,-9.945723E-4,1.66506E-4,1.0567111E-3,1.2371792E-3,-1.101357E-3,1.9618697E-3,-1.8523806E-3,-1.676961E-3,-5.423007E-4,-7.6707674E-4,2.6738334E-3,3.0591025E-4,2.3087328E-3],"split_indices":[0,0,4,0,4,3,0,6,1,2,0,0,3,6,1,0,0,0,0,0,0,0,0,0,0,0,0,0,0,0,0],"split_type":[0,0,0,0,0,0,0,0,0,0,0,0,0,0,0,0,0,0,0,0,0,0,0,0,0,0,0,0,0,0,0],"sum_hessian":[6.276E3,6.162E3,1.14E2,5.48E3,6.82E2,9.6E1,1.8E1,5.258E3,2.22E2,6.23E2,5.9E1,8E0,8.8E1,1.2E1,6E0,3.574E3,1.684E3,1.57E2,6.5E1,5.93E2,3E1,5.2E1,7E0,6E0,2E0,2.6E1,6.2E1,1.1E1,1E0,1E0,5E0],"tree_param":{"num_deleted":"0","num_feature":"7","num_nodes":"31","size_leaf_vector":"1"}},{"base_weights":[5.5618013E-5,-7.2961855E-3,7.472961E-3,-1.5187108E-2,5.4853135E-3,2.03098E-2,-9.9098426E-5,-5.348083E-3,-3.1744387E-2,9.953741E-3,-5.1600248E-2,1.08520435E-2,9.821263E-2,-1.4023351E-2,1.3450049E-2,-2.072122E-6,-4.4735832E-4,-7.113565E-4,-8.740068E-5,-1.3996643E-4,2.0110172E-4,7.122184E-4,-6.825977E-4,2.0130571E-4,-3.8831617E-4,1.2640528E-3,-4.4573226E-6,5.851623E-5,-2.2865341E-4,-4.5824735E-4,1.6350116E-4],"categories":[],"categories_nodes":[],"categories_segments":[],"categories_sizes":[],"default_left":[0,0,0,0,0,0,0,0,0,0,0,0,0,0,0,0,0,0,0,0,0,0,0,0,0,0,0,0,0,0,0],"id":41,"left_children":[1,3,5,7,9,11,13,15,17,19,21,23,25,27,29,-1,-1,-1,-1,-1,-1,-1,-1,-1,-1,-1,-1,-1,-1,-1,-1],"loss_changes":[3.4398058E-1,3.1960088E-1,3.0521414E-1,3.1896597E-1,3.0916366E-1,8.572898E-1,3.729842E-1,2.4905017E-1,6.608818E-1,2.7345175E-1,1.8492344E-1,4.8021257E-1,3.5051775E-1,1.7147478E-1,1.7299394E-1,0E0,0E0,0E0,0E0,0E0,0E0,0E0,0E0,0E0,0E0,0E0,0E0,0E0,0E0,0E0,0E0],"parents":[2147483647,0,0,1,1,2,2,3,3,4,4,5,5,6,6,7,7,8,8,9,9,10,10,11,11,12,12,13,13,14,14],"right_children":[2,4,6,8,10,12,14,16,18,20,22,24,26,28,30,-1,-1,-1,-1,-1,-1,-1,-1,-1,-1,-1,-1,-1,-1,-1,-1],"split_conditions":[5E-1,5.4545456E-1,6.923077E-1,5E-1,7.8409094E-1,8.367347E-1,8.4615386E-1,4.8863637E-1,5.6666666E-1,4.2857143E-1,1.4285715E-1,7.1428573E-1,9.591837E-1,4.489796E-1,4E-1,-2.072122E-6,-4.4735832E-4,-7.113565E-4,-8.740068E-5,-1.3996643E-4,2.0110172E-4,7.122184E-4,-6.825977E-4,2.0130571E-4,-3.8831617E-4,1.2640528E-3,-4.4573226E-6,5.851623E-5,-2.2865341E-4,-4.5824735E-4,1.6350116E-4],"split_indices":[6,0,6,2,0,3,6,0,2,4,4,3,3,3,2,0,0,0,0,0,0,0,0,0,0,0,0,0,0,0,0],"split_type":[0,0,0,0,0,0,0,0,0,0,0,0,0,0,0,0,0,0,0,0,0,0,0,0,0,0,0,0,0,0,0],"sum_hessian":[6.306E3,3.167E3,3.139E3,1.958E3,1.209E3,1.164E3,1.975E3,1.229E3,7.29E2,1.122E3,8.7E1,1.039E3,1.25E2,9.74E2,1.001E3,1.088E3,1.41E2,2.68E2,4.61E2,3.34E2,7.88E2,1E1,7.7E1,8.76E2,1.63E2,9.7E1,2.8E1,3E2,6.74E2,4.6E1,9.55E2],"tree_param":{"num_deleted":"0","num_feature":"7","num_nodes":"31","size_leaf_vector":"1"}},{"base_weights":[-2.347082E-4,4.2119667E-2,-1.3016702E-3,-1.19150944E-1,5.783363E-2,-1.9700482E-2,2.956444E-3,-1.8324928E-1,1.7695938E-3,1.15061894E-1,1.8776633E-2,-4.4866208E-2,-6.660027E-3,9.6259015E-3,-7.918316E-3,-5.83301E-4,-2.024001E-3,-1.0810848E-4,1.6444665E-3,4.4081404E-4,-8.503547E-4,-4.8107308E-4,3.914321E-3,-5.523571E-4,8.062403E-6,-1.4958502E-4,1.5870725E-4,-1.9460119E-4,1.9006168E-4],"categories":[],"categories_nodes":[],"categories_segments":[],"categories_sizes":[],"default_left":[0,0,0,0,0,0,0,0,0,0,0,0,0,0,0,0,0,0,0,0,0,0,0,0,0,0,0,0,0],"id":42,"left_children":[1,3,5,7,9,11,13,15,-1,17,19,21,23,25,27,-1,-1,-1,-1,-1,-1,-1,-1,-1,-1,-1,-1,-1,-1],"loss_changes":[2.8321856E-1,3.9715782E-1,4.789766E-1,2.9815018E-1,3.1299767E-1,3.7677148E-1,3.6018145E-1,1.6901642E-2,0E0,3.5610092E-1,2.2703853E-1,5.731525E-1,2.7495524E-1,4.7278816E-1,5.870793E-1,0E0,0E0,0E0,0E0,0E0,0E0,0E0,0E0,0E0,0E0,0E0,0E0,0E0,0E0],"parents":[2147483647,0,0,1,1,2,2,3,3,4,4,5,5,6,6,7,7,9,9,10,10,11,11,12,12,13,13,14,14],"right_children":[2,4,6,8,10,12,14,16,-1,18,20,22,24,26,28,-1,-1,-1,-1,-1,-1,-1,-1,-1,-1,-1,-1,-1,-1],"split_conditions":[1.8421052E-1,1.25E-1,3.8636363E-1,4.2307693E-1,1.632653E-1,2.3076923E-1,7E-1,5.6818184E-2,1.7695938E-3,6.122449E-2,4.2307693E-1,7E-1,1.0204082E-1,3.877551E-1,8.367347E-1,-5.83301E-4,-2.024001E-3,-1.0810848E-4,1.6444665E-3,4.4081404E-4,-8.503547E-4,-4.8107308E-4,3.914321E-3,-5.523571E-4,8.062403E-6,-1.4958502E-4,1.5870725E-4,-1.9460119E-4,1.9006168E-4],"split_indices":[1,0,0,6,3,6,2,0,0,3,6,2,3,3,3,0,0,0,0,0,0,0,0,0,0,0,0,0,0],"split_type":[0,0,0,0,0,0,0,0,0,0,0,0,0,0,0,0,0,0,0,0,0,0,0,0,0,0,0,0,0],"sum_hessian":[6.265E3,1.53E2,6.112E3,1.3E1,1.4E2,1.148E3,4.964E3,1.1E1,2E0,5.6E1,8.4E1,3.91E2,7.57E2,3.077E3,1.887E3,2E0,9E0,1.6E1,4E1,6.8E1,1.6E1,3.89E2,2E0,1E2,6.57E2,6.23E2,2.454E3,1.321E3,5.66E2],"tree_param":{"num_deleted":"0","num_feature":"7","num_nodes":"29","size_leaf_vector":"1"}},{"base_weights":[-7.2919956E-4,-1.2596516E-2,3.4418236E-3,1.0632207E-3,-2.7787399E-2,8.147359E-3,-1.0218846E-2,-8.859479E-3,3.463037E-2,-6.8716414E-2,-6.8201143E-3,6.9022933E-3,8.9600414E-2,-4.3757837E-2,-1.5072039E-3,-2.1137269E-6,-4.806732E-4,4.8086033E-4,-5.364586E-4,-7.332184E-4,1.7806161E-3,1.1250665E-3,-1.09715205E-4,4.3556985E-5,3.852803E-4,1.3379987E-3,-6.51978E-4,-6.1249116E-4,2.2606726E-4,1.3359103E-4,-2.3802616E-4],"categories":[],"categories_nodes":[],"categories_segments":[],"categories_sizes":[],"default_left":[0,0,0,0,0,0,0,0,0,0,0,0,0,0,0,0,0,0,0,0,0,0,0,0,0,0,0,0,0,0,0],"id":43,"left_children":[1,3,5,7,9,11,13,15,17,19,21,23,25,27,29,-1,-1,-1,-1,-1,-1,-1,-1,-1,-1,-1,-1,-1,-1,-1,-1],"loss_changes":[3.051048E-1,3.3265764E-1,2.9326782E-1,2.8175664E-1,6.508826E-1,3.4348053E-1,3.4149206E-1,2.2140491E-1,2.3182797E-1,3.051411E-1,2.504075E-1,2.6907045E-1,3.576654E-1,2.811378E-1,3.0823547E-1,0E0,0E0,0E0,0E0,0E0,0E0,0E0,0E0,0E0,0E0,0E0,0E0,0E0,0E0,0E0,0E0],"parents":[2147483647,0,0,1,1,2,2,3,3,4,4,5,5,6,6,7,7,8,8,9,9,10,10,11,11,12,12,13,13,14,14],"right_children":[2,4,6,8,10,12,14,16,18,20,22,24,26,28,30,-1,-1,-1,-1,-1,-1,-1,-1,-1,-1,-1,-1,-1,-1,-1,-1],"split_conditions":[4.2045453E-1,4.2105263E-1,7.894737E-1,3.6842105E-1,2.6923078E-1,9.591837E-1,5.7954544E-1,3.469388E-1,7.307692E-1,8.1578946E-1,3.6666667E-1,1E0,1E0,8.4615386E-1,7.307692E-1,-2.1137269E-6,-4.806732E-4,4.8086033E-4,-5.364586E-4,-7.332184E-4,1.7806161E-3,1.1250665E-3,-1.09715205E-4,4.3556985E-5,3.852803E-4,1.3379987E-3,-6.51978E-4,-6.1249116E-4,2.2606726E-4,1.3359103E-4,-2.3802616E-4],"split_indices":[0,1,1,1,6,3,0,3,6,1,2,4,4,6,6,0,0,0,0,0,0,0,0,0,0,0,0,0,0,0,0],"split_type":[0,0,0,0,0,0,0,0,0,0,0,0,0,0,0,0,0,0,0,0,0,0,0,0,0,0,0,0,0,0,0],"sum_hessian":[6.162E3,1.602E3,4.56E3,8.44E2,7.58E2,3.392E3,1.168E3,6.52E2,1.92E2,2.56E2,5.02E2,3.342E3,5E1,2.4E2,9.28E2,5.35E2,1.17E2,1.67E2,2.5E1,2.52E2,4E0,1.6E1,4.86E2,3.094E3,2.48E2,3.9E1,1.1E1,1.9E2,5E1,5.57E2,3.71E2],"tree_param":{"num_deleted":"0","num_feature":"7","num_nodes":"31","size_leaf_vector":"1"}},{"base_weights":[3.4712034E-3,2.6984082E-3,6.3595735E-2,5.179856E-3,-3.397602E-2,2.4818838E-2,1.9147323E-1,1.588109E-3,2.2352194E-2,-3.9501462E-2,1.5748006E-1,1.423204E-1,-2.3814047E-2,1.0454324E-1,3.1314275E-1,4.328993E-5,-3.4418545E-4,2.8053444E-4,-2.5642593E-4,-4.141032E-4,3.372063E-3,8.940824E-4,2.2128457E-3,1.3199358E-4,2.442973E-3,-4.8088335E-4,9.143129E-4,5.5475393E-4,3.2214476E-3,3.565991E-3,2.6202292E-4],"categories":[],"categories_nodes":[],"categories_segments":[],"categories_sizes":[],"default_left":[0,0,0,0,0,0,0,0,0,0,0,0,0,0,0,0,0,0,0,0,0,0,0,0,0,0,0,0,0,0,0],"id":44,"left_children":[1,3,5,7,9,11,13,15,17,19,21,23,25,27,29,-1,-1,-1,-1,-1,-1,-1,-1,-1,-1,-1,-1,-1,-1,-1,-1],"loss_changes":[2.8558162E-1,5.5285347E-1,3.820259E-1,3.508546E-1,4.1350433E-1,3.5197005E-1,1.5764421E-1,4.6458447E-1,2.6997155E-1,2.8361982E-1,2.7991533E-2,2.3378801E-1,1.274867E-1,1.1025575E-1,7.7942014E-2,0E0,0E0,0E0,0E0,0E0,0E0,0E0,0E0,0E0,0E0,0E0,0E0,0E0,0E0,0E0,0E0],"parents":[2147483647,0,0,1,1,2,2,3,3,4,4,5,5,6,6,7,7,8,8,9,9,10,10,11,11,12,12,13,13,14,14],"right_children":[2,4,6,8,10,12,14,16,18,20,22,24,26,28,30,-1,-1,-1,-1,-1,-1,-1,-1,-1,-1,-1,-1,-1,-1,-1,-1],"split_conditions":[9.6666664E-1,8.947368E-1,9.230769E-1,7.5510204E-1,1E0,7.5510204E-1,7.9545456E-1,1E0,8.181818E-1,1E0,7.0454544E-1,1.4285715E-1,1E0,9.3877554E-1,5.714286E-1,4.328993E-5,-3.4418545E-4,2.8053444E-4,-2.5642593E-4,-4.141032E-4,3.372063E-3,8.940824E-4,2.2128457E-3,1.3199358E-4,2.442973E-3,-4.8088335E-4,9.143129E-4,5.5475393E-4,3.2214476E-3,3.565991E-3,2.6202292E-4],"split_indices":[2,1,6,3,6,3,0,4,0,0,0,4,3,3,4,0,0,0,0,0,0,0,0,0,0,0,0,0,0,0,0],"split_type":[0,0,0,0,0,0,0,0,0,0,0,0,0,0,0,0,0,0,0,0,0,0,0,0,0,0,0,0,0,0,0],"sum_hessian":[6.149E3,6.072E3,7.7E1,5.688E3,3.84E2,6E1,1.7E1,4.705E3,9.83E2,3.74E2,1E1,1.7E1,4.3E1,1.1E1,6E0,4.373E3,3.32E2,8.79E2,1.04E2,3.73E2,1E0,6E0,4E0,8E0,9E0,3.6E1,7E0,1E1,1E0,5E0,1E0],"tree_param":{"num_deleted":"0","num_feature":"7","num_nodes":"31","size_leaf_vector":"1"}},{"base_weights":[1.780641E-3,-9.385711E-3,1.17856385E-2,3.860788E-2,-1.268129E-2,1.1583413E-2,3.3552025E-3,-3.9510004E-2,5.1389206E-2,1.3770981E-1,-1.356128E-2,1.7123709E-2,2.5442834E-3,2.680737E-3,-1.046582E-3,1.2557517E-3,1.5177883E-4,1.6640654E-3,-1.4637056E-3,-1.07181775E-4,-4.838901E-4,3.9706915E-4,1.21720346E-4,-1.8053569E-4,1.6486147E-4],"categories":[],"categories_nodes":[],"categories_segments":[],"categories_sizes":[],"default_left":[0,0,0,0,0,0,0,0,0,0,0,0,0,0,0,0,0,0,0,0,0,0,0,0,0],"id":45,"left_children":[1,3,5,7,9,11,-1,13,15,17,19,21,23,-1,-1,-1,-1,-1,-1,-1,-1,-1,-1,-1,-1],"loss_changes":[6.907594E-1,4.6265265E-1,2.0960262E-1,1.8973902E-1,3.6382526E-1,1.6321555E-1,0E0,5.6909627E-1,4.3328634E-1,1.5479186E-1,2.6881254E-1,2.2551435E-1,3.5639146E-1,0E0,0E0,0E0,0E0,0E0,0E0,0E0,0E0,0E0,0E0,0E0,0E0],"parents":[2147483647,0,0,1,1,2,2,3,3,4,4,5,5,7,7,8,8,9,9,10,10,11,11,12,12],"right_children":[2,4,6,8,10,12,-1,14,16,18,20,22,24,-1,-1,-1,-1,-1,-1,-1,-1,-1,-1,-1,-1],"split_conditions":[5.2272725E-1,2.3333333E-1,1E0,7.692308E-2,1.25E-1,6.923077E-1,3.3552025E-3,1.7045455E-1,1.923077E-1,1E0,6.3265306E-1,5.568182E-1,6.530612E-1,2.680737E-3,-1.046582E-3,1.2557517E-3,1.5177883E-4,1.6640654E-3,-1.4637056E-3,-1.07181775E-4,-4.838901E-4,3.9706915E-4,1.21720346E-4,-1.8053569E-4,1.6486147E-4],"split_indices":[0,2,0,6,0,6,0,0,6,4,3,0,3,0,0,0,0,0,0,0,0,0,0,0,0],"split_type":[0,0,0,0,0,0,0,0,0,0,0,0,0,0,0,0,0,0,0,0,0,0,0,0,0],"sum_hessian":[6.181E3,2.921E3,3.26E3,1.87E2,2.734E3,3.259E3,1E0,2.6E1,1.61E2,1.5E1,2.719E3,2.02E3,1.239E3,4E0,2.2E1,5.2E1,1.09E2,1.4E1,1E0,2.515E3,2.04E2,3.62E2,1.658E3,5E2,7.39E2],"tree_param":{"num_deleted":"0","num_feature":"7","num_nodes":"25","size_leaf_vector":"1"}},{"base_weights":[-7.452455E-4,-3.9397017E-3,2.0312523E-2,-1.7202982E-3,-5.7632938E-2,1.4289785E-2,8.067234E-2,-1.9498E-2,2.0890173E-3,-2.8654506E-2,-1.1321245E-1,3.1835403E-2,-2.3769215E-3,6.1928038E-2,2.5123528E-1,2.9456048E-4,-2.8390795E-4,7.328893E-5,-1.2779595E-4,-3.922871E-4,1.1484786E-3,-1.4428003E-3,4.1274837E-4,9.5400057E-4,1.943491E-4,-1.2809309E-4,1.3034833E-3,3.6241382E-4,1.6781454E-3,2.9617925E-3,-9.2143564E-5],"categories":[],"categories_nodes":[],"categories_segments":[],"categories_sizes":[],"default_left":[0,0,0,0,0,0,0,0,0,0,0,0,0,0,0,0,0,0,0,0,0,0,0,0,0,0,0,0,0,0,0],"id":46,"left_children":[1,3,5,7,9,11,13,15,17,19,21,23,25,27,29,-1,-1,-1,-1,-1,-1,-1,-1,-1,-1,-1,-1,-1,-1,-1,-1],"loss_changes":[4.177478E-1,6.4244914E-1,2.9621583E-1,3.5076717E-1,3.4142584E-1,2.1793427E-1,2.2102568E-1,3.987355E-1,3.324564E-1,2.1997945E-1,3.5632205E-1,2.842745E-1,5.319873E-1,1.7886934E-1,8.466861E-2,0E0,0E0,0E0,0E0,0E0,0E0,0E0,0E0,0E0,0E0,0E0,0E0,0E0,0E0,0E0,0E0],"parents":[2147483647,0,0,1,1,2,2,3,3,4,4,5,5,6,6,7,7,8,8,9,9,10,10,11,11,12,12,13,13,14,14],"right_children":[2,4,6,8,10,12,14,16,18,20,22,24,26,28,30,-1,-1,-1,-1,-1,-1,-1,-1,-1,-1,-1,-1,-1,-1,-1,-1],"split_conditions":[7.1590906E-1,6.931818E-1,1E0,3.5227272E-1,7.1428573E-1,7.7272725E-1,9E-1,2.3333333E-1,7E-1,8.979592E-1,9.4736844E-1,2.6923078E-1,1E0,8.4615386E-1,1E0,2.9456048E-4,-2.8390795E-4,7.328893E-5,-1.2779595E-4,-3.922871E-4,1.1484786E-3,-1.4428003E-3,4.1274837E-4,9.5400057E-4,1.943491E-4,-1.2809309E-4,1.3034833E-3,3.6241382E-4,1.6781454E-3,2.9617925E-3,-9.2143564E-5],"split_indices":[0,0,4,0,4,0,2,2,2,3,1,6,6,6,1,0,0,0,0,0,0,0,0,0,0,0,0,0,0,0,0],"split_type":[0,0,0,0,0,0,0,0,0,0,0,0,0,0,0,0,0,0,0,0,0,0,0,0,0,0,0,0,0,0,0],"sum_hessian":[6.208E3,5.391E3,8.17E2,5.178E3,2.13E2,7.44E2,7.3E1,9.13E2,4.265E3,1.41E2,7.2E1,3.62E2,3.82E2,6.7E1,6E0,1.4E2,7.73E2,3.154E3,1.111E3,1.32E2,9E0,6E1,1.2E1,5.8E1,3.04E2,3.55E2,2.7E1,5.5E1,1.2E1,5E0,1E0],"tree_param":{"num_deleted":"0","num_feature":"7","num_nodes":"31","size_leaf_vector":"1"}},{"base_weights":[1.6772393E-3,-5.3616646E-3,9.67871E-3,-1.9265527E-3,-4.0132824E-2,2.0552699E-2,-5.4974677E-3,7.9012595E-2,-3.0127023E-3,-7.0970595E-2,-1.8944608E-2,8.323796E-2,1.5693285E-2,-5.0829493E-2,2.474352E-4,1.5965435E-3,-2.841923E-4,-4.1442494E-5,7.085625E-4,-2.5403931E-5,-8.5315533E-4,4.1812836E-4,-5.097894E-4,-2.3989892E-4,1.5311536E-3,1.0061645E-4,3.8603973E-4,4.4867297E-4,-7.694129E-4,-3.6742473E-5,9.0702076E-4],"categories":[],"categories_nodes":[],"categories_segments":[],"categories_sizes":[],"default_left":[0,0,0,0,0,0,0,0,0,0,0,0,0,0,0,0,0,0,0,0,0,0,0,0,0,0,0,0,0,0,0],"id":47,"left_children":[1,3,5,7,9,11,13,15,17,19,21,23,25,27,29,-1,-1,-1,-1,-1,-1,-1,-1,-1,-1,-1,-1,-1,-1,-1,-1],"loss_changes":[3.5093534E-1,3.9587566E-1,4.813276E-1,2.655565E-1,1.933679E-1,5.162323E-1,3.17214E-1,3.510769E-1,2.4929692E-1,1.18560135E-1,3.485773E-1,9.177952E-1,2.0321256E-1,3.4578988E-1,3.8415584E-1,0E0,0E0,0E0,0E0,0E0,0E0,0E0,0E0,0E0,0E0,0E0,0E0,0E0,0E0,0E0,0E0],"parents":[2147483647,0,0,1,1,2,2,3,3,4,4,5,5,6,6,7,7,8,8,9,9,10,10,11,11,12,12,13,13,14,14],"right_children":[2,4,6,8,10,12,14,16,18,20,22,24,26,28,30,-1,-1,-1,-1,-1,-1,-1,-1,-1,-1,-1,-1,-1,-1,-1,-1],"split_conditions":[5.4545456E-1,1E0,7.631579E-1,1.0526316E-1,3.9772728E-1,5.568182E-1,5.9183675E-1,1.632653E-1,7.346939E-1,2.857143E-1,5.510204E-1,5.3061223E-1,7.1590906E-1,7.894737E-1,1E0,1.5965435E-3,-2.841923E-4,-4.1442494E-5,7.085625E-4,-2.5403931E-5,-8.5315533E-4,4.1812836E-4,-5.097894E-4,-2.3989892E-4,1.5311536E-3,1.0061645E-4,3.8603973E-4,4.4867297E-4,-7.694129E-4,-3.6742473E-5,9.0702076E-4],"split_indices":[0,4,1,1,0,0,3,3,3,3,3,3,0,1,6,0,0,0,0,0,0,0,0,0,0,0,0,0,0,0,0],"split_type":[0,0,0,0,0,0,0,0,0,0,0,0,0,0,0,0,0,0,0,0,0,0,0,0,0,0,0,0,0,0,0],"sum_hessian":[6.229E3,3.314E3,2.915E3,3.017E3,2.97E2,1.698E3,1.217E3,3.9E1,2.978E3,1.2E2,1.77E2,1.21E2,1.577E3,1.36E2,1.081E3,2.2E1,1.7E1,2.934E3,4.4E1,2.1E1,9.9E1,6.1E1,1.16E2,4.8E1,7.3E1,1.267E3,3.1E2,2.9E1,1.07E2,1.037E3,4.4E1],"tree_param":{"num_deleted":"0","num_feature":"7","num_nodes":"31","size_leaf_vector":"1"}},{"base_weights":[-7.745821E-4,-8.757103E-3,5.2827494E-3,8.479834E-2,-1.0137948E-2,2.5092255E-2,-5.913748E-4,1.01438366E-1,-1.4869466E-3,-9.601551E-3,-1.5003562E-1,-5.8430877E-2,2.9645039E-2,4.7905804E-3,-1.8189523E-2,1.6322724E-3,1.9143951E-4,-1.07215004E-4,6.698458E-4,1.2154579E-5,-1.6697635E-3,1.1092105E-4,-1.4317406E-3,2.2070286E-4,8.550561E-4,-1.2816323E-5,2.979871E-4,-6.732523E-4,-7.918468E-5],"categories":[],"categories_nodes":[],"categories_segments":[],"categories_sizes":[],"default_left":[0,0,0,0,0,0,0,0,0,0,0,0,0,0,0,0,0,0,0,0,0,0,0,0,0,0,0,0,0],"id":48,"left_children":[1,3,5,7,9,11,13,15,-1,17,19,21,23,25,27,-1,-1,-1,-1,-1,-1,-1,-1,-1,-1,-1,-1,-1,-1],"loss_changes":[2.9968843E-1,3.4630173E-1,4.1007984E-1,1.6661114E-1,1.963667E-1,3.0822396E-1,2.576103E-1,1.850158E-1,0E0,2.2604296E-1,2.5825992E-2,2.490353E-1,3.2180727E-1,3.163515E-1,3.2094517E-1,0E0,0E0,0E0,0E0,0E0,0E0,0E0,0E0,0E0,0E0,0E0,0E0,0E0,0E0],"parents":[2147483647,0,0,1,1,2,2,3,3,4,4,5,5,6,6,7,7,9,9,10,10,11,11,12,12,13,13,14,14],"right_children":[2,4,6,8,10,12,14,16,-1,18,20,22,24,26,28,-1,-1,-1,-1,-1,-1,-1,-1,-1,-1,-1,-1,-1,-1],"split_conditions":[5E-1,1.0526316E-1,5.568182E-1,5.714286E-1,7.755102E-1,3.265306E-1,8.4210527E-1,1.632653E-1,-1.4869466E-3,8.4210527E-1,4.5454547E-1,6.1538464E-1,8.8461536E-1,8.4615386E-1,6.25E-1,1.6322724E-3,1.9143951E-4,-1.07215004E-4,6.698458E-4,1.2154579E-5,-1.6697635E-3,1.1092105E-4,-1.4317406E-3,2.2070286E-4,8.550561E-4,-1.2816323E-5,2.979871E-4,-6.732523E-4,-7.918468E-5],"split_indices":[0,1,0,4,3,3,1,3,0,1,0,6,6,6,0,0,0,0,0,0,0,0,0,0,0,0,0,0,0],"split_type":[0,0,0,0,0,0,0,0,0,0,0,0,0,0,0,0,0,0,0,0,0,0,0,0,0,0,0,0,0],"sum_hessian":[6.196E3,2.673E3,3.523E3,3.8E1,2.635E3,8.05E2,2.718E3,3.6E1,2E0,2.626E3,9E0,4.1E1,7.64E2,2.082E3,6.36E2,2E1,1.6E1,2.589E3,3.7E1,1E0,8E0,2.3E1,1.8E1,6.74E2,9E1,1.676E3,4.06E2,1.09E2,5.27E2],"tree_param":{"num_deleted":"0","num_feature":"7","num_nodes":"29","size_leaf_vector":"1"}},{"base_weights":[6.860359E-4,-1.4383246E-2,4.5308853E-3,-2.9359607E-2,9.948172E-3,3.6995132E-3,6.354056E-2,-1.243417E-2,-4.705812E-2,1.467538E-2,-1.3662818E-1,9.972747E-3,-6.919866E-3,1.00254655E-1,-7.2866224E-2,-1.0706625E-3,-7.1299044E-5,-5.0362304E-4,1.66195E-3,8.721132E-4,6.6578454E-5,7.659411E-4,-1.7532347E-3,-7.432578E-5,1.5294027E-4,1.7350914E-4,-1.400405E-4,-3.2607216E-4,1.5219146E-3,-1.3713249E-3,8.3092815E-4],"categories":[],"categories_nodes":[],"categories_segments":[],"categories_sizes":[],"default_left":[0,0,0,0,0,0,0,0,0,0,0,0,0,0,0,0,0,0,0,0,0,0,0,0,0,0,0,0,0,0,0],"id":49,"left_children":[1,3,5,7,9,11,13,15,17,19,21,23,25,27,29,-1,-1,-1,-1,-1,-1,-1,-1,-1,-1,-1,-1,-1,-1,-1,-1],"loss_changes":[3.5627487E-1,4.5578715E-1,2.4010488E-1,2.3127049E-1,3.3251688E-1,3.2196647E-1,3.4785268E-1,1.9851226E-1,2.7471924E-1,2.6868135E-1,1.3718918E-1,2.8148898E-1,3.0887294E-1,3.775853E-1,1.6173828E-1,0E0,0E0,0E0,0E0,0E0,0E0,0E0,0E0,0E0,0E0,0E0,0E0,0E0,0E0,0E0,0E0],"parents":[2147483647,0,0,1,1,2,2,3,3,4,4,5,5,6,6,7,7,8,8,9,9,10,10,11,11,12,12,13,13,14,14],"right_children":[2,4,6,8,10,12,14,16,18,20,22,24,26,28,30,-1,-1,-1,-1,-1,-1,-1,-1,-1,-1,-1,-1,-1,-1,-1,-1],"split_conditions":[3.8636363E-1,4.6153846E-1,9.6666664E-1,3.6666667E-1,6.666667E-1,7E-1,8.5227275E-1,1.0227273E-1,7E-1,2.6666668E-1,5.769231E-1,4.0816328E-1,3.846154E-1,9.2105263E-1,1E0,-1.0706625E-3,-7.1299044E-5,-5.0362304E-4,1.66195E-3,8.721132E-4,6.6578454E-5,7.659411E-4,-1.7532347E-3,-7.432578E-5,1.5294027E-4,1.7350914E-4,-1.400405E-4,-3.2607216E-4,1.5219146E-3,-1.3713249E-3,8.3092815E-4],"split_indices":[0,6,2,2,2,2,0,0,2,2,6,3,6,1,3,0,0,0,0,0,0,0,0,0,0,0,0,0,0,0,0],"split_type":[0,0,0,0,0,0,0,0,0,0,0,0,0,0,0,0,0,0,0,0,0,0,0,0,0,0,0,0,0,0,0],"sum_hessian":[6.147E3,1.249E3,4.898E3,7.73E2,4.76E2,4.831E3,6.7E1,3.96E2,3.77E2,4.62E2,1.4E1,3.037E3,1.794E3,5.3E1,1.4E1,2E1,3.76E2,3.72E2,5E0,4.5E1,4.17E2,2E0,1.2E1,7.11E2,2.326E3,4.05E2,1.389E3,1.5E1,3.8E1,1E1,4E0],"tree_param":{"num_deleted":"0","num_feature":"7","num_nodes":"31","size_leaf_vector":"1"}},{"base_weights":[2.2878074E-3,5.3431825E-3,-1.0518335E-2,3.652368E-3,2.7839491E-2,-2.3543587E-2,1.6195403E-2,5.92128E-3,-2.2197474E-2,9.385228E-2,1.2290968E-2,-1.854237E-2,-1.1080814E-1,-2.355128E-2,3.9652847E-2,3.2292868E-5,4.5260016E-4,2.2235496E-3,-2.478129E-4,1.8721832E-5,1.9152263E-3,3.4348977E-5,1.3469683E-3,-2.6643914E-4,5.0226365E-5,-1.313851E-3,7.1853725E-4,-1.92521E-5,-9.985816E-4,8.727776E-4,7.849505E-5],"categories":[],"categories_nodes":[],"categories_segments":[],"categories_sizes":[],"default_left":[0,0,0,0,0,0,0,0,0,0,0,0,0,0,0,0,0,0,0,0,0,0,0,0,0,0,0,0,0,0,0],"id":50,"left_children":[1,3,5,7,9,11,13,15,17,19,21,23,25,27,29,-1,-1,-1,-1,-1,-1,-1,-1,-1,-1,-1,-1,-1,-1,-1,-1],"loss_changes":[2.4069074E-1,1.8879047E-1,4.1270578E-1,2.7109915E-1,3.5500783E-1,3.457793E-1,3.6362016E-1,4.497154E-1,2.4120101E-1,5.9256756E-1,3.0523524E-1,1.4427313E-1,1.710614E-1,2.390894E-1,3.703996E-1,0E0,0E0,0E0,0E0,0E0,0E0,0E0,0E0,0E0,0E0,0E0,0E0,0E0,0E0,0E0,0E0],"parents":[2147483647,0,0,1,1,2,2,3,3,4,4,5,5,6,6,7,7,8,8,9,9,10,10,11,11,12,12,13,13,14,14],"right_children":[2,4,6,8,10,12,14,16,18,20,22,24,26,28,30,-1,-1,-1,-1,-1,-1,-1,-1,-1,-1,-1,-1,-1,-1,-1,-1],"split_conditions":[7.894737E-1,7.1590906E-1,8.367347E-1,6.5909094E-1,3.4615386E-1,7.9545456E-1,5E-1,7.5510204E-1,3.6842105E-1,7.105263E-1,1E0,8.4615386E-1,9.2105263E-1,9.591837E-1,7.307692E-1,3.2292868E-5,4.5260016E-4,2.2235496E-3,-2.478129E-4,1.8721832E-5,1.9152263E-3,3.4348977E-5,1.3469683E-3,-2.6643914E-4,5.0226365E-5,-1.313851E-3,7.1853725E-4,-1.92521E-5,-9.985816E-4,8.727776E-4,7.849505E-5],"split_indices":[1,0,3,0,6,0,6,3,1,1,4,6,1,3,6,0,0,0,0,0,0,0,0,0,0,0,0,0,0,0,0],"split_type":[0,0,0,0,0,0,0,0,0,0,0,0,0,0,0,0,0,0,0,0,0,0,0,0,0,0,0,0,0,0,0],"sum_hessian":[6.149E3,4.965E3,1.184E3,4.619E3,3.46E2,7.96E2,3.88E2,4.247E3,3.72E2,6.5E1,2.81E2,7.54E2,4.2E1,1.44E2,2.44E2,3.976E3,2.71E2,3E0,3.69E2,3.4E1,3.1E1,2.63E2,1.8E1,5.61E2,1.93E2,3.8E1,4E0,1.13E2,